solver_type L2R_L2LOSS_SVC_DUAL
nr_class 6
label 1 2 3 4 5 6
nr_feature 3872
bias -1
w
-1.676947162511872e-09 -2.455489594076704e-09 -3.614474887214162e-09 -3.717526995015086e-09 -2.371844069611543e-09 -1.815893068681456e-09 
-1.059268546364275e-09 -1.510405662708863e-09 -2.300856390849927e-09 -2.403346269685453e-09 -1.605192884252853e-09 -1.368215130443701e-09 
-9.02460857171798e-10 -1.095144690539754e-09 -1.517788907179263e-09 -1.740983298202738e-09 -1.255967498284353e-09 -1.161059396212553e-09 
-9.03039501769246e-10 -1.165650533474518e-09 -1.357314962317758e-09 -1.574565946567422e-09 -1.350638411927464e-09 -1.176664249455408e-09 
-1.156398923433984e-09 -1.294626368098002e-09 -1.279598166270499e-09 -1.315692768909288e-09 -1.494855682511493e-09 -1.243620859288404e-09 
-1.05668419342473e-09 -1.105153390431385e-09 -1.271832027942358e-09 -1.170487094364409e-09 -1.395592463344842e-09 -1.181697663313254e-09 
-1.137942573632502e-09 -1.113244864129968e-09 -1.624737122819295e-09 -1.035813160528913e-09 -1.453415108325161e-09 -1.207392663408825e-09 
-1.624113881309897e-09 -1.808271040137809e-09 -2.519842542808668e-09 -2.130098450692115e-09 -2.13541563946473e-09 -1.590223861630435e-09 
-1.367509360489424e-09 -1.798263258873297e-09 -2.400237971035362e-09 -1.899296080530759e-09 -1.958613818162277e-09 -1.551159649840391e-09 
-1.134755044839035e-09 -1.155853205245277e-09 -1.721718953052974e-09 -9.252235581292089e-10 -1.49904853687796e-09 -1.209547621554311e-09 
-1.237348097854558e-09 -1.146459928945143e-09 -1.328075290139751e-09 -1.258427215411901e-09 -1.488131315310974e-09 -1.363806227655611e-09 
-1.326610387372776e-09 -1.506413509199952e-09 -1.260466464339786e-09 -1.415232572830959e-09 -1.670771389569803e-09 -1.447518425572249e-09 
-9.628971778924911e-10 -1.187505921640665e-09 -1.40836781262589e-09 -1.291380376971289e-09 -1.255272897430264e-09 -1.092652434293067e-09 
-9.045605633170383e-10 -1.163037895840747e-09 -1.52934137931078e-09 -1.6961793033207e-09 -1.295216926894528e-09 -1.07540516678132e-09 
-1.078484976471852e-09 -1.52227384722804e-09 -2.35941392332498e-09 -2.457415629155034e-09 -1.754486788326138e-09 -1.388751136631629e-09 
-1.818275824768148e-09 -2.433195752106787e-09 -3.628759904174652e-09 -3.751452132603631e-09 -2.453992481306643e-09 -1.858406524226109e-09 
-1.488534754966747e-09 -2.368658858876163e-09 -3.469082986771092e-09 -3.589401080567948e-09 -2.366235666777794e-09 -1.780964048802294e-09 
-1.192248486909041e-09 -1.347378380353945e-09 -2.225549545701779e-09 -2.325902998944269e-09 -1.409847284500684e-09 -1.265946338480447e-09 
-1.023965509596399e-09 -9.517261928630354e-10 -1.459397653341856e-09 -1.653993560576067e-09 -1.163609952203011e-09 -9.428558615706317e-10 
-8.441262952946097e-10 -8.318429856387365e-10 -9.906894943036222e-10 -1.243807775142741e-09 -1.009906200584151e-09 -8.409338446157965e-10 
-1.020118366972377e-09 -1.05862258894466e-09 -8.665695440591293e-10 -1.310700256564455e-09 -1.119200250572902e-09 -1.034002065815741e-09 
-8.533926386926724e-10 -9.986606388564057e-10 -1.012430542403726e-09 -1.144447128715762e-09 -1.241887434643882e-09 -1.038653333255599e-09 
-1.048378443967596e-09 -1.292979406299514e-09 -1.68995113724407e-09 -1.112200032328973e-09 -1.352318011162582e-09 -1.278054219587982e-09 
-1.56082496452333e-09 -1.906727949424276e-09 -2.354013612504617e-09 -1.935394435241341e-09 -1.912484598713478e-09 -1.371079547505892e-09 
-1.395076940803225e-09 -1.871168552423545e-09 -2.444615164375764e-09 -1.972229093808564e-09 -1.977438319923267e-09 -1.46874341650051e-09 
-1.160330389113691e-09 -1.205765445421243e-09 -1.802550286691605e-09 -1.012112845354479e-09 -1.469710332791324e-09 -1.264745223253722e-09 
-9.970172970667374e-10 -1.166881823990261e-09 -1.068048958846219e-09 -1.105914997333688e-09 -1.268948679478508e-09 -1.117392848954222e-09 
-1.049028370131691e-09 -1.109564333543874e-09 -8.135444773339914e-10 -1.243597805486696e-09 -1.126670462296955e-09 -1.021562335719575e-09 
-8.089403378879947e-10 -8.687305718150697e-10 -1.016170513173406e-09 -1.205224822230055e-09 -9.516280859633484e-10 -7.716483733021994e-10 
-9.44837425364954e-10 -9.101102823287474e-10 -1.39143769535847e-09 -1.569203693080179e-09 -1.106309781302561e-09 -8.850400859584784e-10 
-1.101019194849393e-09 -1.318325561986187e-09 -2.289480480723033e-09 -2.348952389989703e-09 -1.531738989124838e-09 -1.296687274435545e-09 
-1.825321497374856e-09 -2.326595784870323e-09 -3.475810991305836e-09 -3.697864217554398e-09 -2.482024998675392e-09 -1.852699323353359e-09 
-1.676947162511872e-09 -2.455489594076704e-09 -3.614474887214162e-09 -3.717526995015086e-09 -2.371844069611543e-09 -1.815893068681456e-09 
-1.059268546364275e-09 -1.510405662708863e-09 -2.300856390849927e-09 -2.403346269685453e-09 -1.605192884252853e-09 -1.368215130443701e-09 
-9.02460857171798e-10 -1.095144690539754e-09 -1.517788907179263e-09 -1.740983298202738e-09 -1.255967498284353e-09 -1.161059396212553e-09 
-9.03039501769246e-10 -1.165650533474518e-09 -1.357314962317758e-09 -1.574565946567422e-09 -1.350638411927464e-09 -1.176664249455408e-09 
-1.156398923433984e-09 -1.294626368098002e-09 -1.279598166270499e-09 -1.315692768909288e-09 -1.494855682511493e-09 -1.243620859288404e-09 
-1.05668419342473e-09 -1.105153390431385e-09 -1.271832027942358e-09 -1.170487094364409e-09 -1.395592463344842e-09 -1.181697663313254e-09 
-1.137942573632502e-09 -1.113244864129968e-09 -1.624737122819295e-09 -1.035813160528913e-09 -1.453415108325161e-09 -1.207392663408825e-09 
-1.624113881309897e-09 -1.808271040137809e-09 -2.519842542808668e-09 -2.130098450692115e-09 -2.13541563946473e-09 -1.590223861630435e-09 
-1.367509360489424e-09 -1.798263258873297e-09 -2.400237971035362e-09 -1.899296080530759e-09 -1.958613818162277e-09 -1.551159649840391e-09 
-1.134755044839035e-09 -1.155853205245277e-09 -1.721718953052974e-09 -9.252235581292089e-10 -1.49904853687796e-09 -1.209547621554311e-09 
-1.237348097854558e-09 -1.146459928945143e-09 -1.328075290139751e-09 -1.258427215411901e-09 -1.488131315310974e-09 -1.363806227655611e-09 
-1.326610387372776e-09 -1.506413509199952e-09 -1.260466464339786e-09 -1.415232572830959e-09 -1.670771389569803e-09 -1.447518425572249e-09 
-9.628971778924911e-10 -1.187505921640665e-09 -1.40836781262589e-09 -1.291380376971289e-09 -1.255272897430264e-09 -1.092652434293067e-09 
-9.045605633170383e-10 -1.163037895840747e-09 -1.52934137931078e-09 -1.6961793033207e-09 -1.295216926894528e-09 -1.07540516678132e-09 
-1.078484976471852e-09 -1.52227384722804e-09 -2.35941392332498e-09 -2.457415629155034e-09 -1.754486788326138e-09 -1.388751136631629e-09 
-1.818275824768148e-09 -2.433195752106787e-09 -3.628759904174652e-09 -3.751452132603631e-09 -2.453992481306643e-09 -1.858406524226109e-09 
-1.488534754966747e-09 -2.368658858876163e-09 -3.469082986771092e-09 -3.589401080567948e-09 -2.366235666777794e-09 -1.780964048802294e-09 
-1.192248486909041e-09 -1.347378380353945e-09 -2.225549545701779e-09 -2.325902998944269e-09 -1.409847284500684e-09 -1.265946338480447e-09 
-1.023965509596399e-09 -9.517261928630354e-10 -1.459397653341856e-09 -1.653993560576067e-09 -1.163609952203011e-09 -9.428558615706317e-10 
-8.441262952946097e-10 -8.318429856387365e-10 -9.906894943036222e-10 -1.243807775142741e-09 -1.009906200584151e-09 -8.409338446157965e-10 
-1.020118366972377e-09 -1.05862258894466e-09 -8.665695440591293e-10 -1.310700256564455e-09 -1.119200250572902e-09 -1.034002065815741e-09 
-8.533926386926724e-10 -9.986606388564057e-10 -1.012430542403726e-09 -1.144447128715762e-09 -1.241887434643882e-09 -1.038653333255599e-09 
-1.048378443967596e-09 -1.292979406299514e-09 -1.68995113724407e-09 -1.112200032328973e-09 -1.352318011162582e-09 -1.278054219587982e-09 
-1.56082496452333e-09 -1.906727949424276e-09 -2.354013612504617e-09 -1.935394435241341e-09 -1.912484598713478e-09 -1.371079547505892e-09 
-1.395076940803225e-09 -1.871168552423545e-09 -2.444615164375764e-09 -1.972229093808564e-09 -1.977438319923267e-09 -1.46874341650051e-09 
-1.160330389113691e-09 -1.205765445421243e-09 -1.802550286691605e-09 -1.012112845354479e-09 -1.469710332791324e-09 -1.264745223253722e-09 
-9.970172970667374e-10 -1.166881823990261e-09 -1.068048958846219e-09 -1.105914997333688e-09 -1.268948679478508e-09 -1.117392848954222e-09 
-1.049028370131691e-09 -1.109564333543874e-09 -8.135444773339914e-10 -1.243597805486696e-09 -1.126670462296955e-09 -1.021562335719575e-09 
-8.089403378879947e-10 -8.687305718150697e-10 -1.016170513173406e-09 -1.205224822230055e-09 -9.516280859633484e-10 -7.716483733021994e-10 
-9.44837425364954e-10 -9.101102823287474e-10 -1.39143769535847e-09 -1.569203693080179e-09 -1.106309781302561e-09 -8.850400859584784e-10 
-1.101019194849393e-09 -1.318325561986187e-09 -2.289480480723033e-09 -2.348952389989703e-09 -1.531738989124838e-09 -1.296687274435545e-09 
-1.825321497374856e-09 -2.326595784870323e-09 -3.475810991305836e-09 -3.697864217554398e-09 -2.482024998675392e-09 -1.852699323353359e-09 
-1.676947162511872e-09 -2.455489594076704e-09 -3.614474887214162e-09 -3.717526995015086e-09 -2.371844069611543e-09 -1.815893068681456e-09 
-1.059268546364275e-09 -1.510405662708863e-09 -2.300856390849927e-09 -2.403346269685453e-09 -1.605192884252853e-09 -1.368215130443701e-09 
-9.02460857171798e-10 -1.095144690539754e-09 -1.517788907179263e-09 -1.740983298202738e-09 -1.255967498284353e-09 -1.161059396212553e-09 
-9.03039501769246e-10 -1.165650533474518e-09 -1.357314962317758e-09 -1.574565946567422e-09 -1.350638411927464e-09 -1.176664249455408e-09 
-1.156398923433984e-09 -1.294626368098002e-09 -1.279598166270499e-09 -1.315692768909288e-09 -1.494855682511493e-09 -1.243620859288404e-09 
-1.05668419342473e-09 -1.105153390431385e-09 -1.271832027942358e-09 -1.170487094364409e-09 -1.395592463344842e-09 -1.181697663313254e-09 
-1.137942573632502e-09 -1.113244864129968e-09 -1.624737122819295e-09 -1.035813160528913e-09 -1.453415108325161e-09 -1.207392663408825e-09 
-1.624113881309897e-09 -1.808271040137809e-09 -2.519842542808668e-09 -2.130098450692115e-09 -2.13541563946473e-09 -1.590223861630435e-09 
-1.367509360489424e-09 -1.798263258873297e-09 -2.400237971035362e-09 -1.899296080530759e-09 -1.958613818162277e-09 -1.551159649840391e-09 
-1.134755044839035e-09 -1.155853205245277e-09 -1.721718953052974e-09 -9.252235581292089e-10 -1.49904853687796e-09 -1.209547621554311e-09 
-1.237348097854558e-09 -1.146459928945143e-09 -1.328075290139751e-09 -1.258427215411901e-09 -1.488131315310974e-09 -1.363806227655611e-09 
-1.326610387372776e-09 -1.506413509199952e-09 -1.260466464339786e-09 -1.415232572830959e-09 -1.670771389569803e-09 -1.447518425572249e-09 
-9.628971778924911e-10 -1.187505921640665e-09 -1.40836781262589e-09 -1.291380376971289e-09 -1.255272897430264e-09 -1.092652434293067e-09 
-9.045605633170383e-10 -1.163037895840747e-09 -1.52934137931078e-09 -1.6961793033207e-09 -1.295216926894528e-09 -1.07540516678132e-09 
-1.078484976471852e-09 -1.52227384722804e-09 -2.35941392332498e-09 -2.457415629155034e-09 -1.754486788326138e-09 -1.388751136631629e-09 
-1.818275824768148e-09 -2.433195752106787e-09 -3.628759904174652e-09 -3.751452132603631e-09 -2.453992481306643e-09 -1.858406524226109e-09 
-1.488534754966747e-09 -2.368658858876163e-09 -3.469082986771092e-09 -3.589401080567948e-09 -2.366235666777794e-09 -1.780964048802294e-09 
-1.192248486909041e-09 -1.347378380353945e-09 -2.225549545701779e-09 -2.325902998944269e-09 -1.409847284500684e-09 -1.265946338480447e-09 
-1.023965509596399e-09 -9.517261928630354e-10 -1.459397653341856e-09 -1.653993560576067e-09 -1.163609952203011e-09 -9.428558615706317e-10 
-8.441262952946097e-10 -8.318429856387365e-10 -9.906894943036222e-10 -1.243807775142741e-09 -1.009906200584151e-09 -8.409338446157965e-10 
-1.020118366972377e-09 -1.05862258894466e-09 -8.665695440591293e-10 -1.310700256564455e-09 -1.119200250572902e-09 -1.034002065815741e-09 
-8.533926386926724e-10 -9.986606388564057e-10 -1.012430542403726e-09 -1.144447128715762e-09 -1.241887434643882e-09 -1.038653333255599e-09 
-1.048378443967596e-09 -1.292979406299514e-09 -1.68995113724407e-09 -1.112200032328973e-09 -1.352318011162582e-09 -1.278054219587982e-09 
-1.56082496452333e-09 -1.906727949424276e-09 -2.354013612504617e-09 -1.935394435241341e-09 -1.912484598713478e-09 -1.371079547505892e-09 
-1.395076940803225e-09 -1.871168552423545e-09 -2.444615164375764e-09 -1.972229093808564e-09 -1.977438319923267e-09 -1.46874341650051e-09 
-1.160330389113691e-09 -1.205765445421243e-09 -1.802550286691605e-09 -1.012112845354479e-09 -1.469710332791324e-09 -1.264745223253722e-09 
-9.970172970667374e-10 -1.166881823990261e-09 -1.068048958846219e-09 -1.105914997333688e-09 -1.268948679478508e-09 -1.117392848954222e-09 
-1.049028370131691e-09 -1.109564333543874e-09 -8.135444773339914e-10 -1.243597805486696e-09 -1.126670462296955e-09 -1.021562335719575e-09 
-8.089403378879947e-10 -8.687305718150697e-10 -1.016170513173406e-09 -1.205224822230055e-09 -9.516280859633484e-10 -7.716483733021994e-10 
-9.44837425364954e-10 -9.101102823287474e-10 -1.39143769535847e-09 -1.569203693080179e-09 -1.106309781302561e-09 -8.850400859584784e-10 
-1.101019194849393e-09 -1.318325561986187e-09 -2.289480480723033e-09 -2.348952389989703e-09 -1.531738989124838e-09 -1.296687274435545e-09 
-1.825321497374856e-09 -2.326595784870323e-09 -3.475810991305836e-09 -3.697864217554398e-09 -2.482024998675392e-09 -1.852699323353359e-09 
-1.676947162511872e-09 -2.455489594076704e-09 -3.614474887214162e-09 -3.717526995015086e-09 -2.371844069611543e-09 -1.815893068681456e-09 
-1.059268546364275e-09 -1.510405662708863e-09 -2.300856390849927e-09 -2.403346269685453e-09 -1.605192884252853e-09 -1.368215130443701e-09 
-9.02460857171798e-10 -1.095144690539754e-09 -1.517788907179263e-09 -1.740983298202738e-09 -1.255967498284353e-09 -1.161059396212553e-09 
-9.03039501769246e-10 -1.165650533474518e-09 -1.357314962317758e-09 -1.574565946567422e-09 -1.350638411927464e-09 -1.176664249455408e-09 
-1.156398923433984e-09 -1.294626368098002e-09 -1.279598166270499e-09 -1.315692768909288e-09 -1.494855682511493e-09 -1.243620859288404e-09 
-1.05668419342473e-09 -1.105153390431385e-09 -1.271832027942358e-09 -1.170487094364409e-09 -1.395592463344842e-09 -1.181697663313254e-09 
-1.137942573632502e-09 -1.113244864129968e-09 -1.624737122819295e-09 -1.035813160528913e-09 -1.453415108325161e-09 -1.207392663408825e-09 
-1.624113881309897e-09 -1.808271040137809e-09 -2.519842542808668e-09 -2.130098450692115e-09 -2.13541563946473e-09 -1.590223861630435e-09 
-1.367509360489424e-09 -1.798263258873297e-09 -2.400237971035362e-09 -1.899296080530759e-09 -1.958613818162277e-09 -1.551159649840391e-09 
-1.134755044839035e-09 -1.155853205245277e-09 -1.721718953052974e-09 -9.252235581292089e-10 -1.49904853687796e-09 -1.209547621554311e-09 
-1.237348097854558e-09 -1.146459928945143e-09 -1.328075290139751e-09 -1.258427215411901e-09 -1.488131315310974e-09 -1.363806227655611e-09 
-1.326610387372776e-09 -1.506413509199952e-09 -1.260466464339786e-09 -1.415232572830959e-09 -1.670771389569803e-09 -1.447518425572249e-09 
-9.628971778924911e-10 -1.187505921640665e-09 -1.40836781262589e-09 -1.291380376971289e-09 -1.255272897430264e-09 -1.092652434293067e-09 
-9.045605633170383e-10 -1.163037895840747e-09 -1.52934137931078e-09 -1.6961793033207e-09 -1.295216926894528e-09 -1.07540516678132e-09 
-1.078484976471852e-09 -1.52227384722804e-09 -2.35941392332498e-09 -2.457415629155034e-09 -1.754486788326138e-09 -1.388751136631629e-09 
-1.818275824768148e-09 -2.433195752106787e-09 -3.628759904174652e-09 -3.751452132603631e-09 -2.453992481306643e-09 -1.858406524226109e-09 
-1.488534754966747e-09 -2.368658858876163e-09 -3.469082986771092e-09 -3.589401080567948e-09 -2.366235666777794e-09 -1.780964048802294e-09 
-1.192248486909041e-09 -1.347378380353945e-09 -2.225549545701779e-09 -2.325902998944269e-09 -1.409847284500684e-09 -1.265946338480447e-09 
-1.023965509596399e-09 -9.517261928630354e-10 -1.459397653341856e-09 -1.653993560576067e-09 -1.163609952203011e-09 -9.428558615706317e-10 
-8.441262952946097e-10 -8.318429856387365e-10 -9.906894943036222e-10 -1.243807775142741e-09 -1.009906200584151e-09 -8.409338446157965e-10 
-1.020118366972377e-09 -1.05862258894466e-09 -8.665695440591293e-10 -1.310700256564455e-09 -1.119200250572902e-09 -1.034002065815741e-09 
-8.533926386926724e-10 -9.986606388564057e-10 -1.012430542403726e-09 -1.144447128715762e-09 -1.241887434643882e-09 -1.038653333255599e-09 
-1.048378443967596e-09 -1.292979406299514e-09 -1.68995113724407e-09 -1.112200032328973e-09 -1.352318011162582e-09 -1.278054219587982e-09 
-1.56082496452333e-09 -1.906727949424276e-09 -2.354013612504617e-09 -1.935394435241341e-09 -1.912484598713478e-09 -1.371079547505892e-09 
-1.395076940803225e-09 -1.871168552423545e-09 -2.444615164375764e-09 -1.972229093808564e-09 -1.977438319923267e-09 -1.46874341650051e-09 
-1.160330389113691e-09 -1.205765445421243e-09 -1.802550286691605e-09 -1.012112845354479e-09 -1.469710332791324e-09 -1.264745223253722e-09 
-9.970172970667374e-10 -1.166881823990261e-09 -1.068048958846219e-09 -1.105914997333688e-09 -1.268948679478508e-09 -1.117392848954222e-09 
-1.049028370131691e-09 -1.109564333543874e-09 -8.135444773339914e-10 -1.243597805486696e-09 -1.126670462296955e-09 -1.021562335719575e-09 
-8.089403378879947e-10 -8.687305718150697e-10 -1.016170513173406e-09 -1.205224822230055e-09 -9.516280859633484e-10 -7.716483733021994e-10 
-9.44837425364954e-10 -9.101102823287474e-10 -1.39143769535847e-09 -1.569203693080179e-09 -1.106309781302561e-09 -8.850400859584784e-10 
-1.101019194849393e-09 -1.318325561986187e-09 -2.289480480723033e-09 -2.348952389989703e-09 -1.531738989124838e-09 -1.296687274435545e-09 
-1.825321497374856e-09 -2.326595784870323e-09 -3.475810991305836e-09 -3.697864217554398e-09 -2.482024998675392e-09 -1.852699323353359e-09 
-1.676947162511872e-09 -2.455489594076704e-09 -3.614474887214162e-09 -3.717526995015086e-09 -2.371844069611543e-09 -1.815893068681456e-09 
-1.059268546364275e-09 -1.510405662708863e-09 -2.300856390849927e-09 -2.403346269685453e-09 -1.605192884252853e-09 -1.368215130443701e-09 
-9.02460857171798e-10 -1.095144690539754e-09 -1.517788907179263e-09 -1.740983298202738e-09 -1.255967498284353e-09 -1.161059396212553e-09 
-9.03039501769246e-10 -1.165650533474518e-09 -1.357314962317758e-09 -1.574565946567422e-09 -1.350638411927464e-09 -1.176664249455408e-09 
-1.156398923433984e-09 -1.294626368098002e-09 -1.279598166270499e-09 -1.315692768909288e-09 -1.494855682511493e-09 -1.243620859288404e-09 
-1.05668419342473e-09 -1.105153390431385e-09 -1.271832027942358e-09 -1.170487094364409e-09 -1.395592463344842e-09 -1.181697663313254e-09 
-1.137942573632502e-09 -1.113244864129968e-09 -1.624737122819295e-09 -1.035813160528913e-09 -1.453415108325161e-09 -1.207392663408825e-09 
-1.624113881309897e-09 -1.808271040137809e-09 -2.519842542808668e-09 -2.130098450692115e-09 -2.13541563946473e-09 -1.590223861630435e-09 
-1.367509360489424e-09 -1.798263258873297e-09 -2.400237971035362e-09 -1.899296080530759e-09 -1.958613818162277e-09 -1.551159649840391e-09 
-1.134755044839035e-09 -1.155853205245277e-09 -1.721718953052974e-09 -9.252235581292089e-10 -1.49904853687796e-09 -1.209547621554311e-09 
-1.237348097854558e-09 -1.146459928945143e-09 -1.328075290139751e-09 -1.258427215411901e-09 -1.488131315310974e-09 -1.363806227655611e-09 
-1.326610387372776e-09 -1.506413509199952e-09 -1.260466464339786e-09 -1.415232572830959e-09 -1.670771389569803e-09 -1.447518425572249e-09 
-9.628971778924911e-10 -1.187505921640665e-09 -1.40836781262589e-09 -1.291380376971289e-09 -1.255272897430264e-09 -1.092652434293067e-09 
-9.045605633170383e-10 -1.163037895840747e-09 -1.52934137931078e-09 -1.6961793033207e-09 -1.295216926894528e-09 -1.07540516678132e-09 
-1.078484976471852e-09 -1.52227384722804e-09 -2.35941392332498e-09 -2.457415629155034e-09 -1.754486788326138e-09 -1.388751136631629e-09 
-1.818275824768148e-09 -2.433195752106787e-09 -3.628759904174652e-09 -3.751452132603631e-09 -2.453992481306643e-09 -1.858406524226109e-09 
-1.488534754966747e-09 -2.368658858876163e-09 -3.469082986771092e-09 -3.589401080567948e-09 -2.366235666777794e-09 -1.780964048802294e-09 
-1.192248486909041e-09 -1.347378380353945e-09 -2.225549545701779e-09 -2.325902998944269e-09 -1.409847284500684e-09 -1.265946338480447e-09 
-1.023965509596399e-09 -9.517261928630354e-10 -1.459397653341856e-09 -1.653993560576067e-09 -1.163609952203011e-09 -9.428558615706317e-10 
-8.441262952946097e-10 -8.318429856387365e-10 -9.906894943036222e-10 -1.243807775142741e-09 -1.009906200584151e-09 -8.409338446157965e-10 
-1.020118366972377e-09 -1.05862258894466e-09 -8.665695440591293e-10 -1.310700256564455e-09 -1.119200250572902e-09 -1.034002065815741e-09 
-8.533926386926724e-10 -9.986606388564057e-10 -1.012430542403726e-09 -1.144447128715762e-09 -1.241887434643882e-09 -1.038653333255599e-09 
-1.048378443967596e-09 -1.292979406299514e-09 -1.68995113724407e-09 -1.112200032328973e-09 -1.352318011162582e-09 -1.278054219587982e-09 
-1.56082496452333e-09 -1.906727949424276e-09 -2.354013612504617e-09 -1.935394435241341e-09 -1.912484598713478e-09 -1.371079547505892e-09 
-1.395076940803225e-09 -1.871168552423545e-09 -2.444615164375764e-09 -1.972229093808564e-09 -1.977438319923267e-09 -1.46874341650051e-09 
-1.160330389113691e-09 -1.205765445421243e-09 -1.802550286691605e-09 -1.012112845354479e-09 -1.469710332791324e-09 -1.264745223253722e-09 
-9.970172970667374e-10 -1.166881823990261e-09 -1.068048958846219e-09 -1.105914997333688e-09 -1.268948679478508e-09 -1.117392848954222e-09 
-1.049028370131691e-09 -1.109564333543874e-09 -8.135444773339914e-10 -1.243597805486696e-09 -1.126670462296955e-09 -1.021562335719575e-09 
-8.089403378879947e-10 -8.687305718150697e-10 -1.016170513173406e-09 -1.205224822230055e-09 -9.516280859633484e-10 -7.716483733021994e-10 
-9.44837425364954e-10 -9.101102823287474e-10 -1.39143769535847e-09 -1.569203693080179e-09 -1.106309781302561e-09 -8.850400859584784e-10 
-1.101019194849393e-09 -1.318325561986187e-09 -2.289480480723033e-09 -2.348952389989703e-09 -1.531738989124838e-09 -1.296687274435545e-09 
-1.825321497374856e-09 -2.326595784870323e-09 -3.475810991305836e-09 -3.697864217554398e-09 -2.482024998675392e-09 -1.852699323353359e-09 
-1.676947162511872e-09 -2.455489594076704e-09 -3.614474887214162e-09 -3.717526995015086e-09 -2.371844069611543e-09 -1.815893068681456e-09 
-1.059268546364275e-09 -1.510405662708863e-09 -2.300856390849927e-09 -2.403346269685453e-09 -1.605192884252853e-09 -1.368215130443701e-09 
-9.02460857171798e-10 -1.095144690539754e-09 -1.517788907179263e-09 -1.740983298202738e-09 -1.255967498284353e-09 -1.161059396212553e-09 
-9.03039501769246e-10 -1.165650533474518e-09 -1.357314962317758e-09 -1.574565946567422e-09 -1.350638411927464e-09 -1.176664249455408e-09 
-1.156398923433984e-09 -1.294626368098002e-09 -1.279598166270499e-09 -1.315692768909288e-09 -1.494855682511493e-09 -1.243620859288404e-09 
-1.05668419342473e-09 -1.105153390431385e-09 -1.271832027942358e-09 -1.170487094364409e-09 -1.395592463344842e-09 -1.181697663313254e-09 
-1.137942573632502e-09 -1.113244864129968e-09 -1.624737122819295e-09 -1.035813160528913e-09 -1.453415108325161e-09 -1.207392663408825e-09 
-1.624113881309897e-09 -1.808271040137809e-09 -2.519842542808668e-09 -2.130098450692115e-09 -2.13541563946473e-09 -1.590223861630435e-09 
-1.367509360489424e-09 -1.798263258873297e-09 -2.400237971035362e-09 -1.899296080530759e-09 -1.958613818162277e-09 -1.551159649840391e-09 
-1.134755044839035e-09 -1.155853205245277e-09 -1.721718953052974e-09 -9.252235581292089e-10 -1.49904853687796e-09 -1.209547621554311e-09 
-1.237348097854558e-09 -1.146459928945143e-09 -1.328075290139751e-09 -1.258427215411901e-09 -1.488131315310974e-09 -1.363806227655611e-09 
-1.326610387372776e-09 -1.506413509199952e-09 -1.260466464339786e-09 -1.415232572830959e-09 -1.670771389569803e-09 -1.447518425572249e-09 
-9.628971778924911e-10 -1.187505921640665e-09 -1.40836781262589e-09 -1.291380376971289e-09 -1.255272897430264e-09 -1.092652434293067e-09 
-9.045605633170383e-10 -1.163037895840747e-09 -1.52934137931078e-09 -1.6961793033207e-09 -1.295216926894528e-09 -1.07540516678132e-09 
-1.078484976471852e-09 -1.52227384722804e-09 -2.35941392332498e-09 -2.457415629155034e-09 -1.754486788326138e-09 -1.388751136631629e-09 
-1.818275824768148e-09 -2.433195752106787e-09 -3.628759904174652e-09 -3.751452132603631e-09 -2.453992481306643e-09 -1.858406524226109e-09 
-1.488534754966747e-09 -2.368658858876163e-09 -3.469082986771092e-09 -3.589401080567948e-09 -2.366235666777794e-09 -1.780964048802294e-09 
-1.192248486909041e-09 -1.347378380353945e-09 -2.225549545701779e-09 -2.325902998944269e-09 -1.409847284500684e-09 -1.265946338480447e-09 
-1.023965509596399e-09 -9.517261928630354e-10 -1.459397653341856e-09 -1.653993560576067e-09 -1.163609952203011e-09 -9.428558615706317e-10 
-8.441262952946097e-10 -8.318429856387365e-10 -9.906894943036222e-10 -1.243807775142741e-09 -1.009906200584151e-09 -8.409338446157965e-10 
-1.020118366972377e-09 -1.05862258894466e-09 -8.665695440591293e-10 -1.310700256564455e-09 -1.119200250572902e-09 -1.034002065815741e-09 
-8.533926386926724e-10 -9.986606388564057e-10 -1.012430542403726e-09 -1.144447128715762e-09 -1.241887434643882e-09 -1.038653333255599e-09 
-1.048378443967596e-09 -1.292979406299514e-09 -1.68995113724407e-09 -1.112200032328973e-09 -1.352318011162582e-09 -1.278054219587982e-09 
-1.56082496452333e-09 -1.906727949424276e-09 -2.354013612504617e-09 -1.935394435241341e-09 -1.912484598713478e-09 -1.371079547505892e-09 
-1.395076940803225e-09 -1.871168552423545e-09 -2.444615164375764e-09 -1.972229093808564e-09 -1.977438319923267e-09 -1.46874341650051e-09 
-1.160330389113691e-09 -1.205765445421243e-09 -1.802550286691605e-09 -1.012112845354479e-09 -1.469710332791324e-09 -1.264745223253722e-09 
-9.970172970667374e-10 -1.166881823990261e-09 -1.068048958846219e-09 -1.105914997333688e-09 -1.268948679478508e-09 -1.117392848954222e-09 
-1.049028370131691e-09 -1.109564333543874e-09 -8.135444773339914e-10 -1.243597805486696e-09 -1.126670462296955e-09 -1.021562335719575e-09 
-8.089403378879947e-10 -8.687305718150697e-10 -1.016170513173406e-09 -1.205224822230055e-09 -9.516280859633484e-10 -7.716483733021994e-10 
-9.44837425364954e-10 -9.101102823287474e-10 -1.39143769535847e-09 -1.569203693080179e-09 -1.106309781302561e-09 -8.850400859584784e-10 
-1.101019194849393e-09 -1.318325561986187e-09 -2.289480480723033e-09 -2.348952389989703e-09 -1.531738989124838e-09 -1.296687274435545e-09 
-1.825321497374856e-09 -2.326595784870323e-09 -3.475810991305836e-09 -3.697864217554398e-09 -2.482024998675392e-09 -1.852699323353359e-09 
-1.676947162511872e-09 -2.455489594076704e-09 -3.614474887214162e-09 -3.717526995015086e-09 -2.371844069611543e-09 -1.815893068681456e-09 
-1.059268546364275e-09 -1.510405662708863e-09 -2.300856390849927e-09 -2.403346269685453e-09 -1.605192884252853e-09 -1.368215130443701e-09 
-9.02460857171798e-10 -1.095144690539754e-09 -1.517788907179263e-09 -1.740983298202738e-09 -1.255967498284353e-09 -1.161059396212553e-09 
-9.03039501769246e-10 -1.165650533474518e-09 -1.357314962317758e-09 -1.574565946567422e-09 -1.350638411927464e-09 -1.176664249455408e-09 
-1.156398923433984e-09 -1.294626368098002e-09 -1.279598166270499e-09 -1.315692768909288e-09 -1.494855682511493e-09 -1.243620859288404e-09 
-1.05668419342473e-09 -1.105153390431385e-09 -1.271832027942358e-09 -1.170487094364409e-09 -1.395592463344842e-09 -1.181697663313254e-09 
-1.137942573632502e-09 -1.113244864129968e-09 -1.624737122819295e-09 -1.035813160528913e-09 -1.453415108325161e-09 -1.207392663408825e-09 
-1.624113881309897e-09 -1.808271040137809e-09 -2.519842542808668e-09 -2.130098450692115e-09 -2.13541563946473e-09 -1.590223861630435e-09 
-1.367509360489424e-09 -1.798263258873297e-09 -2.400237971035362e-09 -1.899296080530759e-09 -1.958613818162277e-09 -1.551159649840391e-09 
-1.134755044839035e-09 -1.155853205245277e-09 -1.721718953052974e-09 -9.252235581292089e-10 -1.49904853687796e-09 -1.209547621554311e-09 
-1.237348097854558e-09 -1.146459928945143e-09 -1.328075290139751e-09 -1.258427215411901e-09 -1.488131315310974e-09 -1.363806227655611e-09 
-1.326610387372776e-09 -1.506413509199952e-09 -1.260466464339786e-09 -1.415232572830959e-09 -1.670771389569803e-09 -1.447518425572249e-09 
-9.628971778924911e-10 -1.187505921640665e-09 -1.40836781262589e-09 -1.291380376971289e-09 -1.255272897430264e-09 -1.092652434293067e-09 
-9.045605633170383e-10 -1.163037895840747e-09 -1.52934137931078e-09 -1.6961793033207e-09 -1.295216926894528e-09 -1.07540516678132e-09 
-1.078484976471852e-09 -1.52227384722804e-09 -2.35941392332498e-09 -2.457415629155034e-09 -1.754486788326138e-09 -1.388751136631629e-09 
-1.818275824768148e-09 -2.433195752106787e-09 -3.628759904174652e-09 -3.751452132603631e-09 -2.453992481306643e-09 -1.858406524226109e-09 
-1.488534754966747e-09 -2.368658858876163e-09 -3.469082986771092e-09 -3.589401080567948e-09 -2.366235666777794e-09 -1.780964048802294e-09 
-1.192248486909041e-09 -1.347378380353945e-09 -2.225549545701779e-09 -2.325902998944269e-09 -1.409847284500684e-09 -1.265946338480447e-09 
-1.023965509596399e-09 -9.517261928630354e-10 -1.459397653341856e-09 -1.653993560576067e-09 -1.163609952203011e-09 -9.428558615706317e-10 
-8.441262952946097e-10 -8.318429856387365e-10 -9.906894943036222e-10 -1.243807775142741e-09 -1.009906200584151e-09 -8.409338446157965e-10 
-1.020118366972377e-09 -1.05862258894466e-09 -8.665695440591293e-10 -1.310700256564455e-09 -1.119200250572902e-09 -1.034002065815741e-09 
-8.533926386926724e-10 -9.986606388564057e-10 -1.012430542403726e-09 -1.144447128715762e-09 -1.241887434643882e-09 -1.038653333255599e-09 
-1.048378443967596e-09 -1.292979406299514e-09 -1.68995113724407e-09 -1.112200032328973e-09 -1.352318011162582e-09 -1.278054219587982e-09 
-1.56082496452333e-09 -1.906727949424276e-09 -2.354013612504617e-09 -1.935394435241341e-09 -1.912484598713478e-09 -1.371079547505892e-09 
-1.395076940803225e-09 -1.871168552423545e-09 -2.444615164375764e-09 -1.972229093808564e-09 -1.977438319923267e-09 -1.46874341650051e-09 
-1.160330389113691e-09 -1.205765445421243e-09 -1.802550286691605e-09 -1.012112845354479e-09 -1.469710332791324e-09 -1.264745223253722e-09 
-9.970172970667374e-10 -1.166881823990261e-09 -1.068048958846219e-09 -1.105914997333688e-09 -1.268948679478508e-09 -1.117392848954222e-09 
-1.049028370131691e-09 -1.109564333543874e-09 -8.135444773339914e-10 -1.243597805486696e-09 -1.126670462296955e-09 -1.021562335719575e-09 
-8.089403378879947e-10 -8.687305718150697e-10 -1.016170513173406e-09 -1.205224822230055e-09 -9.516280859633484e-10 -7.716483733021994e-10 
-9.44837425364954e-10 -9.101102823287474e-10 -1.39143769535847e-09 -1.569203693080179e-09 -1.106309781302561e-09 -8.850400859584784e-10 
-1.101019194849393e-09 -1.318325561986187e-09 -2.289480480723033e-09 -2.348952389989703e-09 -1.531738989124838e-09 -1.296687274435545e-09 
-1.825321497374856e-09 -2.326595784870323e-09 -3.475810991305836e-09 -3.697864217554398e-09 -2.482024998675392e-09 -1.852699323353359e-09 
-1.676947162511872e-09 -2.455489594076704e-09 -3.614474887214162e-09 -3.717526995015086e-09 -2.371844069611543e-09 -1.815893068681456e-09 
-1.059268546364275e-09 -1.510405662708863e-09 -2.300856390849927e-09 -2.403346269685453e-09 -1.605192884252853e-09 -1.368215130443701e-09 
-9.02460857171798e-10 -1.095144690539754e-09 -1.517788907179263e-09 -1.740983298202738e-09 -1.255967498284353e-09 -1.161059396212553e-09 
-9.03039501769246e-10 -1.165650533474518e-09 -1.357314962317758e-09 -1.574565946567422e-09 -1.350638411927464e-09 -1.176664249455408e-09 
-1.156398923433984e-09 -1.294626368098002e-09 -1.279598166270499e-09 -1.315692768909288e-09 -1.494855682511493e-09 -1.243620859288404e-09 
-1.05668419342473e-09 -1.105153390431385e-09 -1.271832027942358e-09 -1.170487094364409e-09 -1.395592463344842e-09 -1.181697663313254e-09 
-1.137942573632502e-09 -1.113244864129968e-09 -1.624737122819295e-09 -1.035813160528913e-09 -1.453415108325161e-09 -1.207392663408825e-09 
-1.624113881309897e-09 -1.808271040137809e-09 -2.519842542808668e-09 -2.130098450692115e-09 -2.13541563946473e-09 -1.590223861630435e-09 
-1.367509360489424e-09 -1.798263258873297e-09 -2.400237971035362e-09 -1.899296080530759e-09 -1.958613818162277e-09 -1.551159649840391e-09 
-1.134755044839035e-09 -1.155853205245277e-09 -1.721718953052974e-09 -9.252235581292089e-10 -1.49904853687796e-09 -1.209547621554311e-09 
-1.237348097854558e-09 -1.146459928945143e-09 -1.328075290139751e-09 -1.258427215411901e-09 -1.488131315310974e-09 -1.363806227655611e-09 
-1.326610387372776e-09 -1.506413509199952e-09 -1.260466464339786e-09 -1.415232572830959e-09 -1.670771389569803e-09 -1.447518425572249e-09 
-9.628971778924911e-10 -1.187505921640665e-09 -1.40836781262589e-09 -1.291380376971289e-09 -1.255272897430264e-09 -1.092652434293067e-09 
-9.045605633170383e-10 -1.163037895840747e-09 -1.52934137931078e-09 -1.6961793033207e-09 -1.295216926894528e-09 -1.07540516678132e-09 
-1.078484976471852e-09 -1.52227384722804e-09 -2.35941392332498e-09 -2.457415629155034e-09 -1.754486788326138e-09 -1.388751136631629e-09 
-1.818275824768148e-09 -2.433195752106787e-09 -3.628759904174652e-09 -3.751452132603631e-09 -2.453992481306643e-09 -1.858406524226109e-09 
-1.488534754966747e-09 -2.368658858876163e-09 -3.469082986771092e-09 -3.589401080567948e-09 -2.366235666777794e-09 -1.780964048802294e-09 
-1.192248486909041e-09 -1.347378380353945e-09 -2.225549545701779e-09 -2.325902998944269e-09 -1.409847284500684e-09 -1.265946338480447e-09 
-1.023965509596399e-09 -9.517261928630354e-10 -1.459397653341856e-09 -1.653993560576067e-09 -1.163609952203011e-09 -9.428558615706317e-10 
-8.441262952946097e-10 -8.318429856387365e-10 -9.906894943036222e-10 -1.243807775142741e-09 -1.009906200584151e-09 -8.409338446157965e-10 
-1.020118366972377e-09 -1.05862258894466e-09 -8.665695440591293e-10 -1.310700256564455e-09 -1.119200250572902e-09 -1.034002065815741e-09 
-8.533926386926724e-10 -9.986606388564057e-10 -1.012430542403726e-09 -1.144447128715762e-09 -1.241887434643882e-09 -1.038653333255599e-09 
-1.048378443967596e-09 -1.292979406299514e-09 -1.68995113724407e-09 -1.112200032328973e-09 -1.352318011162582e-09 -1.278054219587982e-09 
-1.56082496452333e-09 -1.906727949424276e-09 -2.354013612504617e-09 -1.935394435241341e-09 -1.912484598713478e-09 -1.371079547505892e-09 
-1.395076940803225e-09 -1.871168552423545e-09 -2.444615164375764e-09 -1.972229093808564e-09 -1.977438319923267e-09 -1.46874341650051e-09 
-1.160330389113691e-09 -1.205765445421243e-09 -1.802550286691605e-09 -1.012112845354479e-09 -1.469710332791324e-09 -1.264745223253722e-09 
-9.970172970667374e-10 -1.166881823990261e-09 -1.068048958846219e-09 -1.105914997333688e-09 -1.268948679478508e-09 -1.117392848954222e-09 
-1.049028370131691e-09 -1.109564333543874e-09 -8.135444773339914e-10 -1.243597805486696e-09 -1.126670462296955e-09 -1.021562335719575e-09 
-8.089403378879947e-10 -8.687305718150697e-10 -1.016170513173406e-09 -1.205224822230055e-09 -9.516280859633484e-10 -7.716483733021994e-10 
-9.44837425364954e-10 -9.101102823287474e-10 -1.39143769535847e-09 -1.569203693080179e-09 -1.106309781302561e-09 -8.850400859584784e-10 
-1.101019194849393e-09 -1.318325561986187e-09 -2.289480480723033e-09 -2.348952389989703e-09 -1.531738989124838e-09 -1.296687274435545e-09 
-1.825321497374856e-09 -2.326595784870323e-09 -3.475810991305836e-09 -3.697864217554398e-09 -2.482024998675392e-09 -1.852699323353359e-09 
-1.676947162511872e-09 -2.455489594076704e-09 -3.614474887214162e-09 -3.717526995015086e-09 -2.371844069611543e-09 -1.815893068681456e-09 
-1.059268546364275e-09 -1.510405662708863e-09 -2.300856390849927e-09 -2.403346269685453e-09 -1.605192884252853e-09 -1.368215130443701e-09 
-9.02460857171798e-10 -1.095144690539754e-09 -1.517788907179263e-09 -1.740983298202738e-09 -1.255967498284353e-09 -1.161059396212553e-09 
-9.03039501769246e-10 -1.165650533474518e-09 -1.357314962317758e-09 -1.574565946567422e-09 -1.350638411927464e-09 -1.176664249455408e-09 
-1.156398923433984e-09 -1.294626368098002e-09 -1.279598166270499e-09 -1.315692768909288e-09 -1.494855682511493e-09 -1.243620859288404e-09 
-1.05668419342473e-09 -1.105153390431385e-09 -1.271832027942358e-09 -1.170487094364409e-09 -1.395592463344842e-09 -1.181697663313254e-09 
-1.137942573632502e-09 -1.113244864129968e-09 -1.624737122819295e-09 -1.035813160528913e-09 -1.453415108325161e-09 -1.207392663408825e-09 
-1.624113881309897e-09 -1.808271040137809e-09 -2.519842542808668e-09 -2.130098450692115e-09 -2.13541563946473e-09 -1.590223861630435e-09 
-1.367509360489424e-09 -1.798263258873297e-09 -2.400237971035362e-09 -1.899296080530759e-09 -1.958613818162277e-09 -1.551159649840391e-09 
-1.134755044839035e-09 -1.155853205245277e-09 -1.721718953052974e-09 -9.252235581292089e-10 -1.49904853687796e-09 -1.209547621554311e-09 
-1.237348097854558e-09 -1.146459928945143e-09 -1.328075290139751e-09 -1.258427215411901e-09 -1.488131315310974e-09 -1.363806227655611e-09 
-1.326610387372776e-09 -1.506413509199952e-09 -1.260466464339786e-09 -1.415232572830959e-09 -1.670771389569803e-09 -1.447518425572249e-09 
-9.628971778924911e-10 -1.187505921640665e-09 -1.40836781262589e-09 -1.291380376971289e-09 -1.255272897430264e-09 -1.092652434293067e-09 
-9.045605633170383e-10 -1.163037895840747e-09 -1.52934137931078e-09 -1.6961793033207e-09 -1.295216926894528e-09 -1.07540516678132e-09 
-1.078484976471852e-09 -1.52227384722804e-09 -2.35941392332498e-09 -2.457415629155034e-09 -1.754486788326138e-09 -1.388751136631629e-09 
-1.818275824768148e-09 -2.433195752106787e-09 -3.628759904174652e-09 -3.751452132603631e-09 -2.453992481306643e-09 -1.858406524226109e-09 
-1.488534754966747e-09 -2.368658858876163e-09 -3.469082986771092e-09 -3.589401080567948e-09 -2.366235666777794e-09 -1.780964048802294e-09 
-1.192248486909041e-09 -1.347378380353945e-09 -2.225549545701779e-09 -2.325902998944269e-09 -1.409847284500684e-09 -1.265946338480447e-09 
-1.023965509596399e-09 -9.517261928630354e-10 -1.459397653341856e-09 -1.653993560576067e-09 -1.163609952203011e-09 -9.428558615706317e-10 
-8.441262952946097e-10 -8.318429856387365e-10 -9.906894943036222e-10 -1.243807775142741e-09 -1.009906200584151e-09 -8.409338446157965e-10 
-1.020118366972377e-09 -1.05862258894466e-09 -8.665695440591293e-10 -1.310700256564455e-09 -1.119200250572902e-09 -1.034002065815741e-09 
-8.533926386926724e-10 -9.986606388564057e-10 -1.012430542403726e-09 -1.144447128715762e-09 -1.241887434643882e-09 -1.038653333255599e-09 
-1.048378443967596e-09 -1.292979406299514e-09 -1.68995113724407e-09 -1.112200032328973e-09 -1.352318011162582e-09 -1.278054219587982e-09 
-1.56082496452333e-09 -1.906727949424276e-09 -2.354013612504617e-09 -1.935394435241341e-09 -1.912484598713478e-09 -1.371079547505892e-09 
-1.395076940803225e-09 -1.871168552423545e-09 -2.444615164375764e-09 -1.972229093808564e-09 -1.977438319923267e-09 -1.46874341650051e-09 
-1.160330389113691e-09 -1.205765445421243e-09 -1.802550286691605e-09 -1.012112845354479e-09 -1.469710332791324e-09 -1.264745223253722e-09 
-9.970172970667374e-10 -1.166881823990261e-09 -1.068048958846219e-09 -1.105914997333688e-09 -1.268948679478508e-09 -1.117392848954222e-09 
-1.049028370131691e-09 -1.109564333543874e-09 -8.135444773339914e-10 -1.243597805486696e-09 -1.126670462296955e-09 -1.021562335719575e-09 
-8.089403378879947e-10 -8.687305718150697e-10 -1.016170513173406e-09 -1.205224822230055e-09 -9.516280859633484e-10 -7.716483733021994e-10 
-9.44837425364954e-10 -9.101102823287474e-10 -1.39143769535847e-09 -1.569203693080179e-09 -1.106309781302561e-09 -8.850400859584784e-10 
-1.101019194849393e-09 -1.318325561986187e-09 -2.289480480723033e-09 -2.348952389989703e-09 -1.531738989124838e-09 -1.296687274435545e-09 
-1.825321497374856e-09 -2.326595784870323e-09 -3.475810991305836e-09 -3.697864217554398e-09 -2.482024998675392e-09 -1.852699323353359e-09 
-1.676947162511872e-09 -2.455489594076704e-09 -3.614474887214162e-09 -3.717526995015086e-09 -2.371844069611543e-09 -1.815893068681456e-09 
-1.059268546364275e-09 -1.510405662708863e-09 -2.300856390849927e-09 -2.403346269685453e-09 -1.605192884252853e-09 -1.368215130443701e-09 
-9.02460857171798e-10 -1.095144690539754e-09 -1.517788907179263e-09 -1.740983298202738e-09 -1.255967498284353e-09 -1.161059396212553e-09 
-9.03039501769246e-10 -1.165650533474518e-09 -1.357314962317758e-09 -1.574565946567422e-09 -1.350638411927464e-09 -1.176664249455408e-09 
-1.156398923433984e-09 -1.294626368098002e-09 -1.279598166270499e-09 -1.315692768909288e-09 -1.494855682511493e-09 -1.243620859288404e-09 
-1.05668419342473e-09 -1.105153390431385e-09 -1.271832027942358e-09 -1.170487094364409e-09 -1.395592463344842e-09 -1.181697663313254e-09 
-1.137942573632502e-09 -1.113244864129968e-09 -1.624737122819295e-09 -1.035813160528913e-09 -1.453415108325161e-09 -1.207392663408825e-09 
-1.624113881309897e-09 -1.808271040137809e-09 -2.519842542808668e-09 -2.130098450692115e-09 -2.13541563946473e-09 -1.590223861630435e-09 
-1.367509360489424e-09 -1.798263258873297e-09 -2.400237971035362e-09 -1.899296080530759e-09 -1.958613818162277e-09 -1.551159649840391e-09 
-1.134755044839035e-09 -1.155853205245277e-09 -1.721718953052974e-09 -9.252235581292089e-10 -1.49904853687796e-09 -1.209547621554311e-09 
-1.237348097854558e-09 -1.146459928945143e-09 -1.328075290139751e-09 -1.258427215411901e-09 -1.488131315310974e-09 -1.363806227655611e-09 
-1.326610387372776e-09 -1.506413509199952e-09 -1.260466464339786e-09 -1.415232572830959e-09 -1.670771389569803e-09 -1.447518425572249e-09 
-9.628971778924911e-10 -1.187505921640665e-09 -1.40836781262589e-09 -1.291380376971289e-09 -1.255272897430264e-09 -1.092652434293067e-09 
-9.045605633170383e-10 -1.163037895840747e-09 -1.52934137931078e-09 -1.6961793033207e-09 -1.295216926894528e-09 -1.07540516678132e-09 
-1.078484976471852e-09 -1.52227384722804e-09 -2.35941392332498e-09 -2.457415629155034e-09 -1.754486788326138e-09 -1.388751136631629e-09 
-1.818275824768148e-09 -2.433195752106787e-09 -3.628759904174652e-09 -3.751452132603631e-09 -2.453992481306643e-09 -1.858406524226109e-09 
-1.488534754966747e-09 -2.368658858876163e-09 -3.469082986771092e-09 -3.589401080567948e-09 -2.366235666777794e-09 -1.780964048802294e-09 
-1.192248486909041e-09 -1.347378380353945e-09 -2.225549545701779e-09 -2.325902998944269e-09 -1.409847284500684e-09 -1.265946338480447e-09 
-1.023965509596399e-09 -9.517261928630354e-10 -1.459397653341856e-09 -1.653993560576067e-09 -1.163609952203011e-09 -9.428558615706317e-10 
-8.441262952946097e-10 -8.318429856387365e-10 -9.906894943036222e-10 -1.243807775142741e-09 -1.009906200584151e-09 -8.409338446157965e-10 
-1.020118366972377e-09 -1.05862258894466e-09 -8.665695440591293e-10 -1.310700256564455e-09 -1.119200250572902e-09 -1.034002065815741e-09 
-8.533926386926724e-10 -9.986606388564057e-10 -1.012430542403726e-09 -1.144447128715762e-09 -1.241887434643882e-09 -1.038653333255599e-09 
-1.048378443967596e-09 -1.292979406299514e-09 -1.68995113724407e-09 -1.112200032328973e-09 -1.352318011162582e-09 -1.278054219587982e-09 
-1.56082496452333e-09 -1.906727949424276e-09 -2.354013612504617e-09 -1.935394435241341e-09 -1.912484598713478e-09 -1.371079547505892e-09 
-1.395076940803225e-09 -1.871168552423545e-09 -2.444615164375764e-09 -1.972229093808564e-09 -1.977438319923267e-09 -1.46874341650051e-09 
-1.160330389113691e-09 -1.205765445421243e-09 -1.802550286691605e-09 -1.012112845354479e-09 -1.469710332791324e-09 -1.264745223253722e-09 
-9.970172970667374e-10 -1.166881823990261e-09 -1.068048958846219e-09 -1.105914997333688e-09 -1.268948679478508e-09 -1.117392848954222e-09 
-1.049028370131691e-09 -1.109564333543874e-09 -8.135444773339914e-10 -1.243597805486696e-09 -1.126670462296955e-09 -1.021562335719575e-09 
-8.089403378879947e-10 -8.687305718150697e-10 -1.016170513173406e-09 -1.205224822230055e-09 -9.516280859633484e-10 -7.716483733021994e-10 
-9.44837425364954e-10 -9.101102823287474e-10 -1.39143769535847e-09 -1.569203693080179e-09 -1.106309781302561e-09 -8.850400859584784e-10 
-1.101019194849393e-09 -1.318325561986187e-09 -2.289480480723033e-09 -2.348952389989703e-09 -1.531738989124838e-09 -1.296687274435545e-09 
-1.825321497374856e-09 -2.326595784870323e-09 -3.475810991305836e-09 -3.697864217554398e-09 -2.482024998675392e-09 -1.852699323353359e-09 
-1.676947162511872e-09 -2.455489594076704e-09 -3.614474887214162e-09 -3.717526995015086e-09 -2.371844069611543e-09 -1.815893068681456e-09 
-1.059268546364275e-09 -1.510405662708863e-09 -2.300856390849927e-09 -2.403346269685453e-09 -1.605192884252853e-09 -1.368215130443701e-09 
-9.02460857171798e-10 -1.095144690539754e-09 -1.517788907179263e-09 -1.740983298202738e-09 -1.255967498284353e-09 -1.161059396212553e-09 
-9.03039501769246e-10 -1.165650533474518e-09 -1.357314962317758e-09 -1.574565946567422e-09 -1.350638411927464e-09 -1.176664249455408e-09 
-1.156398923433984e-09 -1.294626368098002e-09 -1.279598166270499e-09 -1.315692768909288e-09 -1.494855682511493e-09 -1.243620859288404e-09 
-1.05668419342473e-09 -1.105153390431385e-09 -1.271832027942358e-09 -1.170487094364409e-09 -1.395592463344842e-09 -1.181697663313254e-09 
-1.137942573632502e-09 -1.113244864129968e-09 -1.624737122819295e-09 -1.035813160528913e-09 -1.453415108325161e-09 -1.207392663408825e-09 
-1.624113881309897e-09 -1.808271040137809e-09 -2.519842542808668e-09 -2.130098450692115e-09 -2.13541563946473e-09 -1.590223861630435e-09 
-1.367509360489424e-09 -1.798263258873297e-09 -2.400237971035362e-09 -1.899296080530759e-09 -1.958613818162277e-09 -1.551159649840391e-09 
-1.134755044839035e-09 -1.155853205245277e-09 -1.721718953052974e-09 -9.252235581292089e-10 -1.49904853687796e-09 -1.209547621554311e-09 
-1.237348097854558e-09 -1.146459928945143e-09 -1.328075290139751e-09 -1.258427215411901e-09 -1.488131315310974e-09 -1.363806227655611e-09 
-1.326610387372776e-09 -1.506413509199952e-09 -1.260466464339786e-09 -1.415232572830959e-09 -1.670771389569803e-09 -1.447518425572249e-09 
-9.628971778924911e-10 -1.187505921640665e-09 -1.40836781262589e-09 -1.291380376971289e-09 -1.255272897430264e-09 -1.092652434293067e-09 
-9.045605633170383e-10 -1.163037895840747e-09 -1.52934137931078e-09 -1.6961793033207e-09 -1.295216926894528e-09 -1.07540516678132e-09 
-1.078484976471852e-09 -1.52227384722804e-09 -2.35941392332498e-09 -2.457415629155034e-09 -1.754486788326138e-09 -1.388751136631629e-09 
-1.818275824768148e-09 -2.433195752106787e-09 -3.628759904174652e-09 -3.751452132603631e-09 -2.453992481306643e-09 -1.858406524226109e-09 
-1.488534754966747e-09 -2.368658858876163e-09 -3.469082986771092e-09 -3.589401080567948e-09 -2.366235666777794e-09 -1.780964048802294e-09 
-1.192248486909041e-09 -1.347378380353945e-09 -2.225549545701779e-09 -2.325902998944269e-09 -1.409847284500684e-09 -1.265946338480447e-09 
-1.023965509596399e-09 -9.517261928630354e-10 -1.459397653341856e-09 -1.653993560576067e-09 -1.163609952203011e-09 -9.428558615706317e-10 
-8.441262952946097e-10 -8.318429856387365e-10 -9.906894943036222e-10 -1.243807775142741e-09 -1.009906200584151e-09 -8.409338446157965e-10 
-1.020118366972377e-09 -1.05862258894466e-09 -8.665695440591293e-10 -1.310700256564455e-09 -1.119200250572902e-09 -1.034002065815741e-09 
-8.533926386926724e-10 -9.986606388564057e-10 -1.012430542403726e-09 -1.144447128715762e-09 -1.241887434643882e-09 -1.038653333255599e-09 
-1.048378443967596e-09 -1.292979406299514e-09 -1.68995113724407e-09 -1.112200032328973e-09 -1.352318011162582e-09 -1.278054219587982e-09 
-1.56082496452333e-09 -1.906727949424276e-09 -2.354013612504617e-09 -1.935394435241341e-09 -1.912484598713478e-09 -1.371079547505892e-09 
-1.395076940803225e-09 -1.871168552423545e-09 -2.444615164375764e-09 -1.972229093808564e-09 -1.977438319923267e-09 -1.46874341650051e-09 
-1.160330389113691e-09 -1.205765445421243e-09 -1.802550286691605e-09 -1.012112845354479e-09 -1.469710332791324e-09 -1.264745223253722e-09 
-9.970172970667374e-10 -1.166881823990261e-09 -1.068048958846219e-09 -1.105914997333688e-09 -1.268948679478508e-09 -1.117392848954222e-09 
-1.049028370131691e-09 -1.109564333543874e-09 -8.135444773339914e-10 -1.243597805486696e-09 -1.126670462296955e-09 -1.021562335719575e-09 
-8.089403378879947e-10 -8.687305718150697e-10 -1.016170513173406e-09 -1.205224822230055e-09 -9.516280859633484e-10 -7.716483733021994e-10 
-9.44837425364954e-10 -9.101102823287474e-10 -1.39143769535847e-09 -1.569203693080179e-09 -1.106309781302561e-09 -8.850400859584784e-10 
-1.101019194849393e-09 -1.318325561986187e-09 -2.289480480723033e-09 -2.348952389989703e-09 -1.531738989124838e-09 -1.296687274435545e-09 
-1.825321497374856e-09 -2.326595784870323e-09 -3.475810991305836e-09 -3.697864217554398e-09 -2.482024998675392e-09 -1.852699323353359e-09 
-1.676947162511872e-09 -2.455489594076704e-09 -3.614474887214162e-09 -3.717526995015086e-09 -2.371844069611543e-09 -1.815893068681456e-09 
-1.059268546364275e-09 -1.510405662708863e-09 -2.300856390849927e-09 -2.403346269685453e-09 -1.605192884252853e-09 -1.368215130443701e-09 
-9.02460857171798e-10 -1.095144690539754e-09 -1.517788907179263e-09 -1.740983298202738e-09 -1.255967498284353e-09 -1.161059396212553e-09 
-9.03039501769246e-10 -1.165650533474518e-09 -1.357314962317758e-09 -1.574565946567422e-09 -1.350638411927464e-09 -1.176664249455408e-09 
-1.156398923433984e-09 -1.294626368098002e-09 -1.279598166270499e-09 -1.315692768909288e-09 -1.494855682511493e-09 -1.243620859288404e-09 
-1.05668419342473e-09 -1.105153390431385e-09 -1.271832027942358e-09 -1.170487094364409e-09 -1.395592463344842e-09 -1.181697663313254e-09 
-1.137942573632502e-09 -1.113244864129968e-09 -1.624737122819295e-09 -1.035813160528913e-09 -1.453415108325161e-09 -1.207392663408825e-09 
-1.624113881309897e-09 -1.808271040137809e-09 -2.519842542808668e-09 -2.130098450692115e-09 -2.13541563946473e-09 -1.590223861630435e-09 
-1.367509360489424e-09 -1.798263258873297e-09 -2.400237971035362e-09 -1.899296080530759e-09 -1.958613818162277e-09 -1.551159649840391e-09 
-1.134755044839035e-09 -1.155853205245277e-09 -1.721718953052974e-09 -9.252235581292089e-10 -1.49904853687796e-09 -1.209547621554311e-09 
-1.237348097854558e-09 -1.146459928945143e-09 -1.328075290139751e-09 -1.258427215411901e-09 -1.488131315310974e-09 -1.363806227655611e-09 
-1.326610387372776e-09 -1.506413509199952e-09 -1.260466464339786e-09 -1.415232572830959e-09 -1.670771389569803e-09 -1.447518425572249e-09 
-9.628971778924911e-10 -1.187505921640665e-09 -1.40836781262589e-09 -1.291380376971289e-09 -1.255272897430264e-09 -1.092652434293067e-09 
-9.045605633170383e-10 -1.163037895840747e-09 -1.52934137931078e-09 -1.6961793033207e-09 -1.295216926894528e-09 -1.07540516678132e-09 
-1.078484976471852e-09 -1.52227384722804e-09 -2.35941392332498e-09 -2.457415629155034e-09 -1.754486788326138e-09 -1.388751136631629e-09 
-1.818275824768148e-09 -2.433195752106787e-09 -3.628759904174652e-09 -3.751452132603631e-09 -2.453992481306643e-09 -1.858406524226109e-09 
-1.488534754966747e-09 -2.368658858876163e-09 -3.469082986771092e-09 -3.589401080567948e-09 -2.366235666777794e-09 -1.780964048802294e-09 
-1.192248486909041e-09 -1.347378380353945e-09 -2.225549545701779e-09 -2.325902998944269e-09 -1.409847284500684e-09 -1.265946338480447e-09 
-1.023965509596399e-09 -9.517261928630354e-10 -1.459397653341856e-09 -1.653993560576067e-09 -1.163609952203011e-09 -9.428558615706317e-10 
-8.441262952946097e-10 -8.318429856387365e-10 -9.906894943036222e-10 -1.243807775142741e-09 -1.009906200584151e-09 -8.409338446157965e-10 
-1.020118366972377e-09 -1.05862258894466e-09 -8.665695440591293e-10 -1.310700256564455e-09 -1.119200250572902e-09 -1.034002065815741e-09 
-8.533926386926724e-10 -9.986606388564057e-10 -1.012430542403726e-09 -1.144447128715762e-09 -1.241887434643882e-09 -1.038653333255599e-09 
-1.048378443967596e-09 -1.292979406299514e-09 -1.68995113724407e-09 -1.112200032328973e-09 -1.352318011162582e-09 -1.278054219587982e-09 
-1.56082496452333e-09 -1.906727949424276e-09 -2.354013612504617e-09 -1.935394435241341e-09 -1.912484598713478e-09 -1.371079547505892e-09 
-1.395076940803225e-09 -1.871168552423545e-09 -2.444615164375764e-09 -1.972229093808564e-09 -1.977438319923267e-09 -1.46874341650051e-09 
-1.160330389113691e-09 -1.205765445421243e-09 -1.802550286691605e-09 -1.012112845354479e-09 -1.469710332791324e-09 -1.264745223253722e-09 
-9.970172970667374e-10 -1.166881823990261e-09 -1.068048958846219e-09 -1.105914997333688e-09 -1.268948679478508e-09 -1.117392848954222e-09 
-1.049028370131691e-09 -1.109564333543874e-09 -8.135444773339914e-10 -1.243597805486696e-09 -1.126670462296955e-09 -1.021562335719575e-09 
-8.089403378879947e-10 -8.687305718150697e-10 -1.016170513173406e-09 -1.205224822230055e-09 -9.516280859633484e-10 -7.716483733021994e-10 
-9.44837425364954e-10 -9.101102823287474e-10 -1.39143769535847e-09 -1.569203693080179e-09 -1.106309781302561e-09 -8.850400859584784e-10 
-1.101019194849393e-09 -1.318325561986187e-09 -2.289480480723033e-09 -2.348952389989703e-09 -1.531738989124838e-09 -1.296687274435545e-09 
-1.825321497374856e-09 -2.326595784870323e-09 -3.475810991305836e-09 -3.697864217554398e-09 -2.482024998675392e-09 -1.852699323353359e-09 
-1.676947162511872e-09 -2.455489594076704e-09 -3.614474887214162e-09 -3.717526995015086e-09 -2.371844069611543e-09 -1.815893068681456e-09 
-1.059268546364275e-09 -1.510405662708863e-09 -2.300856390849927e-09 -2.403346269685453e-09 -1.605192884252853e-09 -1.368215130443701e-09 
-9.02460857171798e-10 -1.095144690539754e-09 -1.517788907179263e-09 -1.740983298202738e-09 -1.255967498284353e-09 -1.161059396212553e-09 
-9.03039501769246e-10 -1.165650533474518e-09 -1.357314962317758e-09 -1.574565946567422e-09 -1.350638411927464e-09 -1.176664249455408e-09 
-1.156398923433984e-09 -1.294626368098002e-09 -1.279598166270499e-09 -1.315692768909288e-09 -1.494855682511493e-09 -1.243620859288404e-09 
-1.05668419342473e-09 -1.105153390431385e-09 -1.271832027942358e-09 -1.170487094364409e-09 -1.395592463344842e-09 -1.181697663313254e-09 
-1.137942573632502e-09 -1.113244864129968e-09 -1.624737122819295e-09 -1.035813160528913e-09 -1.453415108325161e-09 -1.207392663408825e-09 
-1.624113881309897e-09 -1.808271040137809e-09 -2.519842542808668e-09 -2.130098450692115e-09 -2.13541563946473e-09 -1.590223861630435e-09 
-1.367509360489424e-09 -1.798263258873297e-09 -2.400237971035362e-09 -1.899296080530759e-09 -1.958613818162277e-09 -1.551159649840391e-09 
-1.134755044839035e-09 -1.155853205245277e-09 -1.721718953052974e-09 -9.252235581292089e-10 -1.49904853687796e-09 -1.209547621554311e-09 
-1.237348097854558e-09 -1.146459928945143e-09 -1.328075290139751e-09 -1.258427215411901e-09 -1.488131315310974e-09 -1.363806227655611e-09 
-1.326610387372776e-09 -1.506413509199952e-09 -1.260466464339786e-09 -1.415232572830959e-09 -1.670771389569803e-09 -1.447518425572249e-09 
-9.628971778924911e-10 -1.187505921640665e-09 -1.40836781262589e-09 -1.291380376971289e-09 -1.255272897430264e-09 -1.092652434293067e-09 
-9.045605633170383e-10 -1.163037895840747e-09 -1.52934137931078e-09 -1.6961793033207e-09 -1.295216926894528e-09 -1.07540516678132e-09 
-1.078484976471852e-09 -1.52227384722804e-09 -2.35941392332498e-09 -2.457415629155034e-09 -1.754486788326138e-09 -1.388751136631629e-09 
-1.818275824768148e-09 -2.433195752106787e-09 -3.628759904174652e-09 -3.751452132603631e-09 -2.453992481306643e-09 -1.858406524226109e-09 
-1.488534754966747e-09 -2.368658858876163e-09 -3.469082986771092e-09 -3.589401080567948e-09 -2.366235666777794e-09 -1.780964048802294e-09 
-1.192248486909041e-09 -1.347378380353945e-09 -2.225549545701779e-09 -2.325902998944269e-09 -1.409847284500684e-09 -1.265946338480447e-09 
-1.023965509596399e-09 -9.517261928630354e-10 -1.459397653341856e-09 -1.653993560576067e-09 -1.163609952203011e-09 -9.428558615706317e-10 
-8.441262952946097e-10 -8.318429856387365e-10 -9.906894943036222e-10 -1.243807775142741e-09 -1.009906200584151e-09 -8.409338446157965e-10 
-1.020118366972377e-09 -1.05862258894466e-09 -8.665695440591293e-10 -1.310700256564455e-09 -1.119200250572902e-09 -1.034002065815741e-09 
-8.533926386926724e-10 -9.986606388564057e-10 -1.012430542403726e-09 -1.144447128715762e-09 -1.241887434643882e-09 -1.038653333255599e-09 
-1.048378443967596e-09 -1.292979406299514e-09 -1.68995113724407e-09 -1.112200032328973e-09 -1.352318011162582e-09 -1.278054219587982e-09 
-1.56082496452333e-09 -1.906727949424276e-09 -2.354013612504617e-09 -1.935394435241341e-09 -1.912484598713478e-09 -1.371079547505892e-09 
-1.395076940803225e-09 -1.871168552423545e-09 -2.444615164375764e-09 -1.972229093808564e-09 -1.977438319923267e-09 -1.46874341650051e-09 
-1.160330389113691e-09 -1.205765445421243e-09 -1.802550286691605e-09 -1.012112845354479e-09 -1.469710332791324e-09 -1.264745223253722e-09 
-9.970172970667374e-10 -1.166881823990261e-09 -1.068048958846219e-09 -1.105914997333688e-09 -1.268948679478508e-09 -1.117392848954222e-09 
-1.049028370131691e-09 -1.109564333543874e-09 -8.135444773339914e-10 -1.243597805486696e-09 -1.126670462296955e-09 -1.021562335719575e-09 
-8.089403378879947e-10 -8.687305718150697e-10 -1.016170513173406e-09 -1.205224822230055e-09 -9.516280859633484e-10 -7.716483733021994e-10 
-9.44837425364954e-10 -9.101102823287474e-10 -1.39143769535847e-09 -1.569203693080179e-09 -1.106309781302561e-09 -8.850400859584784e-10 
-1.101019194849393e-09 -1.318325561986187e-09 -2.289480480723033e-09 -2.348952389989703e-09 -1.531738989124838e-09 -1.296687274435545e-09 
-1.825321497374856e-09 -2.326595784870323e-09 -3.475810991305836e-09 -3.697864217554398e-09 -2.482024998675392e-09 -1.852699323353359e-09 
-1.676947162511872e-09 -2.455489594076704e-09 -3.614474887214162e-09 -3.717526995015086e-09 -2.371844069611543e-09 -1.815893068681456e-09 
-1.059268546364275e-09 -1.510405662708863e-09 -2.300856390849927e-09 -2.403346269685453e-09 -1.605192884252853e-09 -1.368215130443701e-09 
-9.02460857171798e-10 -1.095144690539754e-09 -1.517788907179263e-09 -1.740983298202738e-09 -1.255967498284353e-09 -1.161059396212553e-09 
-9.03039501769246e-10 -1.165650533474518e-09 -1.357314962317758e-09 -1.574565946567422e-09 -1.350638411927464e-09 -1.176664249455408e-09 
-1.156398923433984e-09 -1.294626368098002e-09 -1.279598166270499e-09 -1.315692768909288e-09 -1.494855682511493e-09 -1.243620859288404e-09 
-1.05668419342473e-09 -1.105153390431385e-09 -1.271832027942358e-09 -1.170487094364409e-09 -1.395592463344842e-09 -1.181697663313254e-09 
-1.137942573632502e-09 -1.113244864129968e-09 -1.624737122819295e-09 -1.035813160528913e-09 -1.453415108325161e-09 -1.207392663408825e-09 
-1.624113881309897e-09 -1.808271040137809e-09 -2.519842542808668e-09 -2.130098450692115e-09 -2.13541563946473e-09 -1.590223861630435e-09 
-1.367509360489424e-09 -1.798263258873297e-09 -2.400237971035362e-09 -1.899296080530759e-09 -1.958613818162277e-09 -1.551159649840391e-09 
-1.134755044839035e-09 -1.155853205245277e-09 -1.721718953052974e-09 -9.252235581292089e-10 -1.49904853687796e-09 -1.209547621554311e-09 
-1.237348097854558e-09 -1.146459928945143e-09 -1.328075290139751e-09 -1.258427215411901e-09 -1.488131315310974e-09 -1.363806227655611e-09 
-1.326610387372776e-09 -1.506413509199952e-09 -1.260466464339786e-09 -1.415232572830959e-09 -1.670771389569803e-09 -1.447518425572249e-09 
-9.628971778924911e-10 -1.187505921640665e-09 -1.40836781262589e-09 -1.291380376971289e-09 -1.255272897430264e-09 -1.092652434293067e-09 
-9.045605633170383e-10 -1.163037895840747e-09 -1.52934137931078e-09 -1.6961793033207e-09 -1.295216926894528e-09 -1.07540516678132e-09 
-1.078484976471852e-09 -1.52227384722804e-09 -2.35941392332498e-09 -2.457415629155034e-09 -1.754486788326138e-09 -1.388751136631629e-09 
-1.818275824768148e-09 -2.433195752106787e-09 -3.628759904174652e-09 -3.751452132603631e-09 -2.453992481306643e-09 -1.858406524226109e-09 
-1.488534754966747e-09 -2.368658858876163e-09 -3.469082986771092e-09 -3.589401080567948e-09 -2.366235666777794e-09 -1.780964048802294e-09 
-1.192248486909041e-09 -1.347378380353945e-09 -2.225549545701779e-09 -2.325902998944269e-09 -1.409847284500684e-09 -1.265946338480447e-09 
-1.023965509596399e-09 -9.517261928630354e-10 -1.459397653341856e-09 -1.653993560576067e-09 -1.163609952203011e-09 -9.428558615706317e-10 
-8.441262952946097e-10 -8.318429856387365e-10 -9.906894943036222e-10 -1.243807775142741e-09 -1.009906200584151e-09 -8.409338446157965e-10 
-1.020118366972377e-09 -1.05862258894466e-09 -8.665695440591293e-10 -1.310700256564455e-09 -1.119200250572902e-09 -1.034002065815741e-09 
-8.533926386926724e-10 -9.986606388564057e-10 -1.012430542403726e-09 -1.144447128715762e-09 -1.241887434643882e-09 -1.038653333255599e-09 
-1.048378443967596e-09 -1.292979406299514e-09 -1.68995113724407e-09 -1.112200032328973e-09 -1.352318011162582e-09 -1.278054219587982e-09 
-1.56082496452333e-09 -1.906727949424276e-09 -2.354013612504617e-09 -1.935394435241341e-09 -1.912484598713478e-09 -1.371079547505892e-09 
-1.395076940803225e-09 -1.871168552423545e-09 -2.444615164375764e-09 -1.972229093808564e-09 -1.977438319923267e-09 -1.46874341650051e-09 
-1.160330389113691e-09 -1.205765445421243e-09 -1.802550286691605e-09 -1.012112845354479e-09 -1.469710332791324e-09 -1.264745223253722e-09 
-9.970172970667374e-10 -1.166881823990261e-09 -1.068048958846219e-09 -1.105914997333688e-09 -1.268948679478508e-09 -1.117392848954222e-09 
-1.049028370131691e-09 -1.109564333543874e-09 -8.135444773339914e-10 -1.243597805486696e-09 -1.126670462296955e-09 -1.021562335719575e-09 
-8.089403378879947e-10 -8.687305718150697e-10 -1.016170513173406e-09 -1.205224822230055e-09 -9.516280859633484e-10 -7.716483733021994e-10 
-9.44837425364954e-10 -9.101102823287474e-10 -1.39143769535847e-09 -1.569203693080179e-09 -1.106309781302561e-09 -8.850400859584784e-10 
-1.101019194849393e-09 -1.318325561986187e-09 -2.289480480723033e-09 -2.348952389989703e-09 -1.531738989124838e-09 -1.296687274435545e-09 
-1.825321497374856e-09 -2.326595784870323e-09 -3.475810991305836e-09 -3.697864217554398e-09 -2.482024998675392e-09 -1.852699323353359e-09 
-1.676947162511872e-09 -2.455489594076704e-09 -3.614474887214162e-09 -3.717526995015086e-09 -2.371844069611543e-09 -1.815893068681456e-09 
-1.059268546364275e-09 -1.510405662708863e-09 -2.300856390849927e-09 -2.403346269685453e-09 -1.605192884252853e-09 -1.368215130443701e-09 
-9.02460857171798e-10 -1.095144690539754e-09 -1.517788907179263e-09 -1.740983298202738e-09 -1.255967498284353e-09 -1.161059396212553e-09 
-9.03039501769246e-10 -1.165650533474518e-09 -1.357314962317758e-09 -1.574565946567422e-09 -1.350638411927464e-09 -1.176664249455408e-09 
-1.156398923433984e-09 -1.294626368098002e-09 -1.279598166270499e-09 -1.315692768909288e-09 -1.494855682511493e-09 -1.243620859288404e-09 
-1.05668419342473e-09 -1.105153390431385e-09 -1.271832027942358e-09 -1.170487094364409e-09 -1.395592463344842e-09 -1.181697663313254e-09 
-1.137942573632502e-09 -1.113244864129968e-09 -1.624737122819295e-09 -1.035813160528913e-09 -1.453415108325161e-09 -1.207392663408825e-09 
-1.624113881309897e-09 -1.808271040137809e-09 -2.519842542808668e-09 -2.130098450692115e-09 -2.13541563946473e-09 -1.590223861630435e-09 
-1.367509360489424e-09 -1.798263258873297e-09 -2.400237971035362e-09 -1.899296080530759e-09 -1.958613818162277e-09 -1.551159649840391e-09 
-1.134755044839035e-09 -1.155853205245277e-09 -1.721718953052974e-09 -9.252235581292089e-10 -1.49904853687796e-09 -1.209547621554311e-09 
-1.237348097854558e-09 -1.146459928945143e-09 -1.328075290139751e-09 -1.258427215411901e-09 -1.488131315310974e-09 -1.363806227655611e-09 
-1.326610387372776e-09 -1.506413509199952e-09 -1.260466464339786e-09 -1.415232572830959e-09 -1.670771389569803e-09 -1.447518425572249e-09 
-9.628971778924911e-10 -1.187505921640665e-09 -1.40836781262589e-09 -1.291380376971289e-09 -1.255272897430264e-09 -1.092652434293067e-09 
-9.045605633170383e-10 -1.163037895840747e-09 -1.52934137931078e-09 -1.6961793033207e-09 -1.295216926894528e-09 -1.07540516678132e-09 
-1.078484976471852e-09 -1.52227384722804e-09 -2.35941392332498e-09 -2.457415629155034e-09 -1.754486788326138e-09 -1.388751136631629e-09 
-1.818275824768148e-09 -2.433195752106787e-09 -3.628759904174652e-09 -3.751452132603631e-09 -2.453992481306643e-09 -1.858406524226109e-09 
-1.488534754966747e-09 -2.368658858876163e-09 -3.469082986771092e-09 -3.589401080567948e-09 -2.366235666777794e-09 -1.780964048802294e-09 
-1.192248486909041e-09 -1.347378380353945e-09 -2.225549545701779e-09 -2.325902998944269e-09 -1.409847284500684e-09 -1.265946338480447e-09 
-1.023965509596399e-09 -9.517261928630354e-10 -1.459397653341856e-09 -1.653993560576067e-09 -1.163609952203011e-09 -9.428558615706317e-10 
-8.441262952946097e-10 -8.318429856387365e-10 -9.906894943036222e-10 -1.243807775142741e-09 -1.009906200584151e-09 -8.409338446157965e-10 
-1.020118366972377e-09 -1.05862258894466e-09 -8.665695440591293e-10 -1.310700256564455e-09 -1.119200250572902e-09 -1.034002065815741e-09 
-8.533926386926724e-10 -9.986606388564057e-10 -1.012430542403726e-09 -1.144447128715762e-09 -1.241887434643882e-09 -1.038653333255599e-09 
-1.048378443967596e-09 -1.292979406299514e-09 -1.68995113724407e-09 -1.112200032328973e-09 -1.352318011162582e-09 -1.278054219587982e-09 
-1.56082496452333e-09 -1.906727949424276e-09 -2.354013612504617e-09 -1.935394435241341e-09 -1.912484598713478e-09 -1.371079547505892e-09 
-1.395076940803225e-09 -1.871168552423545e-09 -2.444615164375764e-09 -1.972229093808564e-09 -1.977438319923267e-09 -1.46874341650051e-09 
-1.160330389113691e-09 -1.205765445421243e-09 -1.802550286691605e-09 -1.012112845354479e-09 -1.469710332791324e-09 -1.264745223253722e-09 
-9.970172970667374e-10 -1.166881823990261e-09 -1.068048958846219e-09 -1.105914997333688e-09 -1.268948679478508e-09 -1.117392848954222e-09 
-1.049028370131691e-09 -1.109564333543874e-09 -8.135444773339914e-10 -1.243597805486696e-09 -1.126670462296955e-09 -1.021562335719575e-09 
-8.089403378879947e-10 -8.687305718150697e-10 -1.016170513173406e-09 -1.205224822230055e-09 -9.516280859633484e-10 -7.716483733021994e-10 
-9.44837425364954e-10 -9.101102823287474e-10 -1.39143769535847e-09 -1.569203693080179e-09 -1.106309781302561e-09 -8.850400859584784e-10 
-1.101019194849393e-09 -1.318325561986187e-09 -2.289480480723033e-09 -2.348952389989703e-09 -1.531738989124838e-09 -1.296687274435545e-09 
-1.825321497374856e-09 -2.326595784870323e-09 -3.475810991305836e-09 -3.697864217554398e-09 -2.482024998675392e-09 -1.852699323353359e-09 
-1.676947162511872e-09 -2.455489594076704e-09 -3.614474887214162e-09 -3.717526995015086e-09 -2.371844069611543e-09 -1.815893068681456e-09 
-1.059268546364275e-09 -1.510405662708863e-09 -2.300856390849927e-09 -2.403346269685453e-09 -1.605192884252853e-09 -1.368215130443701e-09 
-9.02460857171798e-10 -1.095144690539754e-09 -1.517788907179263e-09 -1.740983298202738e-09 -1.255967498284353e-09 -1.161059396212553e-09 
-9.03039501769246e-10 -1.165650533474518e-09 -1.357314962317758e-09 -1.574565946567422e-09 -1.350638411927464e-09 -1.176664249455408e-09 
-1.156398923433984e-09 -1.294626368098002e-09 -1.279598166270499e-09 -1.315692768909288e-09 -1.494855682511493e-09 -1.243620859288404e-09 
-1.05668419342473e-09 -1.105153390431385e-09 -1.271832027942358e-09 -1.170487094364409e-09 -1.395592463344842e-09 -1.181697663313254e-09 
-1.137942573632502e-09 -1.113244864129968e-09 -1.624737122819295e-09 -1.035813160528913e-09 -1.453415108325161e-09 -1.207392663408825e-09 
-1.624113881309897e-09 -1.808271040137809e-09 -2.519842542808668e-09 -2.130098450692115e-09 -2.13541563946473e-09 -1.590223861630435e-09 
-1.367509360489424e-09 -1.798263258873297e-09 -2.400237971035362e-09 -1.899296080530759e-09 -1.958613818162277e-09 -1.551159649840391e-09 
-1.134755044839035e-09 -1.155853205245277e-09 -1.721718953052974e-09 -9.252235581292089e-10 -1.49904853687796e-09 -1.209547621554311e-09 
-1.237348097854558e-09 -1.146459928945143e-09 -1.328075290139751e-09 -1.258427215411901e-09 -1.488131315310974e-09 -1.363806227655611e-09 
-1.326610387372776e-09 -1.506413509199952e-09 -1.260466464339786e-09 -1.415232572830959e-09 -1.670771389569803e-09 -1.447518425572249e-09 
-9.628971778924911e-10 -1.187505921640665e-09 -1.40836781262589e-09 -1.291380376971289e-09 -1.255272897430264e-09 -1.092652434293067e-09 
-9.045605633170383e-10 -1.163037895840747e-09 -1.52934137931078e-09 -1.6961793033207e-09 -1.295216926894528e-09 -1.07540516678132e-09 
-1.078484976471852e-09 -1.52227384722804e-09 -2.35941392332498e-09 -2.457415629155034e-09 -1.754486788326138e-09 -1.388751136631629e-09 
-1.818275824768148e-09 -2.433195752106787e-09 -3.628759904174652e-09 -3.751452132603631e-09 -2.453992481306643e-09 -1.858406524226109e-09 
-1.488534754966747e-09 -2.368658858876163e-09 -3.469082986771092e-09 -3.589401080567948e-09 -2.366235666777794e-09 -1.780964048802294e-09 
-1.192248486909041e-09 -1.347378380353945e-09 -2.225549545701779e-09 -2.325902998944269e-09 -1.409847284500684e-09 -1.265946338480447e-09 
-1.023965509596399e-09 -9.517261928630354e-10 -1.459397653341856e-09 -1.653993560576067e-09 -1.163609952203011e-09 -9.428558615706317e-10 
-8.441262952946097e-10 -8.318429856387365e-10 -9.906894943036222e-10 -1.243807775142741e-09 -1.009906200584151e-09 -8.409338446157965e-10 
-1.020118366972377e-09 -1.05862258894466e-09 -8.665695440591293e-10 -1.310700256564455e-09 -1.119200250572902e-09 -1.034002065815741e-09 
-8.533926386926724e-10 -9.986606388564057e-10 -1.012430542403726e-09 -1.144447128715762e-09 -1.241887434643882e-09 -1.038653333255599e-09 
-1.048378443967596e-09 -1.292979406299514e-09 -1.68995113724407e-09 -1.112200032328973e-09 -1.352318011162582e-09 -1.278054219587982e-09 
-1.56082496452333e-09 -1.906727949424276e-09 -2.354013612504617e-09 -1.935394435241341e-09 -1.912484598713478e-09 -1.371079547505892e-09 
-1.395076940803225e-09 -1.871168552423545e-09 -2.444615164375764e-09 -1.972229093808564e-09 -1.977438319923267e-09 -1.46874341650051e-09 
-1.160330389113691e-09 -1.205765445421243e-09 -1.802550286691605e-09 -1.012112845354479e-09 -1.469710332791324e-09 -1.264745223253722e-09 
-9.970172970667374e-10 -1.166881823990261e-09 -1.068048958846219e-09 -1.105914997333688e-09 -1.268948679478508e-09 -1.117392848954222e-09 
-1.049028370131691e-09 -1.109564333543874e-09 -8.135444773339914e-10 -1.243597805486696e-09 -1.126670462296955e-09 -1.021562335719575e-09 
-8.089403378879947e-10 -8.687305718150697e-10 -1.016170513173406e-09 -1.205224822230055e-09 -9.516280859633484e-10 -7.716483733021994e-10 
-9.44837425364954e-10 -9.101102823287474e-10 -1.39143769535847e-09 -1.569203693080179e-09 -1.106309781302561e-09 -8.850400859584784e-10 
-1.101019194849393e-09 -1.318325561986187e-09 -2.289480480723033e-09 -2.348952389989703e-09 -1.531738989124838e-09 -1.296687274435545e-09 
-1.825321497374856e-09 -2.326595784870323e-09 -3.475810991305836e-09 -3.697864217554398e-09 -2.482024998675392e-09 -1.852699323353359e-09 
-1.676947162511872e-09 -2.455489594076704e-09 -3.614474887214162e-09 -3.717526995015086e-09 -2.371844069611543e-09 -1.815893068681456e-09 
-1.059268546364275e-09 -1.510405662708863e-09 -2.300856390849927e-09 -2.403346269685453e-09 -1.605192884252853e-09 -1.368215130443701e-09 
-9.02460857171798e-10 -1.095144690539754e-09 -1.517788907179263e-09 -1.740983298202738e-09 -1.255967498284353e-09 -1.161059396212553e-09 
-9.03039501769246e-10 -1.165650533474518e-09 -1.357314962317758e-09 -1.574565946567422e-09 -1.350638411927464e-09 -1.176664249455408e-09 
-1.156398923433984e-09 -1.294626368098002e-09 -1.279598166270499e-09 -1.315692768909288e-09 -1.494855682511493e-09 -1.243620859288404e-09 
-1.05668419342473e-09 -1.105153390431385e-09 -1.271832027942358e-09 -1.170487094364409e-09 -1.395592463344842e-09 -1.181697663313254e-09 
-1.137942573632502e-09 -1.113244864129968e-09 -1.624737122819295e-09 -1.035813160528913e-09 -1.453415108325161e-09 -1.207392663408825e-09 
-1.624113881309897e-09 -1.808271040137809e-09 -2.519842542808668e-09 -2.130098450692115e-09 -2.13541563946473e-09 -1.590223861630435e-09 
-1.367509360489424e-09 -1.798263258873297e-09 -2.400237971035362e-09 -1.899296080530759e-09 -1.958613818162277e-09 -1.551159649840391e-09 
-1.134755044839035e-09 -1.155853205245277e-09 -1.721718953052974e-09 -9.252235581292089e-10 -1.49904853687796e-09 -1.209547621554311e-09 
-1.237348097854558e-09 -1.146459928945143e-09 -1.328075290139751e-09 -1.258427215411901e-09 -1.488131315310974e-09 -1.363806227655611e-09 
-1.326610387372776e-09 -1.506413509199952e-09 -1.260466464339786e-09 -1.415232572830959e-09 -1.670771389569803e-09 -1.447518425572249e-09 
-9.628971778924911e-10 -1.187505921640665e-09 -1.40836781262589e-09 -1.291380376971289e-09 -1.255272897430264e-09 -1.092652434293067e-09 
-9.045605633170383e-10 -1.163037895840747e-09 -1.52934137931078e-09 -1.6961793033207e-09 -1.295216926894528e-09 -1.07540516678132e-09 
-1.078484976471852e-09 -1.52227384722804e-09 -2.35941392332498e-09 -2.457415629155034e-09 -1.754486788326138e-09 -1.388751136631629e-09 
-1.818275824768148e-09 -2.433195752106787e-09 -3.628759904174652e-09 -3.751452132603631e-09 -2.453992481306643e-09 -1.858406524226109e-09 
-1.488534754966747e-09 -2.368658858876163e-09 -3.469082986771092e-09 -3.589401080567948e-09 -2.366235666777794e-09 -1.780964048802294e-09 
-1.192248486909041e-09 -1.347378380353945e-09 -2.225549545701779e-09 -2.325902998944269e-09 -1.409847284500684e-09 -1.265946338480447e-09 
-1.023965509596399e-09 -9.517261928630354e-10 -1.459397653341856e-09 -1.653993560576067e-09 -1.163609952203011e-09 -9.428558615706317e-10 
-8.441262952946097e-10 -8.318429856387365e-10 -9.906894943036222e-10 -1.243807775142741e-09 -1.009906200584151e-09 -8.409338446157965e-10 
-1.020118366972377e-09 -1.05862258894466e-09 -8.665695440591293e-10 -1.310700256564455e-09 -1.119200250572902e-09 -1.034002065815741e-09 
-8.533926386926724e-10 -9.986606388564057e-10 -1.012430542403726e-09 -1.144447128715762e-09 -1.241887434643882e-09 -1.038653333255599e-09 
-1.048378443967596e-09 -1.292979406299514e-09 -1.68995113724407e-09 -1.112200032328973e-09 -1.352318011162582e-09 -1.278054219587982e-09 
-1.56082496452333e-09 -1.906727949424276e-09 -2.354013612504617e-09 -1.935394435241341e-09 -1.912484598713478e-09 -1.371079547505892e-09 
-1.395076940803225e-09 -1.871168552423545e-09 -2.444615164375764e-09 -1.972229093808564e-09 -1.977438319923267e-09 -1.46874341650051e-09 
-1.160330389113691e-09 -1.205765445421243e-09 -1.802550286691605e-09 -1.012112845354479e-09 -1.469710332791324e-09 -1.264745223253722e-09 
-9.970172970667374e-10 -1.166881823990261e-09 -1.068048958846219e-09 -1.105914997333688e-09 -1.268948679478508e-09 -1.117392848954222e-09 
-1.049028370131691e-09 -1.109564333543874e-09 -8.135444773339914e-10 -1.243597805486696e-09 -1.126670462296955e-09 -1.021562335719575e-09 
-8.089403378879947e-10 -8.687305718150697e-10 -1.016170513173406e-09 -1.205224822230055e-09 -9.516280859633484e-10 -7.716483733021994e-10 
-9.44837425364954e-10 -9.101102823287474e-10 -1.39143769535847e-09 -1.569203693080179e-09 -1.106309781302561e-09 -8.850400859584784e-10 
-1.101019194849393e-09 -1.318325561986187e-09 -2.289480480723033e-09 -2.348952389989703e-09 -1.531738989124838e-09 -1.296687274435545e-09 
-1.825321497374856e-09 -2.326595784870323e-09 -3.475810991305836e-09 -3.697864217554398e-09 -2.482024998675392e-09 -1.852699323353359e-09 
-1.676947162511872e-09 -2.455489594076704e-09 -3.614474887214162e-09 -3.717526995015086e-09 -2.371844069611543e-09 -1.815893068681456e-09 
-1.059268546364275e-09 -1.510405662708863e-09 -2.300856390849927e-09 -2.403346269685453e-09 -1.605192884252853e-09 -1.368215130443701e-09 
-9.02460857171798e-10 -1.095144690539754e-09 -1.517788907179263e-09 -1.740983298202738e-09 -1.255967498284353e-09 -1.161059396212553e-09 
-9.03039501769246e-10 -1.165650533474518e-09 -1.357314962317758e-09 -1.574565946567422e-09 -1.350638411927464e-09 -1.176664249455408e-09 
-1.156398923433984e-09 -1.294626368098002e-09 -1.279598166270499e-09 -1.315692768909288e-09 -1.494855682511493e-09 -1.243620859288404e-09 
-1.05668419342473e-09 -1.105153390431385e-09 -1.271832027942358e-09 -1.170487094364409e-09 -1.395592463344842e-09 -1.181697663313254e-09 
-1.137942573632502e-09 -1.113244864129968e-09 -1.624737122819295e-09 -1.035813160528913e-09 -1.453415108325161e-09 -1.207392663408825e-09 
-1.624113881309897e-09 -1.808271040137809e-09 -2.519842542808668e-09 -2.130098450692115e-09 -2.13541563946473e-09 -1.590223861630435e-09 
-1.367509360489424e-09 -1.798263258873297e-09 -2.400237971035362e-09 -1.899296080530759e-09 -1.958613818162277e-09 -1.551159649840391e-09 
-1.134755044839035e-09 -1.155853205245277e-09 -1.721718953052974e-09 -9.252235581292089e-10 -1.49904853687796e-09 -1.209547621554311e-09 
-1.237348097854558e-09 -1.146459928945143e-09 -1.328075290139751e-09 -1.258427215411901e-09 -1.488131315310974e-09 -1.363806227655611e-09 
-1.326610387372776e-09 -1.506413509199952e-09 -1.260466464339786e-09 -1.415232572830959e-09 -1.670771389569803e-09 -1.447518425572249e-09 
-9.628971778924911e-10 -1.187505921640665e-09 -1.40836781262589e-09 -1.291380376971289e-09 -1.255272897430264e-09 -1.092652434293067e-09 
-9.045605633170383e-10 -1.163037895840747e-09 -1.52934137931078e-09 -1.6961793033207e-09 -1.295216926894528e-09 -1.07540516678132e-09 
-1.078484976471852e-09 -1.52227384722804e-09 -2.35941392332498e-09 -2.457415629155034e-09 -1.754486788326138e-09 -1.388751136631629e-09 
-1.818275824768148e-09 -2.433195752106787e-09 -3.628759904174652e-09 -3.751452132603631e-09 -2.453992481306643e-09 -1.858406524226109e-09 
-1.488534754966747e-09 -2.368658858876163e-09 -3.469082986771092e-09 -3.589401080567948e-09 -2.366235666777794e-09 -1.780964048802294e-09 
-1.192248486909041e-09 -1.347378380353945e-09 -2.225549545701779e-09 -2.325902998944269e-09 -1.409847284500684e-09 -1.265946338480447e-09 
-1.023965509596399e-09 -9.517261928630354e-10 -1.459397653341856e-09 -1.653993560576067e-09 -1.163609952203011e-09 -9.428558615706317e-10 
-8.441262952946097e-10 -8.318429856387365e-10 -9.906894943036222e-10 -1.243807775142741e-09 -1.009906200584151e-09 -8.409338446157965e-10 
-1.020118366972377e-09 -1.05862258894466e-09 -8.665695440591293e-10 -1.310700256564455e-09 -1.119200250572902e-09 -1.034002065815741e-09 
-8.533926386926724e-10 -9.986606388564057e-10 -1.012430542403726e-09 -1.144447128715762e-09 -1.241887434643882e-09 -1.038653333255599e-09 
-1.048378443967596e-09 -1.292979406299514e-09 -1.68995113724407e-09 -1.112200032328973e-09 -1.352318011162582e-09 -1.278054219587982e-09 
-1.56082496452333e-09 -1.906727949424276e-09 -2.354013612504617e-09 -1.935394435241341e-09 -1.912484598713478e-09 -1.371079547505892e-09 
-1.395076940803225e-09 -1.871168552423545e-09 -2.444615164375764e-09 -1.972229093808564e-09 -1.977438319923267e-09 -1.46874341650051e-09 
-1.160330389113691e-09 -1.205765445421243e-09 -1.802550286691605e-09 -1.012112845354479e-09 -1.469710332791324e-09 -1.264745223253722e-09 
-9.970172970667374e-10 -1.166881823990261e-09 -1.068048958846219e-09 -1.105914997333688e-09 -1.268948679478508e-09 -1.117392848954222e-09 
-1.049028370131691e-09 -1.109564333543874e-09 -8.135444773339914e-10 -1.243597805486696e-09 -1.126670462296955e-09 -1.021562335719575e-09 
-8.089403378879947e-10 -8.687305718150697e-10 -1.016170513173406e-09 -1.205224822230055e-09 -9.516280859633484e-10 -7.716483733021994e-10 
-9.44837425364954e-10 -9.101102823287474e-10 -1.39143769535847e-09 -1.569203693080179e-09 -1.106309781302561e-09 -8.850400859584784e-10 
-1.101019194849393e-09 -1.318325561986187e-09 -2.289480480723033e-09 -2.348952389989703e-09 -1.531738989124838e-09 -1.296687274435545e-09 
-1.825321497374856e-09 -2.326595784870323e-09 -3.475810991305836e-09 -3.697864217554398e-09 -2.482024998675392e-09 -1.852699323353359e-09 
-1.676947162511872e-09 -2.455489594076704e-09 -3.614474887214162e-09 -3.717526995015086e-09 -2.371844069611543e-09 -1.815893068681456e-09 
-1.059268546364275e-09 -1.510405662708863e-09 -2.300856390849927e-09 -2.403346269685453e-09 -1.605192884252853e-09 -1.368215130443701e-09 
-9.02460857171798e-10 -1.095144690539754e-09 -1.517788907179263e-09 -1.740983298202738e-09 -1.255967498284353e-09 -1.161059396212553e-09 
-9.03039501769246e-10 -1.165650533474518e-09 -1.357314962317758e-09 -1.574565946567422e-09 -1.350638411927464e-09 -1.176664249455408e-09 
-1.156398923433984e-09 -1.294626368098002e-09 -1.279598166270499e-09 -1.315692768909288e-09 -1.494855682511493e-09 -1.243620859288404e-09 
-1.05668419342473e-09 -1.105153390431385e-09 -1.271832027942358e-09 -1.170487094364409e-09 -1.395592463344842e-09 -1.181697663313254e-09 
-1.137942573632502e-09 -1.113244864129968e-09 -1.624737122819295e-09 -1.035813160528913e-09 -1.453415108325161e-09 -1.207392663408825e-09 
-1.624113881309897e-09 -1.808271040137809e-09 -2.519842542808668e-09 -2.130098450692115e-09 -2.13541563946473e-09 -1.590223861630435e-09 
-1.367509360489424e-09 -1.798263258873297e-09 -2.400237971035362e-09 -1.899296080530759e-09 -1.958613818162277e-09 -1.551159649840391e-09 
-1.134755044839035e-09 -1.155853205245277e-09 -1.721718953052974e-09 -9.252235581292089e-10 -1.49904853687796e-09 -1.209547621554311e-09 
-1.237348097854558e-09 -1.146459928945143e-09 -1.328075290139751e-09 -1.258427215411901e-09 -1.488131315310974e-09 -1.363806227655611e-09 
-1.326610387372776e-09 -1.506413509199952e-09 -1.260466464339786e-09 -1.415232572830959e-09 -1.670771389569803e-09 -1.447518425572249e-09 
-9.628971778924911e-10 -1.187505921640665e-09 -1.40836781262589e-09 -1.291380376971289e-09 -1.255272897430264e-09 -1.092652434293067e-09 
-9.045605633170383e-10 -1.163037895840747e-09 -1.52934137931078e-09 -1.6961793033207e-09 -1.295216926894528e-09 -1.07540516678132e-09 
-1.078484976471852e-09 -1.52227384722804e-09 -2.35941392332498e-09 -2.457415629155034e-09 -1.754486788326138e-09 -1.388751136631629e-09 
-1.818275824768148e-09 -2.433195752106787e-09 -3.628759904174652e-09 -3.751452132603631e-09 -2.453992481306643e-09 -1.858406524226109e-09 
-1.488534754966747e-09 -2.368658858876163e-09 -3.469082986771092e-09 -3.589401080567948e-09 -2.366235666777794e-09 -1.780964048802294e-09 
-1.192248486909041e-09 -1.347378380353945e-09 -2.225549545701779e-09 -2.325902998944269e-09 -1.409847284500684e-09 -1.265946338480447e-09 
-1.023965509596399e-09 -9.517261928630354e-10 -1.459397653341856e-09 -1.653993560576067e-09 -1.163609952203011e-09 -9.428558615706317e-10 
-8.441262952946097e-10 -8.318429856387365e-10 -9.906894943036222e-10 -1.243807775142741e-09 -1.009906200584151e-09 -8.409338446157965e-10 
-1.020118366972377e-09 -1.05862258894466e-09 -8.665695440591293e-10 -1.310700256564455e-09 -1.119200250572902e-09 -1.034002065815741e-09 
-8.533926386926724e-10 -9.986606388564057e-10 -1.012430542403726e-09 -1.144447128715762e-09 -1.241887434643882e-09 -1.038653333255599e-09 
-1.048378443967596e-09 -1.292979406299514e-09 -1.68995113724407e-09 -1.112200032328973e-09 -1.352318011162582e-09 -1.278054219587982e-09 
-1.56082496452333e-09 -1.906727949424276e-09 -2.354013612504617e-09 -1.935394435241341e-09 -1.912484598713478e-09 -1.371079547505892e-09 
-1.395076940803225e-09 -1.871168552423545e-09 -2.444615164375764e-09 -1.972229093808564e-09 -1.977438319923267e-09 -1.46874341650051e-09 
-1.160330389113691e-09 -1.205765445421243e-09 -1.802550286691605e-09 -1.012112845354479e-09 -1.469710332791324e-09 -1.264745223253722e-09 
-9.970172970667374e-10 -1.166881823990261e-09 -1.068048958846219e-09 -1.105914997333688e-09 -1.268948679478508e-09 -1.117392848954222e-09 
-1.049028370131691e-09 -1.109564333543874e-09 -8.135444773339914e-10 -1.243597805486696e-09 -1.126670462296955e-09 -1.021562335719575e-09 
-8.089403378879947e-10 -8.687305718150697e-10 -1.016170513173406e-09 -1.205224822230055e-09 -9.516280859633484e-10 -7.716483733021994e-10 
-9.44837425364954e-10 -9.101102823287474e-10 -1.39143769535847e-09 -1.569203693080179e-09 -1.106309781302561e-09 -8.850400859584784e-10 
-1.101019194849393e-09 -1.318325561986187e-09 -2.289480480723033e-09 -2.348952389989703e-09 -1.531738989124838e-09 -1.296687274435545e-09 
-1.825321497374856e-09 -2.326595784870323e-09 -3.475810991305836e-09 -3.697864217554398e-09 -2.482024998675392e-09 -1.852699323353359e-09 
-1.676947162511872e-09 -2.455489594076704e-09 -3.614474887214162e-09 -3.717526995015086e-09 -2.371844069611543e-09 -1.815893068681456e-09 
-1.059268546364275e-09 -1.510405662708863e-09 -2.300856390849927e-09 -2.403346269685453e-09 -1.605192884252853e-09 -1.368215130443701e-09 
-9.02460857171798e-10 -1.095144690539754e-09 -1.517788907179263e-09 -1.740983298202738e-09 -1.255967498284353e-09 -1.161059396212553e-09 
-9.03039501769246e-10 -1.165650533474518e-09 -1.357314962317758e-09 -1.574565946567422e-09 -1.350638411927464e-09 -1.176664249455408e-09 
-1.156398923433984e-09 -1.294626368098002e-09 -1.279598166270499e-09 -1.315692768909288e-09 -1.494855682511493e-09 -1.243620859288404e-09 
-1.05668419342473e-09 -1.105153390431385e-09 -1.271832027942358e-09 -1.170487094364409e-09 -1.395592463344842e-09 -1.181697663313254e-09 
-1.137942573632502e-09 -1.113244864129968e-09 -1.624737122819295e-09 -1.035813160528913e-09 -1.453415108325161e-09 -1.207392663408825e-09 
-1.624113881309897e-09 -1.808271040137809e-09 -2.519842542808668e-09 -2.130098450692115e-09 -2.13541563946473e-09 -1.590223861630435e-09 
-1.367509360489424e-09 -1.798263258873297e-09 -2.400237971035362e-09 -1.899296080530759e-09 -1.958613818162277e-09 -1.551159649840391e-09 
-1.134755044839035e-09 -1.155853205245277e-09 -1.721718953052974e-09 -9.252235581292089e-10 -1.49904853687796e-09 -1.209547621554311e-09 
-1.237348097854558e-09 -1.146459928945143e-09 -1.328075290139751e-09 -1.258427215411901e-09 -1.488131315310974e-09 -1.363806227655611e-09 
-1.326610387372776e-09 -1.506413509199952e-09 -1.260466464339786e-09 -1.415232572830959e-09 -1.670771389569803e-09 -1.447518425572249e-09 
-9.628971778924911e-10 -1.187505921640665e-09 -1.40836781262589e-09 -1.291380376971289e-09 -1.255272897430264e-09 -1.092652434293067e-09 
-9.045605633170383e-10 -1.163037895840747e-09 -1.52934137931078e-09 -1.6961793033207e-09 -1.295216926894528e-09 -1.07540516678132e-09 
-1.078484976471852e-09 -1.52227384722804e-09 -2.35941392332498e-09 -2.457415629155034e-09 -1.754486788326138e-09 -1.388751136631629e-09 
-1.818275824768148e-09 -2.433195752106787e-09 -3.628759904174652e-09 -3.751452132603631e-09 -2.453992481306643e-09 -1.858406524226109e-09 
-1.488534754966747e-09 -2.368658858876163e-09 -3.469082986771092e-09 -3.589401080567948e-09 -2.366235666777794e-09 -1.780964048802294e-09 
-1.192248486909041e-09 -1.347378380353945e-09 -2.225549545701779e-09 -2.325902998944269e-09 -1.409847284500684e-09 -1.265946338480447e-09 
-1.023965509596399e-09 -9.517261928630354e-10 -1.459397653341856e-09 -1.653993560576067e-09 -1.163609952203011e-09 -9.428558615706317e-10 
-8.441262952946097e-10 -8.318429856387365e-10 -9.906894943036222e-10 -1.243807775142741e-09 -1.009906200584151e-09 -8.409338446157965e-10 
-1.020118366972377e-09 -1.05862258894466e-09 -8.665695440591293e-10 -1.310700256564455e-09 -1.119200250572902e-09 -1.034002065815741e-09 
-8.533926386926724e-10 -9.986606388564057e-10 -1.012430542403726e-09 -1.144447128715762e-09 -1.241887434643882e-09 -1.038653333255599e-09 
-1.048378443967596e-09 -1.292979406299514e-09 -1.68995113724407e-09 -1.112200032328973e-09 -1.352318011162582e-09 -1.278054219587982e-09 
-1.56082496452333e-09 -1.906727949424276e-09 -2.354013612504617e-09 -1.935394435241341e-09 -1.912484598713478e-09 -1.371079547505892e-09 
-1.395076940803225e-09 -1.871168552423545e-09 -2.444615164375764e-09 -1.972229093808564e-09 -1.977438319923267e-09 -1.46874341650051e-09 
-1.160330389113691e-09 -1.205765445421243e-09 -1.802550286691605e-09 -1.012112845354479e-09 -1.469710332791324e-09 -1.264745223253722e-09 
-9.970172970667374e-10 -1.166881823990261e-09 -1.068048958846219e-09 -1.105914997333688e-09 -1.268948679478508e-09 -1.117392848954222e-09 
-1.049028370131691e-09 -1.109564333543874e-09 -8.135444773339914e-10 -1.243597805486696e-09 -1.126670462296955e-09 -1.021562335719575e-09 
-8.089403378879947e-10 -8.687305718150697e-10 -1.016170513173406e-09 -1.205224822230055e-09 -9.516280859633484e-10 -7.716483733021994e-10 
-9.44837425364954e-10 -9.101102823287474e-10 -1.39143769535847e-09 -1.569203693080179e-09 -1.106309781302561e-09 -8.850400859584784e-10 
-1.101019194849393e-09 -1.318325561986187e-09 -2.289480480723033e-09 -2.348952389989703e-09 -1.531738989124838e-09 -1.296687274435545e-09 
-1.825321497374856e-09 -2.326595784870323e-09 -3.475810991305836e-09 -3.697864217554398e-09 -2.482024998675392e-09 -1.852699323353359e-09 
-1.676947162511872e-09 -2.455489594076704e-09 -3.614474887214162e-09 -3.717526995015086e-09 -2.371844069611543e-09 -1.815893068681456e-09 
-1.059268546364275e-09 -1.510405662708863e-09 -2.300856390849927e-09 -2.403346269685453e-09 -1.605192884252853e-09 -1.368215130443701e-09 
-9.02460857171798e-10 -1.095144690539754e-09 -1.517788907179263e-09 -1.740983298202738e-09 -1.255967498284353e-09 -1.161059396212553e-09 
-9.03039501769246e-10 -1.165650533474518e-09 -1.357314962317758e-09 -1.574565946567422e-09 -1.350638411927464e-09 -1.176664249455408e-09 
-1.156398923433984e-09 -1.294626368098002e-09 -1.279598166270499e-09 -1.315692768909288e-09 -1.494855682511493e-09 -1.243620859288404e-09 
-1.05668419342473e-09 -1.105153390431385e-09 -1.271832027942358e-09 -1.170487094364409e-09 -1.395592463344842e-09 -1.181697663313254e-09 
-1.137942573632502e-09 -1.113244864129968e-09 -1.624737122819295e-09 -1.035813160528913e-09 -1.453415108325161e-09 -1.207392663408825e-09 
-1.624113881309897e-09 -1.808271040137809e-09 -2.519842542808668e-09 -2.130098450692115e-09 -2.13541563946473e-09 -1.590223861630435e-09 
-1.367509360489424e-09 -1.798263258873297e-09 -2.400237971035362e-09 -1.899296080530759e-09 -1.958613818162277e-09 -1.551159649840391e-09 
-1.134755044839035e-09 -1.155853205245277e-09 -1.721718953052974e-09 -9.252235581292089e-10 -1.49904853687796e-09 -1.209547621554311e-09 
-1.237348097854558e-09 -1.146459928945143e-09 -1.328075290139751e-09 -1.258427215411901e-09 -1.488131315310974e-09 -1.363806227655611e-09 
-1.326610387372776e-09 -1.506413509199952e-09 -1.260466464339786e-09 -1.415232572830959e-09 -1.670771389569803e-09 -1.447518425572249e-09 
-9.628971778924911e-10 -1.187505921640665e-09 -1.40836781262589e-09 -1.291380376971289e-09 -1.255272897430264e-09 -1.092652434293067e-09 
-9.045605633170383e-10 -1.163037895840747e-09 -1.52934137931078e-09 -1.6961793033207e-09 -1.295216926894528e-09 -1.07540516678132e-09 
-1.078484976471852e-09 -1.52227384722804e-09 -2.35941392332498e-09 -2.457415629155034e-09 -1.754486788326138e-09 -1.388751136631629e-09 
-1.818275824768148e-09 -2.433195752106787e-09 -3.628759904174652e-09 -3.751452132603631e-09 -2.453992481306643e-09 -1.858406524226109e-09 
-1.488534754966747e-09 -2.368658858876163e-09 -3.469082986771092e-09 -3.589401080567948e-09 -2.366235666777794e-09 -1.780964048802294e-09 
-1.192248486909041e-09 -1.347378380353945e-09 -2.225549545701779e-09 -2.325902998944269e-09 -1.409847284500684e-09 -1.265946338480447e-09 
-1.023965509596399e-09 -9.517261928630354e-10 -1.459397653341856e-09 -1.653993560576067e-09 -1.163609952203011e-09 -9.428558615706317e-10 
-8.441262952946097e-10 -8.318429856387365e-10 -9.906894943036222e-10 -1.243807775142741e-09 -1.009906200584151e-09 -8.409338446157965e-10 
-1.020118366972377e-09 -1.05862258894466e-09 -8.665695440591293e-10 -1.310700256564455e-09 -1.119200250572902e-09 -1.034002065815741e-09 
-8.533926386926724e-10 -9.986606388564057e-10 -1.012430542403726e-09 -1.144447128715762e-09 -1.241887434643882e-09 -1.038653333255599e-09 
-1.048378443967596e-09 -1.292979406299514e-09 -1.68995113724407e-09 -1.112200032328973e-09 -1.352318011162582e-09 -1.278054219587982e-09 
-1.56082496452333e-09 -1.906727949424276e-09 -2.354013612504617e-09 -1.935394435241341e-09 -1.912484598713478e-09 -1.371079547505892e-09 
-1.395076940803225e-09 -1.871168552423545e-09 -2.444615164375764e-09 -1.972229093808564e-09 -1.977438319923267e-09 -1.46874341650051e-09 
-1.160330389113691e-09 -1.205765445421243e-09 -1.802550286691605e-09 -1.012112845354479e-09 -1.469710332791324e-09 -1.264745223253722e-09 
-9.970172970667374e-10 -1.166881823990261e-09 -1.068048958846219e-09 -1.105914997333688e-09 -1.268948679478508e-09 -1.117392848954222e-09 
-1.049028370131691e-09 -1.109564333543874e-09 -8.135444773339914e-10 -1.243597805486696e-09 -1.126670462296955e-09 -1.021562335719575e-09 
-8.089403378879947e-10 -8.687305718150697e-10 -1.016170513173406e-09 -1.205224822230055e-09 -9.516280859633484e-10 -7.716483733021994e-10 
-9.44837425364954e-10 -9.101102823287474e-10 -1.39143769535847e-09 -1.569203693080179e-09 -1.106309781302561e-09 -8.850400859584784e-10 
-1.101019194849393e-09 -1.318325561986187e-09 -2.289480480723033e-09 -2.348952389989703e-09 -1.531738989124838e-09 -1.296687274435545e-09 
-1.825321497374856e-09 -2.326595784870323e-09 -3.475810991305836e-09 -3.697864217554398e-09 -2.482024998675392e-09 -1.852699323353359e-09 
-1.676947162511872e-09 -2.455489594076704e-09 -3.614474887214162e-09 -3.717526995015086e-09 -2.371844069611543e-09 -1.815893068681456e-09 
-1.059268546364275e-09 -1.510405662708863e-09 -2.300856390849927e-09 -2.403346269685453e-09 -1.605192884252853e-09 -1.368215130443701e-09 
-9.02460857171798e-10 -1.095144690539754e-09 -1.517788907179263e-09 -1.740983298202738e-09 -1.255967498284353e-09 -1.161059396212553e-09 
-9.03039501769246e-10 -1.165650533474518e-09 -1.357314962317758e-09 -1.574565946567422e-09 -1.350638411927464e-09 -1.176664249455408e-09 
-1.156398923433984e-09 -1.294626368098002e-09 -1.279598166270499e-09 -1.315692768909288e-09 -1.494855682511493e-09 -1.243620859288404e-09 
-1.05668419342473e-09 -1.105153390431385e-09 -1.271832027942358e-09 -1.170487094364409e-09 -1.395592463344842e-09 -1.181697663313254e-09 
-1.137942573632502e-09 -1.113244864129968e-09 -1.624737122819295e-09 -1.035813160528913e-09 -1.453415108325161e-09 -1.207392663408825e-09 
-1.624113881309897e-09 -1.808271040137809e-09 -2.519842542808668e-09 -2.130098450692115e-09 -2.13541563946473e-09 -1.590223861630435e-09 
-1.367509360489424e-09 -1.798263258873297e-09 -2.400237971035362e-09 -1.899296080530759e-09 -1.958613818162277e-09 -1.551159649840391e-09 
-1.134755044839035e-09 -1.155853205245277e-09 -1.721718953052974e-09 -9.252235581292089e-10 -1.49904853687796e-09 -1.209547621554311e-09 
-1.237348097854558e-09 -1.146459928945143e-09 -1.328075290139751e-09 -1.258427215411901e-09 -1.488131315310974e-09 -1.363806227655611e-09 
-1.326610387372776e-09 -1.506413509199952e-09 -1.260466464339786e-09 -1.415232572830959e-09 -1.670771389569803e-09 -1.447518425572249e-09 
-9.628971778924911e-10 -1.187505921640665e-09 -1.40836781262589e-09 -1.291380376971289e-09 -1.255272897430264e-09 -1.092652434293067e-09 
-9.045605633170383e-10 -1.163037895840747e-09 -1.52934137931078e-09 -1.6961793033207e-09 -1.295216926894528e-09 -1.07540516678132e-09 
-1.078484976471852e-09 -1.52227384722804e-09 -2.35941392332498e-09 -2.457415629155034e-09 -1.754486788326138e-09 -1.388751136631629e-09 
-1.818275824768148e-09 -2.433195752106787e-09 -3.628759904174652e-09 -3.751452132603631e-09 -2.453992481306643e-09 -1.858406524226109e-09 
-1.488534754966747e-09 -2.368658858876163e-09 -3.469082986771092e-09 -3.589401080567948e-09 -2.366235666777794e-09 -1.780964048802294e-09 
-1.192248486909041e-09 -1.347378380353945e-09 -2.225549545701779e-09 -2.325902998944269e-09 -1.409847284500684e-09 -1.265946338480447e-09 
-1.023965509596399e-09 -9.517261928630354e-10 -1.459397653341856e-09 -1.653993560576067e-09 -1.163609952203011e-09 -9.428558615706317e-10 
-8.441262952946097e-10 -8.318429856387365e-10 -9.906894943036222e-10 -1.243807775142741e-09 -1.009906200584151e-09 -8.409338446157965e-10 
-1.020118366972377e-09 -1.05862258894466e-09 -8.665695440591293e-10 -1.310700256564455e-09 -1.119200250572902e-09 -1.034002065815741e-09 
-8.533926386926724e-10 -9.986606388564057e-10 -1.012430542403726e-09 -1.144447128715762e-09 -1.241887434643882e-09 -1.038653333255599e-09 
-1.048378443967596e-09 -1.292979406299514e-09 -1.68995113724407e-09 -1.112200032328973e-09 -1.352318011162582e-09 -1.278054219587982e-09 
-1.56082496452333e-09 -1.906727949424276e-09 -2.354013612504617e-09 -1.935394435241341e-09 -1.912484598713478e-09 -1.371079547505892e-09 
-1.395076940803225e-09 -1.871168552423545e-09 -2.444615164375764e-09 -1.972229093808564e-09 -1.977438319923267e-09 -1.46874341650051e-09 
-1.160330389113691e-09 -1.205765445421243e-09 -1.802550286691605e-09 -1.012112845354479e-09 -1.469710332791324e-09 -1.264745223253722e-09 
-9.970172970667374e-10 -1.166881823990261e-09 -1.068048958846219e-09 -1.105914997333688e-09 -1.268948679478508e-09 -1.117392848954222e-09 
-1.049028370131691e-09 -1.109564333543874e-09 -8.135444773339914e-10 -1.243597805486696e-09 -1.126670462296955e-09 -1.021562335719575e-09 
-8.089403378879947e-10 -8.687305718150697e-10 -1.016170513173406e-09 -1.205224822230055e-09 -9.516280859633484e-10 -7.716483733021994e-10 
-9.44837425364954e-10 -9.101102823287474e-10 -1.39143769535847e-09 -1.569203693080179e-09 -1.106309781302561e-09 -8.850400859584784e-10 
-1.101019194849393e-09 -1.318325561986187e-09 -2.289480480723033e-09 -2.348952389989703e-09 -1.531738989124838e-09 -1.296687274435545e-09 
-1.825321497374856e-09 -2.326595784870323e-09 -3.475810991305836e-09 -3.697864217554398e-09 -2.482024998675392e-09 -1.852699323353359e-09 
-1.676947162511872e-09 -2.455489594076704e-09 -3.614474887214162e-09 -3.717526995015086e-09 -2.371844069611543e-09 -1.815893068681456e-09 
-1.059268546364275e-09 -1.510405662708863e-09 -2.300856390849927e-09 -2.403346269685453e-09 -1.605192884252853e-09 -1.368215130443701e-09 
-9.02460857171798e-10 -1.095144690539754e-09 -1.517788907179263e-09 -1.740983298202738e-09 -1.255967498284353e-09 -1.161059396212553e-09 
-9.03039501769246e-10 -1.165650533474518e-09 -1.357314962317758e-09 -1.574565946567422e-09 -1.350638411927464e-09 -1.176664249455408e-09 
-1.156398923433984e-09 -1.294626368098002e-09 -1.279598166270499e-09 -1.315692768909288e-09 -1.494855682511493e-09 -1.243620859288404e-09 
-1.05668419342473e-09 -1.105153390431385e-09 -1.271832027942358e-09 -1.170487094364409e-09 -1.395592463344842e-09 -1.181697663313254e-09 
-1.137942573632502e-09 -1.113244864129968e-09 -1.624737122819295e-09 -1.035813160528913e-09 -1.453415108325161e-09 -1.207392663408825e-09 
-1.624113881309897e-09 -1.808271040137809e-09 -2.519842542808668e-09 -2.130098450692115e-09 -2.13541563946473e-09 -1.590223861630435e-09 
-1.367509360489424e-09 -1.798263258873297e-09 -2.400237971035362e-09 -1.899296080530759e-09 -1.958613818162277e-09 -1.551159649840391e-09 
-1.134755044839035e-09 -1.155853205245277e-09 -1.721718953052974e-09 -9.252235581292089e-10 -1.49904853687796e-09 -1.209547621554311e-09 
-1.237348097854558e-09 -1.146459928945143e-09 -1.328075290139751e-09 -1.258427215411901e-09 -1.488131315310974e-09 -1.363806227655611e-09 
-1.326610387372776e-09 -1.506413509199952e-09 -1.260466464339786e-09 -1.415232572830959e-09 -1.670771389569803e-09 -1.447518425572249e-09 
-9.628971778924911e-10 -1.187505921640665e-09 -1.40836781262589e-09 -1.291380376971289e-09 -1.255272897430264e-09 -1.092652434293067e-09 
-9.045605633170383e-10 -1.163037895840747e-09 -1.52934137931078e-09 -1.6961793033207e-09 -1.295216926894528e-09 -1.07540516678132e-09 
-1.078484976471852e-09 -1.52227384722804e-09 -2.35941392332498e-09 -2.457415629155034e-09 -1.754486788326138e-09 -1.388751136631629e-09 
-1.818275824768148e-09 -2.433195752106787e-09 -3.628759904174652e-09 -3.751452132603631e-09 -2.453992481306643e-09 -1.858406524226109e-09 
-1.488534754966747e-09 -2.368658858876163e-09 -3.469082986771092e-09 -3.589401080567948e-09 -2.366235666777794e-09 -1.780964048802294e-09 
