solver_type L2R_L2LOSS_SVC_DUAL
nr_class 6
label 1 2 3 4 5 6
nr_feature 8192
bias -1
w
0.001408520112445477 -0.003667746962661785 -0.0009554336686411957 0.0004136146370090747 0.001898628011170936 0.003076478594205255 
-0.001056649172298914 -0.001983923865372409 0.001204450955299627 -0.002394167450746864 -0.001738605358605119 0.00245398515968349 
-0.001926166815148576 0.0006650286931725533 0.00216677788684393 -0.004543954835293644 -0.00157663107549677 0.0002590925094490265 
-0.003053013454383372 -0.002540139156785032 0.002727499623335227 0.0008856284177422865 -0.002565181385947544 -0.0004911280886975511 
-0.001168292786267381 -0.001338704844892553 0.001936507279884605 -0.001218333397148481 -0.001006223449910998 -0.001876378284538093 
-0.001402154703313841 0.0003774315284108148 0.0008157690942039212 0.001508649020950534 -0.0006054684091915507 0.0004840521906255989 
-0.00424946894803557 -0.007395587705861453 0.009659805953402691 -0.01061255909670636 -0.00640005285697409 -0.005344098829700212 
-0.007524245771952757 0.003583451889562857 0.001045907240178871 -0.01108797724843701 -0.004461526034784946 -0.009648886250526066 
-0.002816360933788572 -0.008470797294575892 0.007810815228622358 -0.02101327881193478 -0.0025465552665081 -0.005352605100081196 
-0.003064274448226557 0.005885791352382346 -0.001185741014957644 0.001229163571639405 -0.001647544686576155 0.002959089528306611 
-0.005832775661650386 0.002222727186254435 0.003022423414659771 -0.005936355125212999 -0.005068645934474289 -0.005310393441510154 
-0.004021040636353198 0.0008975678789840524 -7.383428890784717e-05 0.008226048585978845 -0.001672466689931678 0.004081521983420923 
-0.001012134376352203 -0.001482755690657782 -0.0003294281021757494 0.001068146789513236 -0.0001761353126096893 0.004705878090614186 
-0.00350627487711272 0.0015704322895498 0.003520836523711326 -0.001806491818319686 -0.003023957907227989 -0.002080230303529942 
-0.007280981820812771 -0.003390898855186312 0.01062061815536133 -0.002045584324810523 -0.008066637568371546 -0.002059324649764952 
-0.01092488312303771 -0.01431364801179645 0.003681397617691508 -0.01017741508802055 0.006889468088163988 0.0008989034929528947 
-0.005427685885925003 0.004302885035731429 0.005699511396998005 0.00411939288633717 -0.003707083768495558 -0.005475349350245986 
-0.005847431540918714 -0.004580318459889844 0.007574715508427718 -0.005075633876021299 -0.005435779867475648 -0.004136334812690417 
-0.002512069979607754 -0.0006832677043019798 0.002444661695416144 0.0003351751952622332 -0.001967753293804561 -0.00170161661415614 
-0.001117402541765883 -0.0006881872208998477 0.001298302660174737 -0.001208121472500118 -0.0005179771469561084 -0.0008620828220492262 
-0.0008001443294167968 -0.001190725397206345 0.0003745181170309338 0.002290153340059123 -0.0005172835241762839 0.0008434617040343683 
-0.001491232248546793 -0.0004603459575095002 0.0005870038316090834 -0.0005582970291077369 0.0001116173625076708 0.0004099942184937592 
-0.001051623923965787 -0.0003343807360273801 -4.630323341424656e-05 0.001550300516640325 0.001827245006860693 -0.0006168254185400969 
-0.001331547399141306 0.001603453042473024 -0.0002307486019804215 -0.001967572595994747 0.002091083492801665 0.001132162662075075 
-0.00518218905260695 -0.0008687140331414666 -0.0002280158303375442 0.0006136848019461438 0.007112545357256068 -0.002698772192959815 
-0.002962906200717302 -0.001315679730418334 0.004702772346528487 -0.003490525672392831 -0.0003072584631835 -0.003830866938154602 
-0.001737829408732388 -0.001233803999269188 0.002945647610028716 -0.002336039027183263 -0.0008342092037547887 -0.001323391737031123 
-0.002343527394784252 -0.002277322424070639 0.002050989436429544 -0.002143070062308777 0.001152419059451689 -0.0007990194082492944 
-0.00377488769360825 -0.004562854019212529 0.005916245885112238 -0.003927162539650315 -0.00262167163546633 -0.005485550782506312 
-0.002824785833937302 -0.002953282619654985 0.004394584832569683 -0.003178788543898044 -0.001906447868711018 -0.001754267375114088 
-0.003962259891627795 -0.002315158304158395 0.005789347213745022 -0.006860696076370519 -0.004460801461213522 -0.007090212350181941 
-0.0002498937509395106 0.003151092757675809 -0.0003220486043027021 -0.0009474817837623883 -0.000602694861315993 0.00184477873551449 
-0.003176676767743141 -0.005574806910657022 0.00584920821330212 0.003032261201237597 -0.0007231478797883061 -0.004804581987905559 
-0.004875571001518692 -0.006238885852937868 0.007668062212236326 -0.001566050475244186 -0.004031732699229365 -0.001886173161137761 
-0.003172472183334764 -0.002594477114537229 0.005076177151326463 -0.002641472167703973 -0.003387663991753549 0.002483300509636898 
-0.007913565361896939 -0.01217353251179324 0.01686996478909683 -0.001560113014632171 -0.009527836870460037 -0.00472286079584227 
-0.003928864662067607 -0.001068307380736129 0.004271200985920048 -0.003478974403337046 -0.002817974393405173 -0.0009267767136854117 
-0.005666364561677879 -0.003488571824659917 0.00923570061731414 -0.01021392956645868 -0.005833520508611856 -0.003504330503777025 
-0.001283923788077907 0.00802857315229793 -0.000151230301502368 0.001897805368901268 -0.001422690010483513 0.003103736382224086 
-0.01143651301992221 0.02219387606243878 -0.006385994513063786 0.002094320470182024 -0.002770275721024692 0.002021878089157531 
0.0004324653951059319 -0.0129742636080675 0.002315619668220848 -0.01571406397709967 0.006492051008440569 -0.006077906192635682 
0.001021299224234424 -0.0005219527733012241 0.0004029458683641792 0.005306371751481174 0.002620450229661987 -0.001572105626161159 
-0.001308320483754442 0.0005372694495048908 0.0002400789631650394 0.002575209532430885 -0.0009101280101358007 0.001611840733208922 
-0.0008548442047686057 0.002916586076289784 0.001103940228526493 0.004668506781380156 -0.0009803889106968435 -0.002832500164208562 
-0.001483643704237676 0.003211690929201678 -0.001651254129004736 -0.002417752836290333 -0.001478554608169656 0.0007327484101474233 
-0.003077735035079492 8.995934333271526e-05 0.002653455681586093 -0.0009216587307168317 -0.00218020212194764 4.413320818450331e-05 
-0.008080725209287945 -0.001589151402532075 0.005830443667011332 -0.006122571104896129 -0.005621811019531728 0.006678890164150927 
0.01957805622265515 -0.01177599204478347 -0.01415020825715743 -0.01172522142911872 0.003385478651206614 0.01903523441419401 
-0.008825124279231768 0.004395570507347146 0.005573498790588224 0.001257277266202484 -0.001249880727356911 0.0004376500884987267 
-0.006701872143055018 -0.0006285607100543325 0.007531183959549475 -0.003841730294152667 -0.004907766434192767 -0.003539371467936449 
-0.00507489511691922 -0.00182078618126606 0.004546104200591661 0.0009284069651014043 -0.003400704357068075 0.0007730408355333921 
-0.00386823329314579 -0.001260718620924919 0.005365899361043307 -0.004847873319790192 -0.002925083293412669 -0.004105313937338678 
-0.007258021668824445 -0.0001503118491554189 0.01162988310593461 -0.003345225183462295 -0.005471916296729108 -0.005548865806388369 
-0.002430446005009587 0.0009123252509018931 0.003906907880718983 -0.001786097703325482 -0.001944493871715586 -0.004604280704420908 
-0.001523644326303167 0.004513599520445661 4.513181526128446e-05 0.001890123380617508 0.000337156613120456 -0.001871730810643574 
-0.004133632166652598 0.003522292825626367 0.004262683063430264 -0.005504159372082839 0.00137586502479332 -0.001984178609652439 
-0.01147016354694246 -0.003711820392062714 0.0051051458739212 -0.003025563301486291 0.008629591745884548 -0.004508306457567755 
-0.00328836700161563 0.001017828286636434 0.00258037826270737 -0.0004728860589127013 4.245956807182946e-05 -0.003575012103665983 
-0.001845344727097552 0.00153148511338121 0.003592916833308815 -0.001915403719765944 -0.002141969719114374 -0.0009014148541824318 
-0.002137339986424116 -0.001293516899188348 0.004738445917859348 -0.003094948005109439 -0.002356947239604322 -0.0001402076930538011 
-0.004818044016983738 -0.001378669365299691 0.002034793979274959 0.0007135541997892561 -0.001203601674931005 0.0001589075066705958 
-0.00771968042508409 -0.0054852293274138 0.00977063065984949 -0.006679781730074021 -0.007190164575279043 -0.00848113922295919 
-0.001643099724681851 0.008990011622909038 -0.001483656796272924 0.001399297672229409 -0.001731481331315289 0.0008153504211896015 
-0.005721726577870223 -0.002061505070221175 -0.003816694425675077 -0.0004550531127045251 0.009632377057675574 -0.003989831077641648 
-0.0002201500422515133 -0.004389839070897899 -0.007018568295589609 0.008563328610425271 -0.00156150193669704 0.02270203064477646 
-0.0002785718439398598 -0.003061636713699049 -0.0008292446918035224 0.002854812706767418 -0.001325907324003262 0.01432255772227205 
-0.001834501036283796 -0.0001570729657063422 0.0008967387913083898 0.001900819022610169 -0.001507812103017907 0.005046483271713693 
-0.00972151764167792 -0.007084699636665311 0.01037646700639304 -0.002627411471438385 -0.007555896373772242 0.001006013441039317 
-0.009123770179937235 -0.006681315630784986 0.012789314239515 -0.0127080338570787 -0.007109694244368735 -0.0008083508781314594 
-0.002517332449956213 0.004762694254626131 0.002728434455667742 -0.002698714846897393 -0.001448973344549622 -0.0011973439601332 
0.001374518509936374 0.005748509417108638 0.004744812247192262 -0.003461672518874365 -0.003252529640492653 -0.005092922419864543 
0.003144765863718272 0.01580118650327713 -0.006573780893807363 -0.003576661218428902 -0.004288360598158457 0.004155546243707682 
-0.005382869594250482 -0.01229379390156565 0.01070692354924779 -0.01375594280737578 -0.003218002817069676 0.004322969856301696 
-0.005090058615641745 -0.0001321649878654197 0.004676392279137214 0.003095845730089753 0.002201049195208851 -0.003639321652789156 
-0.007008577610250928 0.0038739057041425 0.001598171062642051 -0.00150990796995842 0.001198377031118668 -0.0009112756657194321 
-0.01132675073395089 0.01442996093611896 -0.00182744463722636 0.00425555118159976 -0.002694522269403237 0.004315370373788138 
0.0006319808192868074 0.005527530499702978 -0.00084148850512873 -0.002956735297142824 -0.0007298486303638603 -0.001315209027035897 
-0.004480361372826962 -0.001001092383749814 0.003670320284288234 -0.003576545963516216 -0.003875244490951812 0.0006231896328920999 
-0.00147416149114253 -0.00140365577745648 0.00266965470257958 9.916044968706022e-05 -0.001987094234741764 0.0004041976283870466 
0.001986589119058841 -0.000801981600246583 -0.001369728335489037 7.514638520530307e-05 0.001435608379897875 0.003164571084449097 
-0.004899051861857656 0.007168718687654438 0.0007639867353840516 0.003671785991720025 -0.001310143232430504 0.001847971695633651 
-0.01050382176795871 -0.006582878337738119 0.01145637681019477 -0.0002549025745144619 -0.002737517549646679 0.000547479988228403 
-0.0021196594923941 0.0001729380655782026 0.0003966568101965629 0.002344471556416402 -0.001178115787416724 0.002181502890998205 
-0.005693860098781935 -0.005726725032697934 0.00998303711006737 -0.005608614464316941 -0.006800680952536337 -0.006312865565598169 
-0.007296959185230495 -0.005154062629025089 0.01154640646369244 -0.004141924523888923 -0.0051652043572937 -0.007416527995531157 
-0.007248277923703786 0.001736882516172257 0.002335207095057108 -0.005185306114279218 3.092032242963954e-05 -0.008361387053119897 
-0.00388137945427564 0.005062321149493613 0.004507314914060766 -0.003364466660048331 -0.002832217090611062 -0.003870859387314859 
-0.005284658489937985 0.0007650349519176565 0.005914308585845319 -0.005626362900458538 -0.0009102988544149715 0.001496457195284779 
-0.01397065037591463 0.004440633550155719 0.0001323695131024791 -0.0006577029200434798 0.01206327677349438 -0.008216391507957371 
-0.008849963125951966 -0.0003165014850564464 0.006034088786304072 -0.00337905937417351 0.0007944327419165646 -0.006476691171834929 
-0.005162267936762202 -0.001480895041693769 -0.001967246641349273 0.0053062874982885 -0.001718873546045868 -0.000850098498341046 
-0.00312675056220888 -0.0007581229749911966 0.0008054835891101934 0.001150149685962956 -0.001000940672883755 0.0008430112401090912 
-0.005625416072418535 0.002423456668338729 0.0006028281096502055 0.005465612291442065 -0.002505487430856004 0.001493980228054083 
-0.007688893371318389 0.0001359538617408013 -0.0008183125499716758 0.005619911184606821 0.00201914395228489 0.009023022497422662 
-0.00460905759209479 0.0005112944290220909 -0.004118041686415933 0.004859885204741849 0.004805268557715413 0.00175159852552557 
-0.00699873411252111 -0.001274928326094153 0.00198756370911421 4.147781870735885e-05 0.003146429927106833 0.002720380423023971 
-0.001181936623958265 -0.0009883298528662026 -0.0006264353347616957 0.006026968905012713 2.753128149738684e-05 0.00439508333566564 
-0.003640208192569979 0.005923657286604068 0.000541420855510368 -0.001486060278258514 -0.002997034584248452 -0.003509921201249765 
-0.003311349609362728 -0.001356397158701891 0.006347042063656944 0.0002203520987791266 -0.004134726208983686 -0.003683323353105551 
-0.006215398252469594 0.0001522744081915277 0.005896933644587151 0.0006072968653615048 -0.005612677515399457 -0.003611097286208537 
-0.008727942154226056 -0.0007443239961012123 0.01137062916370649 -0.01317893771837585 -0.007506684326018018 -0.008287958156231611 
-0.005147235473253704 0.008348836060304017 -0.004761675298855093 -0.0008367388170918959 -0.002423565183222715 -0.0005647589422775812 
-0.007009406662789788 0.00841820270484182 0.002155393726110273 -0.01054197187195934 -0.00685151118655852 -0.006075856834121522 
-0.005703686559772386 0.007707211970997169 -0.007236217203294748 0.01213862379542187 -0.003069444449548645 0.009186371770342826 
0.007637148888151635 -0.01708362717590888 0.006331777978605553 -0.01500530299372812 -0.004963846627017816 0.002157917624855075 
-0.001250036336984724 0.004155062272688945 -0.005877941556960168 -0.0002503513579067508 0.002121088233615191 0.0007751039707211603 
-0.01231699874918767 0.01306953288670042 -0.00489107538522621 0.002706351838896641 -0.002352406810926195 -0.0009966291002438535 
-0.006556761499884563 0.006321529770108157 -0.002504365653451612 0.006674008858410855 -0.003647235497668373 0.00727863303661511 
-0.00266435550373483 -0.001737246886375455 -0.002367553987219973 0.00333924267879439 -0.002479202085291407 0.004070650184378985 
-0.0009993202883960275 0.002529908259812364 -0.001331440143789012 -4.385431441859044e-05 -0.001638248645306796 0.00592796391471388 
0.001034585019131305 0.001552213122623337 -0.0001514558190538748 0.003937242281738665 0.001903614626367226 -0.00117463188587478 
-0.001894654057836713 -0.001118874140779228 -0.001345071441352947 0.001392110957696274 0.001485520360471722 0.007263174222217001 
-0.007498672895649729 0.0005920957472245657 -0.0001665740994751337 0.004240336952488349 -0.003716938810040292 0.01651970001270501 
-0.003995335160642483 0.001233926882002689 0.001038649968940308 0.004395912573918206 -0.0007591027945422466 0.005070882873320158 
-0.001429739830331896 0.002409488905041767 0.002208506005261821 0.002816978209243664 -7.26126248726715e-05 -0.0007745767842297573 
-0.009251982859609958 -0.00865925533873216 0.01241551898838764 -0.009615357087458512 -0.007498873978583096 -0.004658995029547188 
-0.006480235815848388 0.001578446580615471 0.01501554319196894 -0.003140470454318927 -0.003115398902002659 -0.004872787266054051 
-0.006158336443335567 0.00496646251339798 0.004375514377843204 -0.004322783909925521 -0.003071481673041989 -0.001753351582502562 
-0.00900503084879832 0.002916002230908035 0.003466023642126718 -0.003111779825223579 -0.001996540699207651 0.00476930122282591 
-0.00665226537659894 -0.001983858676006974 0.001036099678078236 0.00207237552005129 -0.001832486460320169 0.002143244162167483 
-0.01863884579567354 0.004324018356265144 -0.003386396436973025 0.001597250526385322 0.01239337371717059 -0.008640231036728769 
-0.007097119792676355 -0.0008149154996075715 -0.00289835546119292 0.004930455466808726 0.001284947264029004 0.001085930918890874 
-0.004636432937329121 0.004498910957678678 8.724739338602799e-06 0.003154463868992459 -0.004248377195387882 -0.002749046474184172 
-0.00723910843203137 0.004867523136281808 -0.0004786312813178055 -0.001026015172268478 0.0009338196575520227 -0.003977498382615354 
-0.002051327214781544 0.0003885928977012416 -0.006724124569520378 0.00903691742430267 -0.001940953144191033 0.009563297751159341 
0.0007807010665060378 -0.001157004749612424 -0.000138724488023715 0.005198882363354593 -0.0006915811995066154 0.001081691993023193 
-0.003468343047153028 -0.0007589516084307948 0.001227363583973307 0.006712623887020298 -0.001945325054916744 0.004065786919971966 
0.002264390138180603 -0.002632445460409816 -3.808077659184382e-05 -0.001026454600892995 0.0004865720960865953 0.001216981370416668 
-0.004011350212671893 -0.002721804978640148 0.0007649273484445861 0.005306080542388589 -0.002642783920712042 0.009543491127152262 
-0.003642192013770229 -0.0003341966226065966 0.00362940477589112 0.0005559867266603051 -0.003206911310640687 -0.002742389434948655 
-0.00938128449690416 -0.008706482378315712 0.01401539811939087 -0.008087442199256108 -0.01032206457815433 -0.006264753961219832 
-0.009271055300468402 0.00591595499776864 0.01075433579883094 -0.002461213942395827 -0.007093638369866925 -0.00284389847797336 
-0.006012208725278767 0.002446689353959702 0.005695702090760298 -0.006516629340438266 -0.003035984497113006 0.005362779241212653 
-0.005058906842289134 0.007973605880004047 -0.001338612309313623 -0.0008843722381151596 -0.002000162959885213 0.001817596746042055 
-0.005702061283539128 0.002298607240811964 -0.001088490779204207 0.006310199811741611 -0.003426097233207511 0.00989965464764238 
-4.584486122438529e-05 0.02277665520562857 -0.008166717792363045 0.005283945284498318 -0.002155018385875383 -0.006037092516130647 
0.001601037315485755 -0.02161356798630432 0.004711805117048777 -0.004848101420569822 -0.01307495065247212 0.006078500470140013 
0.004750362436308291 0.01123335521777931 -0.00719646773366605 0.005045109819943785 -0.001689447538109041 -0.001144662239912828 
-0.005318980000781872 -0.003841452574626136 -0.009687525109229321 0.0129045842241136 0.00100905010151636 0.0005805163832856129 
0.006198488083860919 0.003961915511452213 -0.004700991728942587 0.003658894070739932 -0.006375141811846804 -0.0002723257325944762 
0.002958048331477235 -0.003420400440166427 -0.001008846552964416 -0.00236542707687652 0.0020142434129459 -0.0001488526928754117 
-0.001348276557178543 -0.006336244522600476 -0.003097855038662873 0.004599858359982602 0.003952311800550828 0.001524319758300616 
-0.001183260777381 0.001976303822992932 -0.001462580982382712 0.003327936848591782 -0.0009713172788639217 0.006059254030648562 
0.001901448129539089 0.0007000088370755293 -0.0004490995312605008 -0.003013465615610474 0.002960874017389775 -0.0005547654670543894 
-0.009555755821837568 0.007820038791502355 -0.001095382561447203 0.002239500892787787 -0.002623200204518729 0.01290872892372291 
1.757604772414083e-05 -0.001321558961453711 -0.004645421157355106 0.003847838637104172 0.0007421366765612377 0.005741677430486503 
-0.003667675835854916 0.001916861110418973 -0.001701425962094073 0.003690556089927153 0.002957221705697041 -3.500957913906187e-05 
-0.002928875734961711 0.003740104587383856 -0.001020959378900609 -0.0009499185168440039 -1.551517085393289e-06 -0.0008711078179112935 
-0.007458169237780017 -0.002462774952449274 0.00879783230413419 -0.005102398082112317 -0.005672390753004634 -0.004478508864064572 
-0.007006665737982637 0.003408857150395937 0.001491933563989099 -0.00273485315144482 -0.005282832377218559 -0.003179587627970959 
-0.008387974913295716 0.003107602434764538 0.005997607082518879 -0.006075129894113579 -0.005127664273092399 -0.006459317416388363 
-0.006268308880776243 -0.0007288494922677335 -1.941130628664743e-05 -6.498643590809859e-05 -0.003456826704441869 0.0149545586123173 
-0.01170001041804757 0.002380183306693377 -0.005704704427717365 0.001881614888869886 0.01260747816544191 -0.008868856352659773 
-0.008076951910500993 0.006981083791886725 -0.0008660747164929753 0.001161558764150366 -0.004440925044123352 0.0029433204949486 
-0.006348994511449204 0.004735256599831317 -0.002877000746407106 0.002039053819517239 -0.002275942192723702 0.004113473641002146 
-0.004000662967450089 0.0009264506501627526 -0.001383428043637719 -0.001076635237635825 -0.00188558516892578 0.006676631535413284 
0.003861846743326937 -0.001928844360803906 -0.0005193654622498861 0.005455929529652855 -0.001185118286946011 -0.0003214202639329215 
0.001809475126400062 -0.003192130819825736 -0.001711797492226279 0.006753532146713143 -0.002167718258170228 0.004884947627854607 
-0.0024029601251537 -0.001739094986507902 -0.002192638789301155 0.00742821617255377 -0.0005231300868207292 0.005160635115361783 
-0.003411966509075015 0.0003576237903539866 -0.001001766674532787 -0.00036894206817896 -0.0002600416141795986 0.007052051843703729 
0.00305587035709522 0.002369197158561588 0.001748745929310261 0.001619315037692189 -0.003697442651809099 -0.00277613903806532 
-0.006305563058645085 -0.0001711118048264247 0.001464497286669762 0.002699951460103089 -0.005002230381689462 0.006014595288535172 
-0.007560318832045718 -0.001286324832771637 0.01498168935206584 -0.005898591332154974 -0.008559109528758492 -0.008906243623103318 
-0.007471024640944631 -0.0002872416283996325 -0.00358535952796836 0.0101301550033153 -0.004115616454791873 -0.0008177336514938814 
-0.004095329583060496 0.003077499396124189 -0.001296218284327372 0.001130829336810147 -0.001021767172802225 0.001301011205806688 
0.0004167164512149463 -0.0006196880190583434 -0.003476903100273941 0.008119903681609838 -0.002572671700667953 0.003406064875296917 
-0.007244660887837603 0.00905246978822738 -0.002624032790857739 0.003020867056491823 -0.001641030665734101 0.002707134073075683 
-9.155499611543634e-05 0.02429113926471846 -0.01277556228844033 0.01074018017189958 -0.00532896192692464 -0.0002725747396787483 
-0.006633102318243309 -0.02087696215937447 0.004852347265660896 -0.0002952707219530769 -0.01373849754053141 0.004776627816967646 
0.00302206995276451 -0.004171745785711653 -0.001787929382469293 0.007081129567889754 0.00568994530342521 -0.0009980316600681823 
0.004924755660346289 -0.007459421327028808 -0.003132656359836406 0.004413413080022899 0.004847443227614221 0.00121236341782482 
-0.004721621556743346 -0.01342748848645304 -0.001143536868327535 0.007886039794804574 -0.006165018592228613 0.01290962054922751 
0.0004334829086281396 -0.003592093757111607 -0.002811785109661427 0.003935779034559763 -0.002917376372160501 0.004259202681575831 
-0.005580845992725427 0.001053975668633633 -0.003386165734600311 0.003572408452918781 -0.001941501862322698 0.006966005039387007 
-0.002863828568645322 0.001503238358256864 -0.0008838556616549535 0.004379220515708081 0.002167871747382635 0.002135566684913893 
-0.003570154911334168 0.004658142848257507 -0.002720809245814681 0.0003505582237188545 -4.177014448111634e-05 0.0002639075643769987 
-0.006157820906396752 0.009088207047824494 -0.002868000787871972 0.005307417778358374 0.000268034222779733 0.002226310844836261 
-0.002903506773390482 0.0003048901331516252 -0.004171212268355644 0.006891978017146267 0.002962198604242878 0.002030637510873603 
-0.00646167308066135 0.009567420360761407 -0.004575404157707756 0.002849516332487554 -0.001306352278121366 -0.003675700136191068 
-0.004779404556997176 -0.003166275392075093 -9.276534967280481e-05 0.001968483277857729 -0.003458748596273147 0.001653261908092911 
-0.009720193233713002 0.002308420682743885 -0.001498161232557586 0.006220879048326189 -0.006835144423612817 -0.002645753673197785 
-0.005300622961156962 0.004049108265849088 0.001316016732329921 0.001367145197041679 -0.003239067924553387 0.004374013219186035 
-0.009322194045986266 0.005202494567241363 -0.002108846755847208 0.002931417680873352 -0.00346525478454153 0.006413353511159656 
0.001250046902111562 -0.004393510959050737 -0.002991301564245976 0.003269339800403432 0.002466719824671621 0.005134321648855984 
-0.01376399640541686 0.000599114075096309 -0.007110355173222843 0.001923535515238367 0.01107276035714555 0.002225867711566656 
0.00712296629249495 0.002709563927472898 -0.004164615844807904 1.767935474863195e-05 -0.002072737742756865 0.001480118365913346 
0.002103444654489523 0.001837025874040788 -8.562561248145849e-05 0.000950306493718678 -0.0009375575515202693 0.0004005615812864899 
0.0004691603572595261 0.001012025080792757 -0.0001494896291163104 0.001291354535827008 -0.000725742228416546 -0.0002956405356575328 
0.007169072546001245 0.001372591096905762 0.001102828597753649 -0.002173462160220358 -0.002823732341117079 -0.001196724815842833 
0.0001068230978190857 0.008165800395973886 -0.0008688226986529461 -0.003053534442177523 -0.0007669062615977867 -0.004029849743787171 
0.00580642720179179 -0.001534782188501621 -0.0005788126827307497 -0.002417587790240215 -0.002328892231296349 -0.003444875421157624 
-0.001385180765134869 0.001946891856010527 0.0001994153620184258 -0.001264941512525552 -0.000329032351745781 0.001036529577513522 
-0.005694081226342972 0.01322979216565933 0.006672265778474194 0.003106081668864575 -0.006742989252200059 -0.0008993492039814922 
-0.007233884625242684 6.87075234115693e-05 0.001763737853384749 0.005980374844148642 -0.002305868666354432 0.01059231107839106 
-0.004765786451060051 -0.0009349673140270318 -0.0007736978284509466 0.00399423069865974 -0.001530719269255581 0.002367080229214241 
-0.005127049340985649 0.005449766333093475 6.480337766834284e-05 0.008989892840465405 -0.003171915647379314 0.002280158744576555 
-0.00116059008552147 -0.001268139516907149 -0.002188095641656326 0.003020029328281095 -0.002165410282756505 0.007095717021096576 
-0.003011707127450041 0.006474101166149829 0.001655800445656427 -0.001239041311025272 -0.002024522186722222 0.001938931846920143 
-0.003339015542554717 0.01186870094778278 -0.001831907643818546 -0.002568302259360973 -0.004693427767530288 0.002890844708741511 
-0.003161760645710826 0.01459800939599488 -0.005185169390645674 -0.004595655928073932 -0.004988372531481817 0.007005032583664831 
0.006051136996554013 -0.01571504336083113 0.004947963944627121 -0.00470088116281568 -0.005150152309064715 -0.005070949005617832 
-0.00258455886941169 -0.02573722699592273 0.002420525375600245 0.002325511551997143 -0.002596753262734105 0.008175661081067527 
-0.002284985650729412 -0.01033042396809698 0.0004353545242714716 -0.001287523469528053 -0.0005417683855439685 0.01237860787566693 
-0.006827324914389371 0.0009671393218168142 -0.004721382732757242 0.009478537026282799 0.0009726371078168631 0.005366706486196958 
-0.002024855284334289 -0.004037459206139982 -0.001332953709104334 0.0006156617411702831 -0.003370422134759683 0.007412845171082563 
-0.001332713208145204 0.0002232646162848986 -0.0005713175465079349 0.001745643170283458 0.0001851628024583283 -0.0001215169597727757 
-0.005095844619599213 0.007085645563664911 -0.00650167896365056 0.005567778637397155 6.18733663248763e-05 0.003402661387379291 
0.001443842951101653 -0.002392798154248827 -0.001101446164296133 0.003216244072351781 0.0003127586784651977 0.001452931401941299 
0.001335202426127154 0.00230574392988863 -0.005193051503723506 0.007324473423896032 0.0001163677974716137 -0.001712876529179918 
-0.004465366489790727 0.008188630194920709 -0.005104842235599058 0.004182433904521273 -0.002124723262697731 0.0009842127667498608 
-0.003663786347044535 0.0006828687283302553 -0.0009785775401307706 0.002192649527618598 -0.001431092667252604 0.001428575181546438 
-0.01011415589567959 -0.0009730766677619807 0.005614621593628846 -0.00234552515529765 -0.007648309983681102 -0.004884134117142155 
-0.008144323412164327 0.007527177378595588 -0.001272525405005333 0.004377293803739226 -0.003497431794448331 0.003457713752179271 
-0.005547418969918264 0.0005297555297658665 -0.0009695529895556404 0.004312779147454016 -0.001962842674602473 0.004333841039437841 
0.001843658416261569 -0.00125468855785258 -0.003610606306917802 0.005783799148590146 -0.001527081078105305 -0.0005956883525219343 
0.002180033111121574 -0.002435473097006707 -0.003026094074072561 0.0008329901568837704 0.004667281333550302 -0.0009562314162186476 
-0.0053066809301766 -0.007738222310947244 -0.005114700321106291 -0.003646024939121478 0.02058243376253782 -0.0114051127531341 
0.01133737031348389 0.0002594279208324155 -0.001609078664771659 -0.002917249050586308 -0.002496191130618865 -0.005448893067506966 
0.005456030044741827 -9.572556489146884e-05 -0.002769596081622643 0.0005408651656086935 -0.003907826775648145 0.0004590575774448596 
0.002208914971658129 -0.005688933627991753 -0.002890007326513909 0.001222235125119898 0.003261136421397359 -0.003742909533652776 
-0.003957867684290228 -7.970891703210691e-05 -0.006182859607625461 -0.001473384682500207 0.006062253482637028 0.0004063217200756567 
-0.005543389502876408 -0.001928703439641426 -0.003914078954917424 -0.003424541395446001 0.01134968530488671 -0.008815560166565447 
-0.004475111863342761 0.004047584809779969 -0.002089192168860488 -0.0005632998300319298 0.0008311865004778425 0.00273757144405246 
0.0008031750814177803 -0.000252359610059862 0.002779199392686024 0.0008712608133924442 -0.001301263661775326 0.001378876311630535 
0.0004895931665118274 0.005906384493144294 -0.0006877746866700018 0.001063295787415248 -0.005684526231573095 0.001256626991375693 
-0.001006359751143839 -0.003686522116913052 0.005268407814021564 -0.00504804376729396 -0.005456376023546801 -0.0002719608434413655 
-0.005626278618158267 0.0008815907809611054 -0.000139515542793018 0.001033581162438588 -0.003390651101550681 0.01193235294319287 
-0.006669685400777137 -0.001052148142709207 0.005952347429351752 -0.0002170090092565655 -0.006637897462407847 0.00285807480969921 
-0.003264216825523767 -0.001562511124312139 -0.00225734467164241 -0.0007790633967467979 -0.001045818432054621 0.00394132070302478 
-0.01215382310556161 0.007614854433162186 -0.00246053606456676 -0.006419476442214741 -0.002636354140522802 0.006112162580664837 
-0.0006071727276884836 -0.00253126405921097 -0.001560483888609962 0.00469625551644099 0.00161603734293668 0.01106322582553294 
0.00689085271316933 -0.003921387818813486 -0.004960804762817027 -0.002100568228287184 -0.0004077754343293701 0.007488710643511596 
0.0130096142638386 -0.005483527292587356 0.008272300355639089 -0.0001143062653296987 -0.008890731490535909 -0.006360723188360663 
-0.007149848763783746 -0.002941638192588207 -0.0008053933669759949 0.003740216607794099 -0.01134252838218562 0.01014192843658828 
-0.006975189393275173 0.0002718734506855331 -0.002829382800085807 -0.004491895429165368 -0.00477349874548167 -0.002321141811882297 
-0.01844749195262441 0.007643178341349433 -0.001712233506526306 -0.001793994248532141 -0.01378082815597261 0.007221304593476628 
-0.007638363405605089 -0.002251473034291012 0.001439232247527241 -0.002029238056690928 -0.0008905253335292194 0.002245197684384032 
-0.006248291722864939 0.005882936112394948 0.0009770704615838246 -0.001191788481308606 0.001160376078076779 -0.006980690763303387 
-0.002624691031173612 0.008604683151404743 -0.002602140849472669 -0.002424327504995642 -0.006002499231058512 0.003656434112705681 
-0.001292767244054556 0.002349749797049674 -0.001215974407618966 0.0002725338173433687 -0.0001199469002924197 0.004183869362116717 
-0.004283902365345615 0.008223953049924616 -0.005878978883411003 0.004496482518369531 -0.006224884809008418 0.002992423606331675 
-0.004008050332575596 0.003899814478007505 0.005781394015770504 -0.0004220298216662583 -0.009241719047284495 -0.005349138171051102 
-0.003680488148131598 0.004756981579310585 0.002616667215849399 0.004247018384781906 -0.007178927973755083 -0.004966758632564922 
-0.002492009084695734 0.0004058577090453116 -9.985950418548571e-05 -0.001124050365281623 -0.002510630246457156 0.004100238176762206 
-0.00827378926280342 -0.003258943772367579 0.007396863819529303 0.0002252031555699971 -0.00763462561770198 -0.004173198305739812 
-0.008450616314995734 0.004447876997659944 -0.002607100327192113 -0.001529466383333239 0.004306643511353949 0.004100926817557767 
-0.00187230201271743 0.005794123753867 -0.001306535459650175 0.000418910668972897 -0.002809259907778798 0.002294939456246074 
-0.00312756283452127 -0.01014679015471773 -0.004107033589508773 -0.00253431632921183 0.02781484530833467 -0.0116266179654887 
0.02136885544300799 -0.01528696637518302 -0.005234096219842705 0.0003096754569973277 0.005236579980078629 -0.01893890065078548 
0.01137725797867087 -0.01260860304126458 -0.003117352592030758 -0.003573000814485273 0.002437144301838924 -0.005780872745198776 
-0.0009640269342282078 -0.005571139368572654 -0.003538768456594304 -0.001301897573415294 0.0102058180781409 -0.006514269770485416 
0.002484115089694029 -0.006401825074806675 -0.003800319675664836 -0.0006650702354341501 0.009180764164288955 -0.003448391187364014 
-0.005197283437781784 -0.001684698046791189 -0.005441037946050296 -0.00110188062466326 0.0156372701230193 -0.0004353880908221802 
-0.005150375284743272 0.001314429584659321 -0.00384220658960949 -0.0002501418991883221 0.004620823574345014 0.00619530416183375 
0.002213538699213213 0.01079052447109797 -0.003992502270801015 0.001336946106268803 -0.008153370985707202 -0.004447899243990821 
-0.001581171588122925 -0.001209288371413889 0.002316278374707384 -0.0002274841015833289 -0.00258543545280223 0.00728253964642555 
-0.0007806588286778529 0.009622860587494902 -0.001558667540911906 -0.001424340344332289 -0.001482977508463073 0.0003928776687805809 
0.006747924389466389 -0.001408585166498855 -0.003098037492555012 0.002702105642260824 -0.0025644700541216 -0.001879465174297416 
0.0002857730845799714 -0.003653845983693422 0.003378002429058251 -0.002584581034933589 -0.001667408635583319 -0.002845904686824244 
-0.006164416168404313 0.005048923523513379 -0.003473681419077098 0.008223902768679641 -0.002813462112412804 -0.005096222266694749 
-0.009388507402424785 0.00147056670917985 0.001816915448011714 -0.003233098799186487 -0.00822554371041101 0.005782667929206107 
-0.01313102395899981 0.005180988398144586 0.00777648021232521 -0.003640885244762854 -0.0063994362996509 -0.00486185381731232 
-0.006164057650170332 -0.0004797025077434817 -0.002940739873743026 0.01743094625407957 -0.01065557190240236 0.002269430813528945 
0.005877011577521365 -0.009901648205024555 0.004570078540774627 0.01086304157564472 -0.004107146461625302 -0.0008138998850442775 
0.0133684404321257 0.007739949754908555 -0.004993680837564353 -0.007751685774723421 -0.00166459038965073 -0.003454139048921427 
-0.004144161230270592 0.007472795191389549 -0.004902458884704568 -0.001874161495095852 0.004005980509346803 -0.0008153145430389084 
-0.005927997058057606 0.01767405326205808 -5.768852022589211e-05 -0.01231121319249491 -0.01693376517545721 -0.0002428049529138003 
-0.004350587650555987 0.007593698738936998 -0.001072663082884019 0.0006375280389501605 -0.005163152870840126 0.006664493803454834 
0.0002153977038858726 -0.006763107663669732 0.00420032731023591 -0.002833894463981611 -0.002413707424229468 0.006169779548971516 
-0.009419439735052243 0.003889407882225423 0.007293779053202445 -0.003325946175666561 -0.004461700918602924 0.002074438897875537 
0.004966073245625488 0.0005911042502023118 -0.0003332095059826854 -0.001964405286944969 -0.004525967748858983 0.00198794402507647 
-0.001358934202908081 -0.002956476613152803 -0.001775330921650185 -0.0003710734278473982 -0.005047521470649106 0.006992535592969653 
1.075356519916707e-05 0.01646673036551495 -0.003607214494360926 -0.00190633568933328 -0.004288506975418054 -0.003349326628947118 
-0.00612097938173376 0.01278161986074995 -0.004887616462851992 -0.001694328467012263 -0.005844654682844999 0.003186602417370888 
-0.007226422549705376 0.004644230932183253 6.638827104328217e-05 0.0003614711997227718 -0.004203388596193723 -0.0005674261562775487 
-0.006549860722008867 0.0005077308782492634 -0.001093624411664167 -3.023948315801297e-05 0.006058619633785959 -0.003906585867481638 
-0.005991185183422635 -0.0009597999377736112 -0.001967554547464148 0.001959275974648864 0.00380579988499519 -0.003514173442208195 
0.001718570831719416 -0.006846771153854369 -0.003503508058493359 0.002279199626950221 0.006565603892272002 -0.001864440785039529 
-0.0001698168450750847 0.005070251721539569 -0.005828118927739287 0.000180756600374535 0.00605304679487516 -0.00696833150403265 
0.005517014904835389 -0.01584083092547374 -0.006137541347132196 -0.001353486114408009 0.02061165441390485 -0.01204777112221418 
0.01143844246712889 -0.02261540996556801 -0.006705526876183905 -0.0003009207800747086 0.02302094332773442 -0.01969893434514202 
0.01535356955244916 -0.005612833621577909 -0.003950536840936559 -0.0005326399970493935 -0.003754538295935487 -0.00127203340867074 
0.008152439540560805 -0.003004565757059577 -0.001836886791344521 0.0008752088462920803 0.001092580118427015 -0.004388999734920215 
-0.001198619069759062 -7.871431628491027e-05 -0.001536091936348291 -0.0003179936272797962 -0.000489968505696087 0.00368813350144903 
-0.01230273475220795 -0.01239844049562606 -0.0051921427666211 -0.002309085649444796 0.01111963390833311 0.008902892920286308 
-0.00818345135125181 0.002617993545693638 -0.004238070128275266 0.0004372930011772223 0.00855031859652565 -0.004172253039771503 
-0.005903553281434551 0.001037527322995029 0.005121188135773361 -0.002982772670888661 -0.00512450917565381 -0.002498772093501939 
0.007260380521982484 -0.002755170613644756 -0.006100475062660094 0.006390966164166239 -0.003394183604616405 -0.001532071647489617 
0.001352507172615209 0.00754615171340151 -0.006449437426508977 0.002063462056690027 -0.001809934531980146 0.006804988183602721 
-0.006051100071812129 0.00121679960679586 0.00227118022853444 -0.005988136880608603 -0.003026911775517881 0.004447028914091977 
-0.005127525103580542 0.00894222010421619 -0.003280996582825898 -0.0005536584549304525 -0.002535903335261198 -0.005428958744117167 
-0.002440671838768362 0.001332436084674248 -0.001583123994545572 0.001825739008261276 -0.005265467290170808 0.004321298075205495 
-0.001926353405392447 -0.001127264507166514 -0.003378735046083699 -0.002990969731205679 -0.004382710170191715 -0.004964149096020461 
0.009999686291336646 -0.003841310065332262 -0.001628888463902719 -0.001305417991048824 -0.008252318900357431 0.000468629237334396 
0.003488636534188439 -0.01309687877353576 0.004146808672867141 -0.004826684067946473 0.0002067792564503932 -0.001360537689303417 
-0.004795078688633454 0.003256391694695332 0.004512650561925022 0.01053736963492115 -0.003791275550046308 -0.009013589176817374 
0.005138497022839327 0.00589112094249622 -0.001906658462335265 -0.003094201987702045 -0.00365227415449 0.001812906970592507 
-0.000908270402224312 0.008106129725732407 -0.003651860700035445 -0.0009345109155422126 -0.006254811557925078 0.003092467002851409 
-0.004763144246726069 -0.003715715760237159 -0.001562467022688895 0.001096473720693812 -0.0007121411892207971 0.004886119546799378 
0.0002990598724767578 0.00531075216927916 -0.007742003906702227 0.002606159713851757 -0.0094611720814472 0.009226011619000628 
-0.001731538991037085 -0.004059768442071327 -0.001151288822465654 0.0008607163412985906 -0.0008414303988077656 -0.003642726526456357 
-0.002446400210168234 0.01225992180813937 -0.007906851907240203 0.0004733561411961535 -0.008042137477165043 0.0005708953336847837 
-0.0001728271530409807 -0.002016308816814347 -0.003167435359228148 0.005957916578764651 -0.002960814074716906 0.005168326560677669 
0.005702882756730359 0.001281053251175062 -0.00219694503083177 0.0006948725123683675 -0.002168434591216694 -0.001977792923557382 
0.001169841593605729 0.005292171215803419 -0.003003209949929198 0.001288827701295575 0.0009890081757592019 -0.002803768705942497 
-0.004813654088436026 0.006437503180535567 -3.407496177097582e-06 -0.0006202284716896059 -0.001416875406973597 -0.01111329402861612 
-0.01092401505092909 0.0004598098404048082 -0.004217013043259927 0.004407775036750236 0.01036034996595458 -0.003027583257529777 
-0.009104866009437882 -0.007933427001165883 -0.005519634839847722 0.005286097181621054 0.01497813806091271 0.002770941430641966 
-0.01311800819813965 -0.005819172372015785 -0.004261408709934991 0.005829223530295774 0.01021126626841369 0.005494528585843658 
0.001152219253932888 0.0006278704299525908 -0.00244394355375139 0.001733370663338811 -0.006345816133847599 0.003484318841714228 
-0.006487211057806587 0.002220244929907083 -0.005825681175925561 0.003879987415844986 0.005947284796182669 -0.004302625702544739 
0.01481786740060325 -0.009131158122413502 -0.006417945850842236 2.181836317308488e-05 0.007145212335236684 -0.01094213076648217 
0.01546807006478 -0.01930806738712266 -0.007556707352684554 -0.001462505438983978 0.02016982373544254 -0.01184869666804487 
0.003336516509572227 -0.001915834478321481 -0.004530321880163229 0.001160021099390482 0.0007522784622086411 -0.001465426957042762 
-0.0006071472645594959 -0.0003602301218166133 -0.005438879346930981 0.004069042231787079 0.004217130597101368 -0.005530264251408309 
-0.01195893674145091 -0.004990797570843203 -0.003436909776128488 0.001302227599561783 0.00401492569247899 0.007015387488369969 
-0.01629278938523031 0.0007267042942203318 -0.009091880615139873 0.007883957729078111 0.01180773081428625 0.004507042727071532 
-0.008593833199197364 0.005578241154907788 -0.006977742785567263 0.002180614757101064 0.01150556634512701 -0.009791834475606524 
0.001107623229098294 0.003898378073935756 -0.007761921755927591 0.002954259158387654 -0.005855064133765109 -0.008633025476452633 
8.503057167873353e-05 0.002585784063914481 -0.004538358858838768 0.00419180664066652 -0.005316075402049348 -0.004241786359798071 
0.005668672981963182 0.003585966808936308 -0.004483045979596381 -0.006261218231547987 0.004284184231133656 -0.002640757931884166 
0.01004403815877721 0.004300108522597676 -0.007161016251080409 -0.002167156214990053 -0.005116313252846098 0.005601578878088238 
-0.00201362862263143 0.002229965940697205 -0.003828777141886219 -0.001176214033244421 -0.005818574001651845 0.01066423698711632 
0.006662053452504649 0.00607656878705355 -0.006202240665000007 9.455903118069715e-06 -0.0007150002061027457 -0.003737745017103331 
-0.002157316325836885 -0.003935735980059071 -0.00483204724504415 -0.002100939161836927 -0.01081210952327898 0.01618283181774393 
-0.003534526533780342 -0.0008604849360658462 -0.003070233672696133 0.003962595407510118 -0.002566795407993571 0.00884380855874322 
0.005776285426642935 0.003364149934535277 -0.005258050183050311 0.00294508757184959 -0.006576340242886551 0.003977232478282561 
-0.008370395916543604 -0.006931486705878342 0.009161192162247939 0.01583913632218726 -0.01214896878937263 -0.01401753676295415 
-0.009198751021319214 -0.0008832212900924764 -0.004954904330058778 0.009215753464375949 -0.004174449173034488 0.01481331895666681 
0.001770761691865842 0.005538701224265277 -0.001845834991401626 0.001711433761344987 -0.00264949372946399 0.001068242119008336 
0.001269718607012956 0.003260425197937477 -0.001335876950165486 0.002494342059227497 -0.001857973053833483 0.003925943713187417 
0.005336399999820975 0.001753553280027591 -0.003121125895107761 0.003802864235742073 -0.004143585937074728 -0.002272233419094994 
-3.684979017053875e-05 0.0003253751668581143 -0.0002897549953354375 0.001618154048387562 0.0006801617376328 0.0007948543575405397 
-0.006185275970732388 -0.004496892916429388 0.0005035831272825195 0.005186779905440603 -0.002059045735596205 0.005240012053553898 
0.002639884005557845 0.006424106269765621 -0.002675053392815997 -0.001761304132761571 0.002744131992473312 -0.004964755068966689 
0.00775165422777481 -0.001167101736916924 -0.001607347503605628 -0.0006917530195128574 -0.001490976610542654 0.002817430099311302 
1.78144654364314e-05 -0.0040119127344573 0.0006823360870613387 1.27333162740533e-05 -0.002009285285389374 -0.003997119614443269 
4.928020113967275e-05 0.0006791971971067733 -0.001661744351059211 -0.003795376559543543 0.002789677774327708 -0.003038915326712435 
-0.002840895977523358 -0.01121145450455917 -0.004094899825753083 0.000139978405561286 0.0108464163260972 0.0003904816330033127 
0.001649438608483073 -0.004078898742250169 -0.002215199639216618 -0.0006870452496280393 0.0006015948189669485 -0.0002815324905880505 
-0.009044493652687103 0.004412916406538513 -0.006716961595865119 -0.001619435362620512 0.005266496695650675 0.001758719857251877 
-0.001846393376458742 0.004254168791828862 -0.005194747306434985 -0.0004465217316803318 -0.008996935351750878 0.0124683250807637 
-0.003921039532508375 0.00511876071696683 -0.005123537266799492 0.0003333223562342372 -0.0005745451940478083 0.004839745370598121 
0.004331524083373316 -0.00523668170984662 -0.003458032491128828 -0.0007792317238819206 0.004380576714717998 -0.004573372615905578 
0.01123064982150803 -0.01840029804293937 -0.01014249018616734 0.005749201200482791 0.02092670595461763 -0.01767002986904405 
-0.003549748498173593 0.005639365597886553 -0.008178387159065128 0.004711775842713716 0.008088144723042132 -0.009193754883648831 
-0.01432060978906667 -0.0005536220251263267 -0.007019451671156155 0.00521360361772986 0.01463803689434629 0.003208882052537217 
-0.008604971579375606 -0.002102593025495911 -0.00315801500638864 0.002456308169704323 0.006862900902971082 0.004195765584383673 
-0.006052021341920648 0.003370280659941603 -0.005503084197024616 0.004184115445728728 0.01099255864759691 -0.01059931590876151 
-0.008368601208774461 0.0061409306108475 -0.003345715609936019 -7.020469333137767e-05 0.007750192290075448 -0.005844336083290035 
-0.003336869095405512 0.003733661732700154 -0.002695370679516112 0.009397653410556938 0.0001503673723804791 -0.001891917193020954 
0.002256712005246946 0.000209028134315382 -0.002089262670660571 -0.004719345909884536 -0.0001064777135975452 -0.003260903920852507 
-0.003728957700503154 -0.001440786177697371 -0.00234003984966821 0.003269673987238989 0.001793849331851152 0.00730618949334196 
-0.003355250896422878 -0.008525138647952955 0.005140744890497788 0.002975301864173501 -0.002843991417247056 -0.003917836024143839 
0.00551336287468254 -0.002508246329990239 -0.004951871038347679 0.001780810443267098 -0.00367069289016608 0.006840849032852735 
0.001730296082333722 -0.00478770028599601 -0.006545857759467982 0.01139039169575309 0.001754138620965994 -3.507972524148233e-05 
-0.001302867039512286 -0.0004383048143859183 -0.005897361905641854 -0.002090774600483708 -0.004732973657229638 0.005814617041697682 
-0.003665362726027454 0.003281586588902402 -0.01487268766190571 0.006909459617071715 -0.003582379411899087 0.02007016315577748 
0.005669515714161792 0.01606732716679629 -0.01292927135330747 0.00427648964406001 -0.00680414567952287 -0.007882174417920306 
-0.02138953691800922 0.01164054527454307 0.008704842053803303 0.00571802038281846 -0.01506706896888097 -0.007228473250591593 
0.005724081753176234 0.00416926117803579 -0.002036352950108248 0.001724883862208234 0.001537455992930899 -0.008499320148818436 
0.001620218523320844 -0.002712303846579473 0.0007058514553486901 0.007472663995215468 -0.001617245249389057 -0.0009329275186523557 
-0.001350674450397961 0.001471052429044752 -0.0008698584282329627 0.001246514125178496 -0.001976540496490274 0.003865507999612659 
-0.005410503438456495 0.001473632949673162 0.002113579330700151 -0.007159283985371006 -0.006656904913752184 0.00353232348238244 
-0.001398446608053623 -0.006389848995248518 0.003751543622217095 0.002596218951410132 -0.004198637394259924 -0.0002478950762510658 
-0.001232241744643975 -0.008872208365907359 0.007671808494826519 0.004147287819143662 -0.006883780156266304 -0.002487507417351204 
0.004056066072955766 -0.0005833277121641974 -0.001706703217402556 0.0003267794291246149 0.001301828861370237 3.122050161043165e-05 
0.003312490942401323 -0.006994893216876815 -0.001164878100418002 0.001969183894539541 0.0007150111568633786 0.002858346658244524 
-0.003944311486315568 0.00674450513598197 0.001083858552206833 0.002881149853541921 -0.001973526811191778 0.00429145446084199 
-0.002242142913893034 0.00318304063402009 -0.0008091309534947656 0.005632164014089432 -0.001270325582700014 0.0004443009141674503 
-0.001471168860563746 0.000116597153031018 -0.001463777432884308 0.002687478445768034 0.002724515147092362 -0.001172280005221522 
-0.005758269375903382 0.001003200844290853 -0.003761753374240969 0.001757131629377388 0.008159305006160886 -0.002443114922227012 
-0.01422253441978595 0.0006427338222696381 -0.006842388900786271 0.01190422926544828 0.0129385194875222 0.002477422465838944 
-0.007705335959373202 -0.001615556087024417 -0.003930668266457518 0.002307138162363544 0.001795893398070178 0.01027323441027396 
-0.0001562206172567477 -0.001358873009821307 -0.005780705320014787 0.005114547330383254 0.01056364809374761 -0.009286765060106165 
0.01203594641988804 -0.01495539449256734 -0.007328312846040499 0.0005218252940267785 0.01861569338769901 -0.01817353905680685 
0.009462053730679281 -0.00958670128824001 -0.007300974257310419 0.000256554287950994 0.01743283613308029 -0.01354965033637301 
-0.00612579195658166 0.001898688954273369 -0.00423369533999403 -0.002426602897738633 0.004638167246054579 -0.0002166502015275997 
-0.009783639019753907 0.0001502308801256323 -0.0009946009618844603 0.001583742895347236 -0.0006664472851783774 0.004787813791441874 
-0.003206526403651276 0.0003756274757754203 -0.001912228339997678 0.002685413279955281 0.003327671456566713 -0.0005036205215304906 
-0.003652005630130006 -0.003927942702309577 -0.0007928685662801852 0.005057919943177002 0.008296281249280292 -0.006472373116925707 
-0.0003859089388988026 0.0008459359725789471 -0.0009228989904182891 0.00186375651398919 0.003970366397829706 -0.002290944802047174 
-0.001343222385973997 -0.003401904973785716 -0.004363355025829865 0.00588888275080739 0.007454348395610752 -0.003640786613597335 
-0.0003051221231879385 0.003413854023944188 -0.0004000797428532189 0.001397689097454415 -0.00074512166362013 0.001914182763294629 
-0.00427617132261645 0.0003037511803777817 -0.001598252164529125 0.006927453968695003 0.002358351110368965 0.00304724708215558 
-0.00130895364052416 0.005663238879627429 0.0004101969564818237 -0.002626706972383693 -0.002255238790977282 0.002380722508184503 
-5.800594637715581e-05 -0.003372918752102139 0.003289064789243164 0.003018200367818684 9.748272700145746e-05 -0.002928676177591261 
0.0006236708718931575 0.002579589408645499 -0.0047739818144459 0.006247977196817515 -0.005073003798557864 0.01136715548287253 
-0.007728242076427061 -0.00594773097887557 0.005066136277239594 0.003096446937704444 -5.39149662594713e-05 -0.0007470477097866085 
0.006440740504228913 -0.006642341166287804 -0.001514643332344062 0.003624322282179935 -0.008167397466520199 0.0118729645632154 
-0.01245477996089286 0.008199742064888924 -0.005796099466223665 0.004319588706609478 0.000623479351214311 0.01262499044445978 
0.003202948573931347 0.01777139470729267 0.005167837833846924 -0.005568731958066833 -0.01026471355574275 -0.01784903392332904 
0.005529751963888841 -0.00198278976346894 -0.003705169638625719 0.006804158542322093 0.00385373186463278 0.002108539332714869 
-9.8335398343685e-05 -0.003359300578291698 0.001443793169585054 -0.002662296620444489 -0.003329703059230218 0.009222891779147887 
0.0004217156206856977 0.002453684488476988 0.002663430071592837 -0.007050148469531268 -0.002008383611560052 -0.001295526962243035 
-0.004105077089965484 -0.00503414675080559 0.007404849469654563 -0.005962721103347484 -0.003429508105629147 -0.004158023770823875 
0.0008791208693217585 -0.003924410974598612 0.003069310223164863 -0.003541999587771178 -0.00207928329735952 -0.0005264508281188475 
-0.008678040061743216 -0.005792095705954713 0.01139048757037271 -0.0003483489720152721 -0.006848625623837399 -0.00364405345137825 
-0.00281029353499349 -0.006871014350758678 0.003972885162173341 -0.001309063680179223 -0.002199122047028454 0.005683184443539459 
0.01133466621938177 -0.007022797361375258 -0.001514621729630581 -0.0005057234690254849 -0.0007679288210527657 0.002099901181137606 
-0.007239883083231094 -0.0007686386348901155 -0.0006397266312467451 0.002113229496657459 0.006313100307582933 0.002258933994034243 
-0.003182212396174666 0.001090039604870284 -0.003725827647485411 0.006301623864409133 0.002439565446670233 0.0073533477851067 
-0.002268869056262807 0.004476327926171171 -0.00501992290665045 0.003947129130178137 0.004000867100599687 -0.004185330658023216 
-0.00433419059285796 -0.004103224126436364 -0.005692275725364444 0.002362804104377153 0.01916984040124465 -0.01034934967688115 
-0.01186763266436736 -0.003165590025037432 -0.003079089849758659 0.0005959427624089841 0.007722691183433739 0.006252261594078554 
0.002873719726485741 0.00283638437521237 -0.001973620705402184 -0.003829611726455464 0.004556155255329018 -0.004207194727717785 
0.004485744426788851 -0.006827720859972396 -0.002646831239688892 -0.002476266469662313 0.006821399135358012 -0.008787446570313181 
0.02460226248966792 -0.006051337300613605 -0.003740493496685364 -0.0045009628264206 -0.00323245716638553 -0.002109572129074715 
-0.01465500014686771 -0.001862426379479634 -0.008308960074205838 -0.0001002130402248513 0.01981087354858756 -0.009331715014871247 
-0.004006591192508177 0.005582826143544693 -0.002566799460743863 -0.00331339683661495 -0.001627954408397983 0.0005384535985646771 
-0.005163738665278597 0.002193911552541896 -0.0007273459984769208 -0.001434670070751573 -0.005639316067161523 0.00851313760011408 
0.0002796666900878595 -0.001838968107825747 0.002701570820285234 -0.001682109578090647 -0.003170897676800796 -0.001565076985422986 
-0.007773057912771297 -0.001784767293446885 0.005344850867453635 0.001440571700280368 -0.002928486500765103 0.001127678258931368 
-0.005745838857470157 -0.002860418198089973 0.001533722891410869 -0.0003023969824941533 0.0007842749029378415 -0.0006944999943665686 
0.002889696329481864 0.001473156687697536 -0.0005169409508214878 0.001181047590563335 -0.0004391365530487159 -0.003618237583641917 
-0.0003040980123205281 -0.001538231575263171 -0.000272551722252133 0.002834785432965983 0.0005710822338703111 0.0003781789218359849 
0.003237050584533917 -0.002469043886404002 -0.00201831926985583 0.009052994042934925 0.004131271095675173 0.006145427336714674 
0.002428168189393606 0.0005580071153096866 -0.001322148819500892 0.0008964942298339782 -0.00140032399957635 0.008272138063571577 
0.003353830023821932 -0.00442637633259728 -0.001685760215501036 0.001136780233447706 -4.541543078299351e-05 0.00859090735453961 
-0.0004239818291166074 -0.003933876739375124 -0.001392973120965502 0.01016794744324384 -0.0009437370518753282 0.007090536407476315 
-0.004777304502528946 0.003095283816736758 -0.001475985581652281 -0.003629745934719068 -0.004442309895035248 0.01379392540910611 
-0.002919312502691603 -0.0003481356036807667 0.00234291775669456 -0.0005244864777591534 0.001009295931051591 -0.0001808098541665076 
0.004238210219120393 -0.01369420151973312 -0.0001009037264860749 0.002964706961905716 0.002313649313771067 0.01032088304075122 
-0.00128819814597167 0.01862057221438503 0.007601872272886892 -0.01093723161941754 -0.006334409839369925 -0.02742764459370981 
0.001086217025449907 -0.0007804299242773876 0.003345490834857409 -0.004954072666104829 0.003211669718299419 0.006171766140495664 
-0.00410210824518087 0.0003517228162413381 0.005477423433977932 -0.004063769150523255 -0.003776137265009014 0.001056115585532584 
-0.001809660559570944 0.005173356587430139 0.001925176927452706 -0.004611347312511434 -0.003900637647947262 -0.003725124751551367 
-0.009170595319908631 0.001913530334316009 0.006309921286893559 -0.002982923527954238 -0.00139083966794463 -0.009044596901875864 
-0.0003501104760446448 0.0006226767917456367 0.001918397546775511 9.788759840009226e-05 -0.001433293954068707 9.993835073660602e-05 
-0.009125298455122598 -0.007888700404376073 0.01475368011998194 -0.005125763030905464 -0.01039950505598627 -0.005005136365431169 
-0.004986260473601555 -0.005680760394579291 0.002777380650133066 0.001918551277010961 -0.003154066195951146 0.007807390148449213 
0.002797626093589791 -0.002743244133094344 -0.0004607035921455539 -0.001726567420571125 -0.0003513650140201945 0.002795130011550091 
-0.004834970587328092 0.002248724255719961 -0.0003561379312480958 0.003768002820608832 0.003067534902485407 0.002141447861947503 
-0.004938486716526567 -0.0001722737403181618 -0.002520341381502306 0.002370232888257281 0.004578665800618296 0.004689607172653972 
-0.004973515066970843 0.0001353692157942876 -0.001868866719252256 0.001338132284744775 0.002312758013842349 0.001476149986728579 
-0.01115655207690227 -0.0009942190228832898 -0.003099706833688586 -0.005224454768409333 0.01058997453081877 -0.005637214714426519 
-0.005636768186485588 0.002562483840294167 -0.0009401320354745312 -0.005062721388720833 -0.002886440386829332 0.005239874958557742 
0.005465598218141839 -0.002156005106709396 -0.00142602677597182 -0.0003191691159104837 -0.0007650571960756959 -0.004685691005336275 
0.01355257344254151 -0.004510663748117454 -0.002768996094750548 0.0002887321430430928 0.001045606755034053 -0.004073715552861431 
0.01635317850655519 -0.001682544101912177 -1.31524521989001e-05 -0.0006191547610393264 -0.004654243064920303 -0.006972486394124347 
-0.003174422718454817 -0.006535377987464813 -0.002853686989310307 0.00570213670863852 0.009213452676011095 -0.004581059264880638 
-9.905612928435451e-05 0.002557877619747888 -0.0005907618123031548 -0.0007748237326902525 -0.0009948436292187151 0.005496158812815638 
-0.006755185371665104 0.0001059201408600032 -8.168179230481433e-05 0.002086904230877561 -0.002961965623675172 0.003790767147352195 
-0.00558208094064231 0.004091045420211871 -0.0006633906698453658 -0.0001116408337740314 -0.001179947720258947 0.004179215095777206 
-0.002205150158197829 0.00256732088800356 0.002036942783720687 0.001980526984037123 0.001942684693676054 -0.003715673050320435 
-0.0005633413869778894 -0.000708826856969731 -0.000695373484802297 0.004204514305421664 0.0001162132328443639 0.001542704109973219 
-0.002675414674283289 0.0009018533535230612 0.000940521985173429 0.001741414071120225 0.001118912244919088 0.0008987646081207415 
0.003181794843923172 -0.006138377594783227 -0.0003940726511553343 0.002095279348946428 0.00254473968748391 -0.002425363528765285 
-0.002034395887770485 -0.002026711594957552 0.002794255764887806 0.001888330964120194 0.00774694427775392 -0.00458944233953166 
0.0001305016997103944 0.001130941362286714 0.0005085087917586677 0.002989903247218006 5.690614902339257e-05 -9.460844905485793e-05 
-6.530177235486728e-05 -0.002530263914747711 0.0005574347476859049 -3.507079959259307e-05 0.001707549286923898 -0.0005904851493973157 
-0.003661924741752816 0.00504466593290965 0.000387457012440678 0.002986608434325866 -0.004910392509869705 0.003220560125023083 
-0.002885450541096208 0.0001121710809027824 0.002793812644898603 -0.005382127845865727 -0.004068281017322251 0.0005807712968066518 
-0.004760500225333796 0.003402396264634207 0.002114338521796186 -0.004608312227973818 -0.006003620338893266 0.006148390049074514 
0.005847171119832761 -0.003144224214511572 0.006134858938167931 0.001250579819165396 -4.091417986100031e-05 0.0005027178393374216 
0.00172479743778202 0.01329790146654837 0.003904448046757372 -0.01328128107577051 0.00275082946662172 -0.02654090148578521 
0.005049141096841509 0.001755053693096703 0.007594328818365824 -0.004151582365091167 -0.00408164777369413 -0.0002025536248826764 
-0.002086589319031064 0.002587659384858441 0.0003366921821076474 -0.0004294531832289011 -0.0008500949878904006 0.006358893321798948 
-0.01590043613096931 -0.009366460139346189 0.01424887762276928 -0.01628294815770418 -0.009850772632061643 0.003022575438848934 
-0.01287183263639865 -0.004117588368767742 0.01201404104694547 0.0001748457721549054 -0.009276153096309967 -0.005752093375210849 
-0.008439559887023652 -0.005260633789172104 0.01148463549330449 -0.008522339381231711 -0.0079299572147932 -0.007036939419394145 
-0.01320759011404739 -0.008911952174256223 0.01079392643699574 -0.006795528047334754 -0.01150937433831182 0.01306105261208302 
-0.005223719283517538 -0.003161637147831436 0.00320029497950294 0.001307955396307633 -0.00485400081127473 0.0127788718150434 
-0.001417567969286807 -0.002425648310555272 -0.0011977097955405 -0.001116250631216285 -0.00032573620147297 0.01465812457130148 
-0.006693221275481481 -0.00460562738397529 0.003897310677760456 0.005870133593306106 -0.003088088422443596 0.002507359967987546 
0.0009581057316735115 -0.0002047159406504766 -0.0002856207967655075 0.002102485335289883 -0.000390082211195124 0.0008382546837040326 
-0.001707529903392323 0.002815868943652346 -0.00217289374041353 -0.001931634164715199 -0.002217168335254494 -0.001334664000537351 
-0.00516692197181615 0.002661534074762733 -0.0008262405911768627 -0.0005228516622134471 -0.001413620657043705 0.002044895111136901 
0.01035456627205669 -0.009744888704342239 -0.001916598257537505 0.000334458718704284 -0.0002231212176932539 0.0001735375029258191 
0.006146683939250603 -0.0008810513749918054 2.821615627157212e-05 -0.001240787377353644 -0.003271803380628689 -0.003662670014177281 
0.00581220413194267 0.003926363943353919 -0.000758580107910433 0.001511949851535428 -0.001733935374471339 -0.003556180868862112 
0.005905396305417737 -0.004240711610100817 -0.0019953690124985 0.0003211196232436009 0.001261004866830229 0.0006136133715542905 
-0.005532858803996395 -0.002961825897462056 -0.00107638039354074 0.003692660415201562 0.00912336360444678 -0.002207584180160841 
-0.002775147518037346 0.0005384869484515507 0.00107967336840638 0.00194366313324454 -0.00161903782363667 0.001874198461867394 
-0.007265370668070307 0.005533355228394884 -0.001391929861827725 0.001232505557342786 -0.002025778520772307 0.004607324792845867 
-0.0109751992317444 0.005479799577350129 -0.000962612090842307 -0.00106108766652832 -0.003412943771360937 0.007948911713881126 
-0.006114611893155189 0.002631547562455055 0.0001459593042613413 0.003997788403754094 -0.002256274134420787 -0.002603523660567778 
-0.0009444481304178021 -0.001540251698688127 -0.0008796830538785543 0.007146654415517416 0.0006024355037314227 7.854622649677398e-05 
-0.00358894968876828 -0.001649764350219786 0.0008195850955891111 0.004749871780770432 0.0009594559232468084 0.0009645982744030571 
-0.003243586238076414 -0.002885383355773991 -0.0006480361365701278 0.002651284536951149 0.00447514328777847 0.001701053763926669 
-0.01022971343929471 -0.008259907615707123 0.003249024206216271 -0.008386709106508509 5.738914157548945e-05 -0.006401355283632654 
-0.003729587973140153 -0.006064360364157459 0.006568750600739573 -0.002883659878841447 -0.0037190437233001 -0.003874308284678073 
-0.005896310576155387 -0.0009228999227908961 0.005358674138333509 -0.007373279952950011 -0.001218036800335846 -0.007011122111567445 
-0.004508996916708756 -0.003396686749835555 0.006121532686710983 -0.001502470534074827 -0.003190314570073302 -0.006327574418607358 
-0.00296910070921083 -0.002899163448296839 0.005126968171086719 -0.005113703921094346 -0.00408704263255373 -3.405886167366405e-05 
-0.001681602762937138 -0.0001213370341442143 0.001486166485471309 -0.003178291764986282 -0.002412431995179156 0.005278830848873109 
-0.005150811433292073 -0.003003308599793201 0.005312982153684102 -0.009122643866572421 -0.003854694081968272 0.001874142059713423 
-0.01508268356252004 -0.0007265533881834683 0.006330592929127568 -0.01215840409318512 -0.001292288082317208 -0.004250139672190536 
-0.01047379490143494 0.002739760830735158 0.01142963132564652 -0.01982274062629533 -0.008072622790725679 0.001775319381019736 
-0.005060246982846868 0.0004139863166343429 0.007327056502620922 -0.005847488998726005 -0.00577011620805584 -0.007267651520901005 
-0.01452256016477984 -0.008858467017989483 0.01833732012545205 -0.01758132450850809 -0.01057317650280065 -0.01217750118524289 
-0.008444789185557054 -0.001816414405587116 0.008187397063428433 -0.001299046965767398 -0.005998791078765466 -0.008896511150582142 
-0.005551070701036386 -0.000727288432145256 0.006277850360090564 -0.007150031330441896 -0.004269760977457985 -0.003956419849973217 
2.337878724946919e-05 -0.0001911020724995329 0.0009356647410235731 -0.0002962218348801525 -0.001105624676497472 -0.001056099047034542 
0.002009915238062027 -0.002784738405801051 0.0007693016636715643 0.0003944528597132816 -0.001034959210457821 0.001648928348974128 
-0.0006830831479604039 -0.0006711561109982183 -0.0005416194865250309 -0.0002328492852879698 0.0002170812123376975 0.001969300886956936 
-0.007289299951915938 -0.003169031132898958 -0.003084393544989595 0.004503741325487103 0.009784827016062305 -0.004309424635470661 
-0.001661947133754049 0.00227936477276016 -0.000989141959562562 0.000524676955816501 -0.00133942973804866 0.0008583454321692383 
0.0005729487273589038 -0.003682554089530023 0.0005484539619728772 0.002810527846662065 -0.002443833182553463 0.0008625719240527141 
0.002297692072576984 -0.003702295020296116 0.0014986971935678 -0.00309726876189962 -0.002358255818626954 -0.001941580267396009 
0.0009002302818615656 -0.005830318308476515 -0.0001000678961105322 0.002396510936823827 -0.003508847321547347 -0.002070335787071966 
-0.001444889246972468 -0.002773322800532785 0.001740499865716414 -0.0007831066873201221 -0.002473053036941817 3.536281633832961e-05 
0.001224889887299566 -0.002846916283724335 0.001385183067104269 -0.001088595006876993 -0.002570049965498084 0.002051224905004647 
-0.005696722147401525 -0.002286640170807929 -0.002171511085373476 -0.002155396752505943 0.005283937448392284 0.005206518454877496 
-0.007198171848404731 -0.004804552700846279 0.001568532471371341 0.001294410025355384 5.423997130180459e-05 0.003050446209674817 
-0.004281371049055334 -0.00108907557739923 0.001577140013277396 0.0005434417367694196 -0.004719004315037592 0.005496568516547318 
-0.00529646940401539 -0.001886045181240707 0.002334773780587026 -0.001817600141634127 -0.003377302242122982 0.000942674263264011 
-0.01191188235923415 -0.007506080340281368 0.01166005693104737 -0.01287389199508278 -0.009465335562647436 -0.006109444234024507 
-0.007160867935061618 -0.005193534442736244 0.003258074787808183 0.004077960940161893 -0.001063681804087379 -0.002341946080892451 
-0.00386551212150588 -0.003172191072345684 0.001107143644494742 -0.001029148652463113 -0.0005631766357669031 0.002602782562004495 
-0.004608549243569082 -0.003198177491792954 0.002426116267120132 0.0007589545362095662 -0.001428016454764128 0.004090692746773917 
-0.005740479581275953 -0.005306120557960302 0.008845715459057043 -0.005409340779730903 -0.00677682222951567 -0.002164128805229904 
0.001263358440352767 -0.01096189951127362 0.003948267339574678 -0.00353521295570279 0.003291878210843987 -0.002896258771368543 
0.000669228156242001 -0.003554019481320857 0.0006054674848700761 0.002800182530413093 -0.001891558974668095 0.004839950367565136 
0.00113108476643016 0.001334612540817999 -0.0002207612526074256 0.001328888448419479 -0.001285796641377486 0.006188787298850713 
-0.004799482796385082 -0.006087045578615597 0.006623475254741877 -0.001714781459962812 -0.004266216888295664 0.001288085731052116 
-0.006134092442280482 -0.002241599486342547 0.008048295006287075 -0.006318763718302264 -0.002791680209441714 -0.003475758888184088 
-0.004296226790515045 -0.001733004282561406 0.007584337915470664 -0.003254429845457612 -0.004363215207323351 -0.003085200413398536 
0.0005263973268416239 0.005583325584355273 0.004296311648625331 -0.002795235785458873 -0.002445584038210874 -0.003219515536303825 
-0.002807553027829768 0.007142337316274962 0.001238581890141468 -0.005016324698201675 -0.006016528049085879 -0.0002616131393167675 
-0.006459796064209458 -2.851435474012286e-05 0.01016716787157617 -7.5899313905446e-05 -0.005303804259343086 -0.00357017325450122 
-0.001860191171892891 0.006271618354847232 -0.0004981047566030446 0.001047703384726179 -0.005204480260534566 -0.007660158354088632 
-0.00124515381092278 0.0004129291872122915 -0.0006950956726307935 0.002311794751403917 -0.002119826397379962 0.001247516195361217 
-0.005051690276376683 0.00286650971786686 0.001074484210508659 0.002630166808103553 -0.003055758189159288 -0.002007512786329407 
-0.006062885643568348 -0.000381240158461127 0.004798509320300333 -0.009141179157533508 -0.004252601427681358 -0.002497687947683551 
-0.008170788805155165 0.008691507545331153 0.002411450040579284 -0.008373264576302723 -0.003044214980348171 -0.001269907149957672 
-0.007300688247310495 0.007125696426866382 -0.001936218177610702 0.004702261919723239 -0.001714143682332616 0.005306424986293326 
-0.009405259695641157 -0.01864132723670377 0.00322841182005389 -0.00972127876356021 0.006494670851858589 0.0009274493629755665 
-0.008181894056505431 0.002833982111186861 0.006399090469136689 0.003952834261516527 -0.005278243707850017 -0.001663430479671721 
-0.003664491452466373 0.003429899997248463 0.005016740154338035 -0.0006211241332865603 -0.001899791971655367 -0.002019792450455919 
-0.005715772445932341 0.003249978411872076 0.004460008496537785 -0.002396646207138507 -0.002743953976873827 0.002046099432393274 
-0.003961852941518683 0.0009685478197771849 0.003542349734560738 -0.002034522636332252 -0.0005665715541401171 0.0001105063981201524 
-0.01187349459990148 -0.005592697009941268 0.01497418268381361 -0.005681425521822975 -0.01174857604277685 -0.009544491857254318 
-0.004591168696972808 -0.001384783856808671 0.003220022252230151 -0.0004540661707223216 -0.001439106561420987 -0.002706352927665645 
-0.002137064459289597 0.002328067888765259 4.44454660636994e-05 0.004598720029358625 0.002015110734538196 -0.001423302375237134 
-0.005122751230094531 -0.00129763877919781 0.001884156790719015 -0.003575651762294704 -0.000499796836987115 0.001735141682013015 
-0.01123346229161953 0.006281829993507978 0.008331600099514775 -0.004140993120321732 -0.004065972019966156 -0.004473383398278298 
-0.001784086030083243 -0.0008818074861717935 0.0001419444964408528 0.00359647093317396 -0.000117263151896667 0.003941766222266677 
-0.002571730925802612 -0.001390577593264305 0.002078398736711714 0.001242652814511904 0.001642080889990541 -9.361755940341563e-05 
-0.004985420307180273 -0.0003074939308937318 0.001031968092852938 -0.001185899721523343 -0.0009820909189616521 0.002431855244382186 
-0.005970558216815418 0.002033327345301526 -0.0003543902241395209 0.003732183004835098 -0.001876894463623071 0.002257660459617231 
-0.007381380298426633 -0.003155703230880481 0.007691349680776298 -0.006509197841754574 -0.0003746878486149255 -0.006454569160204563 
-0.004860219127809376 -0.001890263300685878 0.00384203347881121 -0.00326559804271202 -0.002841643665347493 0.003562194069105628 
-0.001759142939301304 -5.368377960929602e-06 0.004805855653504809 -0.00662053731223792 -0.005837139153718916 -0.00606995456904731 
-0.007192595292206009 -0.0003881079894658709 0.00573500784721869 -0.002189503320336403 -0.006319734158148406 -0.001140962540622622 
-0.00472012597106895 -0.005068071481720548 0.005602730612228208 -0.0002116891329969432 -0.004459201418915495 0.002117346352294493 
-0.004813314853564013 -0.004369676585435358 0.007099791191410916 -0.00593445313496115 -0.005985897869538859 0.001082708938557137 
-0.01011969259112751 -0.004326611265297929 0.01326552117419083 -0.002397421544314235 -0.008710489579686323 -0.002684696712142354 
-0.00700536965775891 0.000854358329224693 0.008178969649813649 -0.006117681972425931 -0.004469013590087185 -0.003177274759397618 
-0.00935151040275805 -0.008372217881687077 0.01627303264837801 -0.0183153880233405 -0.01029263942237695 -0.01040731737885821 
-0.002729566204611361 0.002544891703644472 0.004254374192829487 -0.01175622872880118 -0.003689880819893247 -0.00495833043309286 
0.004004607935301273 -0.005062737925819899 0.0005824009613361388 0.006839501036125184 -0.0005680357169538672 0.002615268521357812 
-0.002878208393343609 -0.004011369167870011 0.01171673326455309 0.00355271709343048 -0.0005877659584457548 -0.005869515176112496 
0.0005769208229481341 -0.001276137646403872 0.0002615363664947596 0.003093485371162213 -0.00133442517929608 0.004382745135950846 
0.0008649267954414843 0.001556141015513567 0.005257671594328872 0.003848382924657128 -0.001367512362211217 -0.001978864431026386 
-0.003048144980949843 0.005972407948030477 0.0003903328157259157 -0.0007986265616649931 -0.003896384647386856 0.0006748088547506845 
-0.00260168818627686 0.004676640669536112 -0.001831955515304626 -0.001998213595939361 -0.001183534602962926 0.00410565678729301 
-0.0004412413329275479 0.002624150550659191 -0.001305109800167569 0.0006107923305807385 -0.002378841639603281 0.001563630146066709 
-0.001242003650884358 0.002452808596523271 -0.00259836967180316 0.004286704604974896 -0.001541094622324578 0.004924177655008822 
0.01669484413617137 -0.0109599579619694 -0.01856442108282973 -0.009628204470397989 0.01003209323529585 0.02343921968613946 
0.001902612454578765 0.007880316182944273 -0.001050386437509363 -0.001000249049245002 -0.0008063382753597967 0.004436164819147184 
-0.007881295120126863 -0.0003616676362001734 0.007159000086287986 0.002173746642270096 -0.005768998190815054 -0.004190245529374298 
-0.005608180857075468 -0.001921902235921679 0.00690031986278173 -0.003809086148744589 -0.003433067346138519 -0.003945510016073833 
-0.004731990467589031 0.0008146927242952606 0.001604391399260713 -0.00119443199528683 0.003358174755207365 0.0001374309889580639 
-0.0147246826222326 -0.002766024341659118 0.01480140241184153 -0.002752638838387527 -0.007466113894279192 -0.004498943768699743 
-0.002148419504912123 -0.001765068935693665 0.004093542105012364 0.003177299692208148 -0.0004041244380525984 -0.002234500391369658 
-0.007374314282481664 0.002406730327013019 0.003953268505664752 0.0009709447956515148 -0.003300248436787528 -0.0007226052277679822 
-0.005492144676362061 0.002103789927723233 0.004309601664834252 -0.003142253788153937 -0.0003414419943051292 0.000918730291891196 
-0.01247248793132814 0.001692018240387912 0.01876838099867411 -0.006319626479075017 -0.00690382517208398 -0.009814888659082343 
-0.006147816743439394 0.006459441256103321 0.011015363195313 -0.004686652282818234 -0.002923791298832612 -0.007105132743270936 
-0.009190878424402837 0.009581420900946115 0.003371874093857795 -0.004675598739340363 -0.003185628770843787 -0.0032108076091731 
-0.005652246112172372 0.007023984290638042 0.0002679197847595848 -0.00157387768533858 -0.002460931781822121 -0.001684394395764894 
0.002037407253199711 0.001714483656864822 0.0008816038276123005 0.002085941954596864 -0.006191055378869727 0.001046433563148243 
-0.003801314732411823 0.009876331529566448 -0.0005434189680354015 -0.002862996264304586 -0.003213154382378167 0.003944560710360968 
-0.008816413523947846 0.01334582598315845 0.0029400581416193 -0.004325770633994246 -0.008080739759536113 -0.001538879694865903 
-0.008667728428864705 0.004426944217092722 0.002458753903185524 -0.007454490301283082 0.00238922265321436 -0.008548583958464095 
0.006240819736235953 -0.0056335688585231 -0.00111133031113206 -0.0001759409087053252 -0.007227063971697157 0.0174040687647915 
-0.008938127407739568 0.0007728835999116942 0.004248125567561115 0.0006864265550319233 -0.009876545211086806 0.002820299650336466 
-0.01071148867708837 -0.005686254222358412 0.005660267299902769 -4.10157592745059e-05 -0.006172764272747086 0.01015797321353146 
-0.01402671649498271 -0.005105975148665858 0.005906680266476135 4.833697828897946e-05 -0.009468612215942862 0.002336568302709435 
-0.01214452395274904 -0.007438174782450031 0.01336096945987215 -0.01550800269001001 -0.00990762436997676 -0.004872105824908692 
-0.008307610968192856 -0.003283697670836416 0.01231526850903269 -0.01109437833633636 -0.008484982502402637 -0.005904115668191373 
0.007004162090838062 -0.002461502736466078 -0.0007719739377282204 0.003533710376803277 -0.001665175017152659 0.001202798507284457 
-0.005243268752980951 -0.007861398141385447 0.005440764173549717 -0.003424405151259771 0.0008410745287225107 0.009597255616507315 
0.005053930769167126 0.0009045422908701119 0.006955597033575987 -0.005636793477463928 0.001069947739639865 -0.001224612780384389 
-0.002455261327889104 -0.005189903269618719 -0.002417922129016577 0.007051524846314435 -0.002033281313806081 0.009991627594861592 
-0.001298106042891721 0.003128531978186222 -0.001663725590711728 0.002968147701225986 -0.001155216695778969 0.001676221667395596 
-0.007069784330576633 0.01228098749176407 0.0005702434833184801 -0.0001609318933451741 -0.002356230626081983 0.004445629810581045 
-0.002665453979809162 0.007715389852989555 -0.001234443064062345 -0.003109027755223281 -0.003102026872993699 0.006653285331812205 
-0.003066898248133615 0.003953525367599787 -0.00613932839699545 0.003971024392684683 -0.001594218787298052 -0.003285636430875583 
-0.0002983947508542397 0.00246283741889542 -0.0001737748076059394 0.004460226144465529 -0.0004714723516207772 0.000698232513174519 
0.001023145610987385 0.002059520740682226 -0.0002396741925334601 -0.005315549620744575 -0.001058633414042765 0.001871438413911922 
-0.00897136983459431 0.01615163521723411 -0.004261105840316342 0.007203576741358184 -0.001460540148159562 0.001051636530663325 
-0.0118602726752295 -0.003395236410210748 0.01134302449981753 -0.006398256102668754 -0.008207994640846254 -0.003449803882358973 
-0.01032157483679781 -0.0008940446937430816 0.005231031669496 -0.002720020032266014 -0.0005966244867062613 0.001075895309564462 
-0.007833693141233894 -0.005716045697734484 0.005924180608859154 -0.004887159155343991 0.001584869068710503 -0.002981450948080281 
-0.01839983500605631 -0.005253529066794473 0.02081582643679392 -0.01377428053217197 -0.01290531877406522 -0.01346743714884632 
-0.01003789931527065 -0.002466645680615403 0.01117596873841864 -0.008327436877797223 -0.005060903267290337 -0.006903078150127715 
-0.008389683055963564 0.004670765012840757 0.0058131214755226 0.0009252202983090811 -0.001835822716899717 -0.001204527125243607 
-0.005177544465763984 0.01148049022280126 0.008440576023530185 -0.006540969724274176 -0.0009738659904241496 -0.004864733157096545 
-0.003731599013686689 0.01882919951556396 0.002057918237676933 0.003117473017549787 -0.004985858670909602 -0.003280864740891414 
-0.009120428739275051 0.006034583976449541 0.005591465899929093 5.232671015463411e-05 -0.006925582069714845 -0.006463380048513134 
-0.002274094998896577 0.004954968750780999 -0.00326627981944242 0.004833194041243404 -0.002756270444626391 -0.0006901416581352617 
-0.01018777369384446 0.01638974549998408 -0.002814152534659393 -0.002508490745815497 -0.004137530117802634 0.004988672911264412 
-0.006537562328017263 0.007532907148408275 -0.007852977806346433 0.007418651974285192 0.00269316692361337 -0.006977197758073505 
-0.002275558099137622 0.003587683302660686 -0.001233559453944063 0.001625515634873245 -0.002904321043281827 -0.0003765554427238739 
-0.005177151935441775 0.01242865598199972 -0.002858203722469077 0.004715194397027961 -0.002172781571772839 -0.004822719767362557 
-0.002397961922605343 -0.003048062696895525 0.000659236647486718 -0.004873699751502245 9.069174722082371e-05 0.008357448317421199 
-0.006451923141262726 0.01419117939618913 -0.007532896669656034 0.004111229418071187 -0.01040944910536611 0.002751180240128578 
-0.0159248360111774 -0.005619629089741044 0.006698270492330512 0.002027410477573646 -0.01050784628672199 0.01228737064868985 
-0.008316029606536801 -0.006582892228460513 0.007899727270907989 -0.001035181362916228 -0.01057121646507504 -0.002027741537606337 
-0.0114628834735662 -0.01348705375025472 0.01110477491803217 0.0006015129885095045 -0.008960722613765687 -0.002251930293778913 
-0.011183874495793 -0.007294558920812326 0.00968217864443037 -0.009514789182116533 -0.009317292466588668 -0.001372681634802333 
-0.008147904193052787 -0.002432058715590421 -0.000781312267241688 -0.003038413033025288 -0.004138277486086874 0.008940173823389255 
0.001049149983599195 0.001767228767183324 0.005304210029181485 -0.004107704981805105 -0.004836706990474126 0.001042687536476987 
-0.00315764412186932 0.001703054885463822 -0.003803918707590089 0.003110908775105526 -0.0009265909227045697 0.02017707376799385 
-0.004350829745422441 -0.005111623351796661 0.0004282554298834907 -0.00119028057669792 0.002381264465895167 -0.002587184971464756 
0.005191709246722776 -0.003754830439600773 -0.003713163294398526 0.01137860219056077 -0.000203585594154116 0.00745209209510508 
0.003181257694660084 0.004200959286090202 3.978773782099848e-05 0.01009625970983937 4.032615550352473e-05 -7.143979181722998e-05 
-0.00414038173304095 0.001516104599829946 -0.006481771098671783 0.008373061172814639 -0.002735735894687746 0.00861608333634014 
0.003014405888463222 -0.006095087339269546 -0.003589578614282492 0.002029932760002393 -0.007661869766399911 0.007958467848441463 
-0.003695555076238059 0.003679223632445986 -0.003473201098123112 0.004879403890153051 -0.002442675736187385 0.006961983164035257 
-0.002573977047123645 0.0008705074752213135 -0.0008906724582248721 0.007854639610383626 -0.004035027390623418 0.005186620923440733 
-0.002098941844277676 0.005695450331001396 -0.00450135820041061 0.0005426766139471839 -0.003045103978983922 0.002987162275480239 
-0.002990926893061314 -0.0007350964263110868 -0.00648476680412296 0.007852175459556672 0.00164012698000523 0.01036726052631392 
-0.01527017692707538 -4.823909438326357e-05 0.002426977826655629 0.0022975804081101 -0.0027790326985595 0.003157236853731666 
-0.007840596840190416 -0.002407996194949049 0.006205214148867408 -0.006327556937230052 -0.0008231873310533228 -0.005327814156968649 
-0.01340012955131052 -0.01605167955417857 0.01497001534574341 -0.0037163501886449 -0.01164060669062034 -0.006479240320907616 
-0.01017626023403475 -0.00514636500402707 0.01552894091283042 -0.007618095767980405 -0.005469867461264506 -0.010774450507525 
-0.01655784590499134 -0.002427660170375845 0.0165652057759106 -0.01600707562318479 -0.01069740975231919 -0.0007193161090093601 
-0.00904756792100315 1.268581339090164e-05 0.003722668126226772 0.0008760094988223303 -0.001089806435526765 0.002278381573519895 
-0.01219964033269823 0.01275331348916141 -0.003129469272661442 0.00526261289228337 -0.004476157549162723 0.004470931256649266 
-0.00232160794450732 0.007099007282023702 0.0002382884975075413 0.0007787223701764626 -0.0003289928071826808 -0.006095422666726992 
0.0007349155309843325 0.01357139747017547 -0.003164187146141082 -0.0006022455378129107 -0.007645845129111923 -0.002932062917136006 
-0.007817724835847634 0.01529244371413753 -0.003815778306264363 0.0006715640349985367 -0.001878043308338937 -0.004782804272661354 
0.001531734276159826 0.01185214247010995 -0.004257759829088314 -0.005123834681248771 -0.001755020614484029 -0.007015633684667329 
-0.002177404845488862 0.01329133665447585 -0.005126543721589084 -0.0006574593306125616 -0.006180490750498591 0.006068666661213746 
0.001555962239240591 -0.0001025960387470317 -0.002539181707934788 0.003657546502192089 -0.002721593744796499 -0.0001428348676643159 
0.005853537860038405 -0.0003551379601144371 -0.002370418631464615 0.006604165702229972 -0.003977917992080665 0.001293077927322087 
0.001878133874067491 -0.0006584931768981659 0.001050011299966375 -0.0009281851320038522 -0.003306801060874135 0.003566784300036693 
-0.008864054130076815 0.004960768607929818 -0.00300096582535998 0.007047471239481844 0.0005582009462676397 0.0070956013261022 
-0.01137752292320336 0.0006189796645403592 0.009286008450664233 -0.001569993998125059 -0.003840363072086948 -0.001034971630442935 
-0.01013238961085857 -0.008433288516680407 0.005699303151889177 -0.0004711589624925415 -0.007213341118042046 0.006161738938999665 
-0.01601183757859536 -0.004756802164658389 0.01569208263022043 -0.004493766550913417 -0.008807666104486103 -0.001118782226866389 
-0.01280623408210492 0.004792710073516655 0.004707358469864645 -0.003665905840200943 -0.007040614201019824 -0.006610483755114044 
-0.002621994375006056 0.01018060838989229 -0.0001132084717079676 -0.0008154716615678977 -0.003523476142559136 0.001976435899949957 
0.0005359136892591761 -0.003843643251624656 -0.00757652763326973 0.008989851323769029 -0.006187876792470776 0.009133042695064672 
-0.001177719352371012 -0.001916632461070384 -0.007740536378156842 0.009120671901617892 0.002484467506070602 0.004505274008183481 
-0.00367933255475024 -0.006948876980959457 -0.00454540513377832 0.009605532877936444 -0.001509370800047757 -0.001757421905633895 
-0.002608145792488928 0.007037578390619839 -0.005384298292721775 0.01022925333859768 -0.001829628503825802 0.002438464378161801 
0.0008097510907780452 -0.002209360373505449 -0.007576354615962284 0.01834886836381892 -0.003250727760927795 -0.005067236046303265 
0.007231863470065711 0.003129277328622098 -0.0006566583014126587 0.002371255905731672 -0.00436700169288051 0.01161798563919131 
0.01153970213775226 -0.01148500763667405 -0.00773691126985061 0.003353989984491698 -0.00556552048379251 0.006436267703503627 
-0.001951508357313061 -0.008245747682999132 -0.007030689598019986 0.006060831907980751 -0.007016666292914575 0.009929463057502225 
-0.00905963832909629 0.001330550458860066 -0.003148486357378654 0.003644522430610001 -0.000293110265839087 0.00666306989790688 
0.0007461569521706679 -0.002159862839464461 -0.002874000205195174 0.0009445383881585009 0.006738291993479181 -0.002387056882781555 
-0.006139186859310476 0.00345362133163586 -0.006443906568092767 0.01012908991939347 0.0002568938616972243 0.009031441175937774 
-0.008257357337600153 -0.0009797226050431854 -0.002784500923401651 0.004399297668187778 0.002483676381052722 0.005415075546141514 
-0.006265168988212516 0.002714284029016018 0.002640156498724899 0.004422857720233223 -0.00172973601787761 -0.001446035090913053 
-0.002672305476977525 -0.001592226902935851 0.0003899981714618672 0.001535114801995789 0.0007461738990601767 0.0008101662076679148 
-0.01047351679314954 -0.01238820437193895 0.01944965874171178 -0.01084683294091205 -0.01272746008026656 -0.004492933689838525 
-0.01365973526432296 0.004629632824042808 0.0008590324059645859 -0.01042049817295555 -0.008502441876094309 -0.0009053356040750901 
-0.008770073171065023 0.007110880568832917 0.002721899512936498 -0.0059643995042932 -0.007185856148460153 0.01036508579448268 
-0.006987430281858499 0.007634936283833577 -0.004449905394887446 0.006765128707206794 -0.006092819416430289 0.003528292523453718 
0.0008124254961806834 0.01203202115783385 -0.004224584266164397 0.004017870463153253 -0.003356094991345538 -0.002138029856600459 
0.003872278745944551 0.009524189959187669 -0.005271004369982069 0.002011707925360006 -0.008550489630394535 0.002531508414061372 
0.0004188716882224395 0.008654291002155017 -0.003030017903526008 0.002287879371650773 -0.002380760028579609 -0.001894861928927297 
-0.0006154308461111364 0.0009111193690577413 -0.003389406191528333 0.001422822243787525 -0.001730440308640534 0.001973647785680251 
0.007024080692433972 0.002985299918786217 -0.004395861648123623 0.002245180441508307 -0.005050556360536317 0.001123740208804341 
0.002470574735543292 0.004231551357563125 -0.002965309026837821 -0.001529475333084181 -0.004393460327281657 -0.001661993907464344 
-0.001563208233173572 -0.0005486445791158803 -0.002187046701230973 -0.0006746027040966847 0.00182408080125179 0.00302895429699189 
0.002964164187309664 -0.002272999286587834 -0.0009131851082663325 0.001853158376562306 -0.001292358436990858 4.67048053750809e-05 
0.003694197763626427 0.004503940345282591 -0.0009509046991863075 -0.003356201389312209 0.00642215910658336 -0.006132731041586298 
-0.004711601473741607 0.004552514631750992 0.00985373232018562 -0.006033554601751352 -0.008305662966657586 -0.0126640882635914 
-0.002394219158219676 -0.008779824574712186 0.005216703902251848 0.003369916689747423 -0.004140084308033546 -0.004508998115144707 
-0.006776657305190724 -0.004988464464877485 -0.004871534676295259 0.01140797308506049 -0.005505628967236619 0.006141701183014351 
-0.008327426093485295 -0.002538655227712758 0.00670731954246334 -0.0005946880850583191 -0.006393264474028158 -0.009359458492923512 
-0.0006303581747582565 -6.67292169760659e-05 -0.003956297918891348 0.0004714718966353987 -0.0005946918821714671 0.002162960442618845 
-0.00440433124499309 0.001171287089992022 -0.001340670195121523 0.005320676824508977 0.0009029601860272591 0.001891107437033959 
-0.002323587814490919 -0.004578047539116084 -0.004385535211343124 0.005138373639130988 -0.001324481471808919 0.007294192196416277 
0.006617256897250052 -0.001100963862276099 -0.003996374935297135 0.002918736307999036 -0.004662168703847081 0.003751464524345922 
0.004705058838867516 0.005129464579489922 -0.00552800297731782 0.008830755354139639 -0.005069294263839667 -0.004472455070154041 
0.006779862000844641 -0.001069889351285419 -0.006191710680159411 0.008165610870157115 -0.003710116444132348 -0.002497120005249337 
-0.001003184509014222 0.01186744368402242 -0.01163008681563241 -0.00627317860088388 -0.01472109517956218 0.005623095702486034 
0.008753371020517348 -0.01098788083685401 -0.00364926197627267 0.002523807514062898 0.001001848691024725 0.006666890961372125 
-0.00461655439138349 -0.002003636332569315 -0.003883706054560998 0.01032845985407907 -0.004068324731698148 0.0157066724147536 
-0.01002694248942804 -0.003188917083931579 -0.002019351755001709 0.00593560226139348 -0.001186744854089654 0.007700208287504119 
-0.004525870816560293 0.001499590070114913 -0.003969500517750206 0.00863581692543656 0.0008485370303768979 0.002405567862762534 
-0.008185489157575396 0.00745945691442414 -0.002432058794551168 0.004750614984489964 0.001946579936923859 0.002035553442774599 
-0.01023652223234699 0.004520325933978843 -0.001010276331699519 0.003237706574321585 -0.00436711867722113 0.01267906492556804 
-0.006905057256937281 -0.003190367196167959 -0.001189450413627788 -0.0006720412981982753 -0.004068723337980275 0.00730527885062162 
-0.003299854649511133 -0.004635954994999133 -0.0009075607864557498 -0.002705304621368508 -0.0006544227090963621 0.002484074606379408 
-0.01685843727639387 0.002579779984668355 0.008166149458516878 -0.001426390960699448 -0.01062913433691282 0.002574389658574511 
-0.01534306800405478 0.004946803502143348 -0.007863704834097346 -0.0008051560881686138 0.002487245292123612 0.01099180439562656 
-0.01015055231067247 -0.001109156394418987 0.002637575776109691 -0.004854618555179276 -0.006389047761475483 0.005307312288300357 
-0.007933892740187869 0.009271882172199644 -0.003005379866808554 0.004736801785474626 -0.003334142905716336 0.008325425027451459 
0.00866350597042183 -0.002523663769383912 -0.002206894126461799 0.002425631074607051 -0.0002846455128018886 0.001170685628559381 
-0.004554522413718102 0.006885137172273341 -0.003936050256565404 0.005414834850055641 -0.003582911493787418 0.001354505997105054 
-0.00106121478587804 0.001042551272425632 -0.005426851902914339 0.003227669480871385 -0.002221958718544589 0.001628024194330468 
0.01196610301363205 0.001257130129589006 -0.002202117933629121 -0.001987991326263355 0.001996785041493697 -0.003355687066802611 
0.003922811787947234 0.001779285125092124 -0.003006288446760705 -0.006385099132127672 0.001882399619989913 0.0001829714739837751 
0.0009400228804341987 0.006666341852008759 -0.002770190955582763 -0.005141461245952056 0.0004239831825100573 -0.005117563710561246 
0.01292976517127296 0.0009316765554829972 -0.001670654562058367 -0.001113086062709489 -0.009083513492212539 -0.003426454369704744 
0.001115049918811991 -0.008019854128086116 -0.001955644656042155 0.0012537412397114 0.00563756227800319 -0.002215408769499646 
0.0003849590791121329 0.002121363183713512 -0.003333730316761724 0.002198284848516862 0.008030449858620909 -0.008844981879813561 
-0.004863733799379212 -0.006639312622368575 -0.002951248021594857 0.002413618176221362 0.004853392814793279 0.001254426719531397 
-0.01030905306496825 -0.008865199969175222 0.008887142951573411 0.001857146331261311 -0.009200667072531319 -0.001681378069052061 
-0.005518349275858822 -0.007043761454731422 -0.001446811517171485 0.008471899927171718 -0.002541385586063356 0.009687568877101274 
-0.002931895935480247 -0.001433991925098857 -0.001878349498138718 0.002290446337586224 -0.002337853354734067 0.003224850119750218 
0.0023541090039003 -0.002506553064404862 -0.001156552279301011 0.001925264174930899 -0.001515577291016674 0.001442249096625277 
0.0007287875103099231 0.0006384385326794028 -0.0009232732092455923 0.001666211856968398 -0.003201010736487248 0.002236646852211745 
0.005375696868782524 0.004081502062065076 -0.004120306710393846 0.003427780374162412 -0.004146468549252156 -0.0005511614572235582 
0.01072723079044429 -0.009532631764287338 -0.002036891949474326 0.007193824561747334 -0.005900954634656798 -0.003552316699495151 
0.004457417086990455 0.007685155421963251 -0.0008605976444937764 0.000852184801287285 -0.004034826112208839 0.004816233749130447 
0.001354849170790361 0.008968398880123763 -0.002997691668644185 -0.004697393538159864 -0.004248456357137527 0.0005831111361417778 
-0.009843863880005795 0.006677750026072975 -0.00698476769755624 0.0003147713261788197 -0.004384834957222813 0.01616352136330763 
-0.001278019606402558 -0.01024833924835087 -0.005551608391261218 0.005749316567869609 0.001893589132971933 0.01042298910745901 
-0.005763804081650906 0.005728191014248319 -0.003554506746788416 -0.0008201839138316843 -0.002475362484286928 0.001077105879517057 
-0.003226098547758895 0.007177051159114353 -0.003062756203976705 -0.001491267784258865 0.0009293483119835335 0.002894576740402016 
0.005628750491525887 -0.002971724224584205 -0.001711766630570852 -0.000269754540591682 0.0002893586678122991 -0.0007087944162671567 
-0.00168639778467789 0.01453451352343294 -0.006876478510441402 0.009881898881603336 -0.004345566916507295 -0.003514256041236976 
-0.0100094296718241 0.01678286774911564 -0.003352329543121435 -0.002243442807099781 -0.004228173309489214 -0.004139733233442629 
-0.009268354131753788 0.0008546891126716421 0.004340390853767482 -0.007105062886354445 -0.006509645695971589 -0.009644179095382137 
-0.003182064501327956 0.000402657649455406 -0.0007428001806273212 -0.003969091481771586 -0.001259606410751373 7.237302859368629e-05 
-0.01226281012550142 0.01502510738328898 0.0007088378515971673 -0.00121761793926287 -0.005693574381772745 0.003053112710975153 
-0.008665194517029925 0.003870977243093384 -0.004465796470082004 0.0006853920084916261 2.524210469871787e-05 0.01097754947281353 
-0.003969043173091233 -0.0009302130002554722 -0.003023361972607956 0.003548237865883585 -0.0004306978384920423 0.007041077801709639 
-0.004350599733687836 0.003775456112893308 -0.00329142776248044 0.0004306994677424402 0.002412984716182479 3.703521649163212e-05 
0.006305493300932777 -0.002363807404747375 0.005226828598937893 -0.007333709698524231 0.002734959625255608 -0.017084753041605 
0.0008498270794980842 -0.002201569425165851 -0.0008064019229753472 -0.005086157127625439 -0.002129491616825171 0.005573449743722565 
-0.001294034459123281 0.002647944992516249 -0.007303362860599297 0.0007656054443971951 0.002796801456901672 0.003578889826652591 
-0.004892374039732568 -0.002167445737124302 -0.006182570657334394 -0.002059153225066485 -0.009713837676728024 0.01860310410632512 
0.006258592478327852 -0.01147193620601425 -0.00929786100842842 0.005252198638176309 -0.0001899781450506441 0.01643780314011088 
0.005630689829002994 -0.004420152894511591 0.0009371626843309989 0.0003537333875993818 -0.0006216868586792916 0.0006590230167666744 
-0.0005346289212346061 0.004973006926196073 -0.004501924667995408 -0.001903048099862368 0.006037289749933187 -0.008612642902833718 
-0.00356920498920125 -0.009334168150103191 -0.001520839590402771 0.000993750544290676 0.01314293853702339 -0.007503552329236229 
-0.001993292404381169 -0.004175594380535104 0.00281834021221039 0.004101771883957659 0.01235923250578653 -0.0149981786594693 
0.007771871993986327 -0.003005027983106489 -0.003347962997664994 -0.002744220430091508 0.001834369704953261 -0.005270253255243013 
-0.00569710985479968 -0.0007894316570262735 0.0004054772373694297 -0.0008065133194130275 0.008617634670325667 -0.001485756611937155 
-0.01184541502791637 0.001074881308581094 -0.00369548672215498 0.003524619956467387 0.001262114822470526 0.002120704698183442 
-0.004825802451219389 -0.003514158190638739 -0.002139514497411263 0.004865713410935301 4.90608229269506e-05 0.001911091969096626 
-0.005941723466172708 0.003083547363103012 -0.002188360897507882 0.00413085935270515 0.00524415197086027 0.003814782102686359 
-0.003413491037273607 -0.004420232476952022 -0.002790247905918697 0.003947650834710867 0.002179531397611639 -4.87194545414778e-05 
0.01000367277920573 -0.0009703265476279363 -0.004219790892284226 0.005395689852810566 -0.002326432730058719 0.002967708519093103 
0.01655229316032303 -0.006836429044817465 -0.002998457365339029 0.0001715814306833402 -0.004503357861587019 3.381979186438781e-05 
0.01503211619652418 0.005326892368792284 -0.0005020989548836554 -0.001698169462959391 -0.001013677965369555 0.000361912551946077 
-0.000190783308218553 0.00603868029410912 -0.004195119907223356 -0.005000365851864358 -0.009393960583080624 0.00728449257733077 
0.005598567831704608 -0.01204544605633337 -0.004744914253054569 0.004210488929015471 0.004196045437660264 0.007624399609724609 
-0.007710325946464531 -0.003553158035166398 -0.004278275494940279 -0.002804846350164959 0.0116092975757857 0.005702025813373708 
-0.004701604923996133 0.006813430939323403 -0.002754907510623309 0.003120030446270677 -0.0002408758950363844 -0.004036716456578804 
-0.006315083371024683 0.003087790554399452 -0.002345954917422175 0.007659153170079171 0.008338018408974249 -0.002173898359125079 
0.006347372023100701 -0.00118331412497627 -0.001833168738434138 0.004473373609285719 0.002151610488318052 -0.0053608436010016 
0.005809364428653562 0.008623282546175021 -0.006765843840383425 0.006334109011249145 -0.01108510881572093 -0.00685169619522165 
-0.001775787833746909 0.005831306296369311 -0.005732687874084801 -0.0006905417944782183 0.0009328019700948081 -0.00610906006113761 
-0.006266237321989269 0.005783425160955974 0.006329400610543252 -0.005375379217827953 -0.01130199756942431 -0.01414037581475933 
-0.004634247671966078 -0.001719788865158315 -0.004394021991587952 -0.001028819828969804 -0.002638919702893442 0.006024881713001985 
-0.005097173668857082 0.006333944083256615 -0.004349628192279578 0.005212266634194107 0.002016822195019504 0.001880401708493417 
-0.001381194012024719 -0.002218424936844728 -0.001793457543538719 -0.0004910122838034892 -0.002643670199280839 0.008057810352631492 
-0.01082496580068235 0.001483362584796954 -0.005291392621736381 0.0008454071538863251 0.0007646298375317833 0.01461005050266139 
-0.0002535144836896639 0.009880116790792832 -0.002380084542791884 -0.005764649727818961 -0.0008575821846181828 -0.004730508431696509 
0.00916613883406414 -0.003715028013153801 -0.003611414269037745 -0.00462749547355556 0.01137417509538746 -0.006208374978026485 
0.01218098174164027 0.006295605642679687 -0.005161689869677994 -0.003963969562616896 0.001777741613914526 -0.003994118260555342 
-0.00468560350390734 -0.003098462035318518 -0.006303390355446425 -0.004423369730629098 -0.01238526394843545 0.02574502221164826 
-0.007344828779213073 -0.003276850181483605 -0.005177406523732335 -0.003941834313531401 -0.004396497579893808 0.01474212862906791 
-0.00361933799016027 -0.003132145365153369 -0.007709807868741488 -0.002151038470007755 0.0005579063365125279 0.01547509493465552 
-0.004499856856348493 0.01012420504464271 -0.006441046653276896 -0.002752190956278188 0.001083078250798845 -0.005502219959580294 
0.005876896185805487 -0.002511955015559096 -0.00394350058553629 -0.0008925887340906217 0.006476661795034065 -0.004052714923982247 
